{"layer_0": {"weights": [[0.004376243917476387, 0.007030441737200966, 0.0002688524824756252, -0.013918767983489549, 0.0022011091894650696, 0.0031122557109481194, 0.006720751290447684, 0.01733844818055931, 0.008235165254101319, -0.01116775578735193, 0.009199447613684145, -0.0054601169080084125, -0.013833235831395814, -0.009633289096118164, 0.0023529932408505668, 0.001539470273305145, 0.00499530965693841, -0.0036817545863077, 0.00786880551970581, 0.00527805999603164, 0.0057387832280856544, 0.01731880922646923, 0.006382984759322823, 0.010629725040285571, 0.0037608068735651753, -0.000965929755914768, -0.01625035696799591, 0.004985828484528193, 0.0024825355996060047, -0.00620034807486632, 0.004746914174763106, -0.003280649945640684, 0.01618736955010908, 0.006728471044247144, 0.010480021996963745, 0.012742257657442673, -0.010691413011796167, -0.005055728861342827, -0.009073359720470138, 0.006090884497531843, -0.00041296879097489484, 0.0050283070342579, 0.007875806791036806, -0.0010304922902194978, 0.01034598158771092, -0.005186718221619225, -0.01621857889534413, 0.004088728106312313, 0.010174056900754864, 0.0066298375705632455, 0.014140500398449093, 0.00020217868994809504, 0.004261990644918445, 0.004565606385428835, 0.008658271906991559, 0.005406573167047942, -0.00279240608221223, -0.005438962522819298, -0.00246656390338676, -0.00015989179621026632, -0.00451059323911162, -0.0009599034309929551, 0.009383120329822607, 0.0015771311261735272, 0.0036763475438425365, 0.014737688369990117, -0.0016704063657270157, 0.006306175373475516, -0.012746144554872996, -0.0023531912561992685, 0.010553838723215471, -0.00588571391589226, -0.00020961685996459038, 0.009307586439058118, -0.0069740327561339625, -0.008011844441799334, 0.011312949156204406, -0.011755557678023186, 0.01609995681713061, 0.016227385353323263, 0.013252161897072422, 0.013861908304623121, 0.0032780246814655095, -0.0033749447792471177, -0.011062377360001794, 0.013998101341896368, -0.005251576923672523, 0.02163101575679222, -0.014792045721245102, 0.007042747511088025, -0.002635906606525472, 0.007102493797770102, 0.010053477996453397, -0.014294929218133927, -0.0009070589978804115, -0.0014107073862877283, 0.004799710008020818, -0.015379117362276522, -0.0063201196452316736, -0.01726205215405091, 0.016682090033297577, -0.0019102809893444292, -0.0032138629055450817, -0.015653819005941025, 0.006964534520121454, 0.017165552950709092, -0.01862532032534383, -0.017228708989385003, -0.006687303159683425, 0.011601451379692014, -0.003252537591908687, 0.016674506927654695, 0.010180398272618409, -0.0003710432641995097, -0.008430643335964876, -0.0032865905645000798, -0.012198878765042824, 0.0028415249261582254, 0.00445638697019967, 0.0023715746687183003, 0.0033890651448311142, 0.0038691290848979765, 0.0032008789259208932, -0.0013132741143398283, -0.007497759495859448, 0.013516480414889974, -0.0019459717564496279, 0.01116344392471384], [-0.006282378222538162, -0.013118496574879917, 0.001285906297031615, 0.009499051726869103, -0.008486580931978939, 0.0021945056939029098, -0.008836899175240607, -0.01074668814651022, -0.012075394202484558, 0.008043063195599252, -0.0077347093943884605, -0.015959582460591183, 0.011635082421422947, -0.004967154509362475, 0.009324560688455141, 0.003084004968192046, 0.009927295927369085, 0.008565465101013714, 0.0043372648353649495, -0.004568349320584957, 0.023036716652545426, -0.013652105762838087, -0.0009725228548995203, 0.009827018053766874, -0.0062360898372715405, 0.006865308150173454, 0.0044986804455358145, 0.0008884932546105888, -0.004089561478416269, -0.0011779387500500716, -0.006004518593675041, 0.007878951651398113, -0.008773518389081206, -0.012301481560602193, -0.01713887014412018, -0.0006351604209239521, -0.015964886147442754, -0.0037011434348196218, 0.005177836060171149, 0.0034486129415751843, -0.0025558865200873133, 0.014958540922569694, 0.010228219952606565, 0.014431257025430735, -0.00622401239174876, 0.009261940575869104, -0.012129641905921855, 0.006031072878204094, 0.006082844884829403, -0.02359516761996902, -0.003925262796498105, 0.0074631262911790865, -0.004603124530052969, 0.0054351628491823316, -0.0038703555451896467, 0.006030964992967072, 0.014583611963425764, 0.006076653493338316, -0.0110352163352518, -0.0012351107883297038, -0.005798585060303071, -0.020697393879340303, 0.006160728595458504, -0.008138828350447283, 0.003359611573207365, 0.0033866070429682195, 0.009385574854329823, -0.0007993789915730008, -0.025206591016466332, -0.014411023233226421, 0.003341756191603327, 0.014048376223888326, -0.0025980119287311925, 6.0569012687765574e-05, -0.003719108597744438, -0.007301826947823712, 0.017173015850981865, -0.016047297165574268, -0.016032283266810353, 0.0029931360866739397, 0.0061212587350167645, 0.007007353759042444, -0.016072176020717758, 0.0023449878894126704, -0.005814127253794375, -0.0025689013828488773, 0.016747659992114874, 0.0012546832484096485, -0.0022129770016355043, 0.012899572596981853, 0.0011701087917105131, 0.0030760046605970847, -0.009994528702177364, 0.005235627602821621, 0.01468941398089631, -0.017188917412343425, -0.01128343290757515, -0.005257551899537346, 0.017046912009022957, 0.003786013637695014, 0.01290332908495028, 0.01834020250577273, 0.006359074358165391, 0.006432431850859921, -0.0004930617376357588, -0.0010998744995308317, 0.0013883172547299381, -0.004782695069431086, -0.0025459382359057764, -0.02731985466688203, 0.02100749260003952, -0.003082696389564391, 0.012378994811375497, 0.003898067539514817, 0.009951926137528117, 0.0022604763048226914, -0.0014015507919859652, 0.02085641665348335, -0.004379115948110768, -0.002102680612463567, -0.021585309517053685, 0.01752867397504173, 0.01960118093739922, 0.015089957921122511, -0.014620384844720542, 0.0033371911384548754, 0.0011534894324413006, 0.009356428159904643], [0.006653940643423774, -0.009439470346262784, -0.0031090680323040544, -0.008505608451023211, 0.012125066262861141, 0.0028890757085067794, 0.0038689609911678876, 0.002058436947618171, 0.010590906424241877, -0.014877218875695165, -0.025540588927067436, -0.011420690712926862, -0.015190814566595313, -0.003455116149259577, -0.012153399512940753, -0.0017780272220960414, 0.010657025713326964, -0.008465926078087755, -0.004183950175795452, -0.00395195032172815, -0.007284341283055387, -0.003462070988308558, 0.010122800533084786, -0.001228509623486683, -0.002595295783962814, -0.00966857202584808, 0.006739300215404151, 0.001275151187525322, 0.011589811015356829, 0.004058901847922548, -0.012486612053800923, 0.008929220823309342, 0.0009524544314774413, 0.005428814513683194, -0.01275322904280799, 0.0027372309694736158, -0.006952429558475847, -0.00904170864147484, 0.01501824974167583, 0.00559621540820747, 0.01449993240722698, -0.013623915853476661, -0.007490150345498459, 0.004580471152648241, 0.01931701414134614, -0.002100425983000895, -0.017596760045998576, 0.004134100811844822, -7.80881228818399e-05, 0.005824157401684034, -0.005967410787509753, -0.008511862514172533, -0.006434076521377771, -0.0009104298811257053, 0.01073448288653444, -0.009699244215962405, -0.018964015529534084, -0.02824569651830259, 0.0025788063930419765, -0.005636009077148432, 0.0035889764892925286, 0.0032477640241994244, 0.002189223232641974, -0.0055166390940319665, -0.009314316018379969, -0.01898065744361094, 0.015070188158444478, 0.009809531144303295, -0.00775181581450723, 0.005531116445451284, -0.0019341820336947135, 0.009948677198302244, -0.005205472394732521, -0.004654125798790092, 0.0001292809522578703, -0.017491055426566895, 0.003336268031474966, 0.003190948446451549, 0.003431471511775175, 0.0038851078972194537, -0.013962132568548193, 0.004241619058306535, 0.009853358110566016, -0.008792493636949962, 0.007881277713157659, -0.009805436797002156, -0.006011971257339007, 0.020786405939161923, 0.010397009202305333, 0.010795481731604183, 0.0040199501094608835, -0.002845201704161294, 0.00036922318329738954, -0.003152243966367053, 0.002024167343026086, 0.003958244293281819, 0.004990539785397859, -0.0026704993925397943, 0.001803438443364283, 0.00037812241381487917, -0.01108391310915589, 0.014306515684424315, 0.014530935333527078, 0.004386408607390042, -0.00606456503345018, 0.00407083134360512, 0.006829609788443091, 0.00041173204734414786, 0.0021881046802280524, 0.002241271300321613, 0.0032445982062473317, -0.004007404912101224, -0.01176114663351221, -0.0023093059719357283, -0.011823355757847202, -0.004145565018084056, 0.0018120887401672572, -0.004298325910858677, 0.0025416375859275493, -0.0010772470894873736, 0.0024457303754789324, -0.01522473050654072, 0.010306940076516004, -0.0031843804279163357, 0.006163793139072804, 0.0010986740932372274, -0.009491019690539922, 0.007239705466927783], [0.007148468053898891, -0.0013505359590223625, -0.006181935367925979, 0.007146108174656523, -0.005914319243464687, -0.015600668998090799, -0.01295937888562075, 0.016077919223098626, 0.016208467403440646, 0.010311980560287851, -0.00554355765789993, -0.010138479143582403, -0.01334646802740791, 0.009669526007919989, 0.009031126395544493, 0.025070742211220444, -0.016307967365967874, 0.00016583692339095692, 0.008587105539471987, 0.0033927794865243315, 0.003578562947446677, 0.00038878119265034575, -0.0057052988362867865, 0.011453963040105803, -0.0012089644873842038, -0.00033127590287019204, -0.0006205510152915711, -0.013599945592064604, -0.007523153506576567, 0.005152695070890342, 0.004826134177633798, -0.00028826088952051224, 0.0035030858284370516, -0.0013356494934167252, 0.012264728116056268, -0.005699027548579285, -0.004170065229792094, 0.021266520178897578, -0.007787121869777887, -0.004378558399562674, 0.0008318945371487067, -0.005134366671381673, -0.0033646900249974057, -0.005534521676437286, -0.004487996703768691, -0.001549018499623672, 0.015148495815980443, -0.0042407653638539215, 0.015504826532079009, -0.0021756132729010887, -0.0007320580072931284, -0.011091233762877498, -0.01191875287459292, -0.003470921975086949, 0.013279670617375275, -0.00042421615099994545, -0.017165989767934507, 0.00766299224275784, 0.023513843640320446, 0.005507815946870945, 0.0004221437556894044, 0.0044028409876177435, -0.002252540370912857, -0.008314117603127329, -0.01408702471892163, -0.015236075509168669, -0.016923676182241602, 0.005262382809965243, 0.01420173318919657, 0.009453747249354811, -0.0009889321851881201, 0.02097621751549391, 0.012661432351056965, 0.002712555334295564, -0.003942846618615631, -0.00588373363412973, -0.007555190483914708, 0.005435767692573735, -0.005106592872512214, -0.002324984731391178, -0.016003788975425336, -0.006678517018116248, 0.003990776923468103, 0.011758198076383853, -0.015678453442202922, 0.019564331945438156, -0.016921082697080564, -0.013090723913653728, -0.003290378121367928, 0.021314566435650946, 0.004530252009744431, 0.024650041974881656, -0.0066897793506139405, -0.004995188686771301, -0.003611339467190359, 0.00372719595757494, -0.011846866101389839, -0.0026659487005730935, 0.013987286593926646, -0.001112919480572317, 0.00852744268676332, -0.008125162871220898, -0.0022330238025329457, -0.0074293276030658675, -0.002888547881774565, 0.016161653025550782, -0.012925151537943548, 0.0011892521937929242, 0.002644806131663146, -0.001363952067639934, 0.004827272373337942, -0.0050293916255635274, -0.001002326956166186, 0.007151574006571233, -0.003642396557053713, 0.005742149067721279, -0.004159475732988277, -0.007218254909542877, -0.0030735305920749647, -0.012399638255498469, 0.006191556797568096, -0.008323835247569246, 0.0008347295543530331, -0.0033358766994123113, 0.003930021409158291, 0.00284025658165256, -0.008449211131047669, -0.0016435090083412563], [0.006501206991047566, 0.021114137483442205, -0.012237391735159683, -0.014870744067330964, -0.010758455151250509, 0.0018912631560710398, 0.014032517391314956, 0.01320111330559827, -0.004506941821213947, -0.008815982282271755, -0.009770796059423109, -0.002329176374612427, 0.00037424464329451215, 0.008508117311499232, 0.003120373612421032, -0.0017527030918096757, -0.020636875574067695, 0.009429884228384255, -0.01032711171846021, 0.004390367475114516, -0.01431300434556408, -0.011861646135105337, 0.008486498382273147, 0.015589496032859819, -0.0026876732453715037, -0.0007196636149812656, 0.007272873433131739, -0.000911122949686835, -0.010644264499019635, 0.003825629691217897, 0.0062570014090414655, 0.004849416793372472, -0.0009338571352262863, -0.003884409905723247, 0.006354340573946321, -0.0065414423394256314, -0.003330431480638567, 0.007622453124358809, -0.02391222240102088, -0.004454358273674442, -0.013486523635249754, -0.0012878122749811723, 0.020930989053467113, -0.010322831795991683, -0.007112968914264202, -0.005911007221585575, -0.017290587478207657, -0.0026319737641888187, 0.006442170565138912, 0.01471265784391353, 0.0023471544077811922, -0.009186574475896358, 0.008517840505311982, 0.0015231458068976792, 0.006155154755873125, -0.007567679432521821, -0.008276221216937527, -0.00427398538646016, 0.0015482863955478393, -0.01030175370266839, 0.020204066747134646, 0.002774587155736093, -0.014102933278331606, 0.009734407702227601, -0.005982549547247636, 0.0014668353085573072, -0.012242191320875149, 0.004557495583072358, -0.006090526804287254, 0.005106047923323875, -0.01950995895160538, 0.014857147062671688, -0.006990609749526563, -0.01735199867435909, -0.01938693161570783, 0.00545452234375502, 0.00902349712056538, 0.012455156150926086, -0.0014452852137299495, 0.020280434224993343, 0.01780836148604201, -0.0006615446764630106, 0.015959496584685998, 0.0057088660177831915, 0.0031607548198060225, -0.003819806263912412, -0.013369203382857037, -0.0066593670905627745, 0.0022054827145561785, -0.019712008853561423, 0.005762402151886109, 0.002774649918099206, -0.00921287397771705, -0.0026117492341604996, -0.007474950852150545, -0.002299596096740738, -0.013156307550683815, -0.010055801396020794, -0.008032472784029463, -0.007703098325279335, 0.019944861933285124, -0.00887824083062311, -0.009364568966344324, 0.000776766131304926, 0.007433025849566391, -0.003980548660486078, 0.011667106489368091, -0.0020598693430864475, -0.010154402903594926, -0.01364865922171256, 0.007412579781741875, 0.0029389796054898098, -0.0019469082862162254, -0.0151051691000486, 0.0028446090156991344, 0.019235808307376825, 0.0036317985287164416, -0.005798585047032666, -0.010029620759498195, 0.0006433065152853189, 0.014536377340986313, -0.0069022109695714776, 0.006650886373709132, 0.014723103897275326, -0.020947972232603727, -0.005055362655442838, -0.008769392008904706, -0.005254606524701951], [-0.00042454659791522377, -0.015313344207831528, 0.01711500412246978, 0.001450532759529545, 0.0029201474143015277, 0.004805694304025677, 0.012050030347637058, 0.0030242498068979453, -0.0006772987485567316, -0.0001394930525263257, 0.010255776454258975, 0.028288576987554416, -0.0051404749263920585, 0.008475020575125178, -0.026342892776093942, 0.012449702493844955, 0.008416056427493405, 0.019424505323165066, 0.009875190662368949, 0.0005029081207971918, -0.0023684488969565984, -0.0066435576768656525, 0.005490732679997835, -0.002423677166689059, 0.0045168293943901846, -0.001963163716935894, 0.007284068065986997, -0.0018669036801324322, 0.0020893277985598855, -0.01268043147728904, 0.002989762472087055, -0.0016114193364418189, 0.008965524068197032, -0.005324306539980418, -0.0008141036655451735, -0.009825177356054338, -0.011929460396798158, -0.00969663062979936, -0.014724426869560022, -0.010135543197480152, 0.015129875808931024, 0.012324712542714887, -0.005979661666619664, -0.006317880416455498, -0.0088948496717076, -0.021862717685787285, -0.0007157208516054465, -0.004414881555185775, -0.023579502764445207, 0.015834246330559302, 0.0004892592958768817, -0.011937596940162772, -0.000954769566366779, -0.005100169676687853, 0.01031191696163446, -0.013421157426772651, 0.0032054065475517254, -0.00119548677797599, -0.0017892541785191115, -0.0016641942963639407, -0.010083047599675366, -0.0014184950074468963, 0.006480933229723996, -0.00415759146611191, -0.009814375316128828, -0.01419522191750709, -0.0055264923199714626, -0.007819303745851429, -0.0046237634049416795, -0.024150846378196304, 0.008547109745095314, 0.00695871021807204, 0.001831337244203137, -0.014064387100688008, 0.004026029501907651, 0.001325176043573299, 0.024156591090305417, -0.005227120451185678, -0.005933726256648457, -0.007190710894841122, -0.006054362620825849, -0.02256951797170001, -0.0022389444661499868, 0.020536918390065887, -0.016140526816903648, -0.01584232392434451, 0.02606059958995638, -0.008678230483284888, 0.003087543154199503, 0.0026017922572827363, 0.01035245674531198, -0.008581097776053863, -0.0003424140336969742, 0.020315666983703747, -0.0027356493213003662, -0.018830496594663723, 0.004025090260259891, -0.003359639672149195, -0.00044539393355608463, -0.005147695017487296, -0.0007480229695128624, 0.014481719487944845, -0.01173116269014666, 0.014976114680749648, -0.0008924783165944397, 0.004695398143256209, -0.016560445706825844, 0.010736832963248764, -0.005561576201044727, 0.0036492760164390276, 0.0026577206177327123, 0.0222502021469745, 0.015047188338844886, 0.003366442832343038, -0.004763824594709495, 0.001178929632620154, -0.0019706681717355087, 0.0031378038814015873, 0.00612472869224777, 0.011151233005310977, 0.006239099992542772, -0.00018614388912884954, -0.006070291732580287, -0.0047805207787854995, 0.004327528462068043, 0.0035469819690120575, 0.009313659897974027, 0.0016107004280187746], [0.0057435872985506795, -0.009947760496805697, -0.004783817289776482, -0.009424178340306701, -0.0003275156869453856, 0.005444340260198271, -0.003721819159985615, 0.0038776749465775457, -0.003975580096224546, 0.021477911320606363, 0.00820062892562615, 0.01128500510582643, 0.010372617308400476, -0.009992271146823457, -0.001681124388356662, -0.0012586646732172192, 0.01613445469465796, -0.01945649508486055, -0.010552975206610266, 0.002413645247205744, -0.002527287228791621, -0.014211292416987152, -0.00036871126377416324, -0.005206273269638294, -0.004680024196833409, 0.010595670663601526, -0.00525703993991415, 0.00875651197599312, 0.005565094932439959, 0.0004951167772519611, 0.00558855617845496, 0.009844712257479984, -0.006579535504294978, 0.007727804813464007, 0.008989583401552478, -0.0021429493127048537, 0.0026893307503509122, -0.010822848561609233, -0.008546320118224768, 0.006451646203543946, 0.012838238686587298, 0.0029312100778637958, 0.0003063948152044129, 0.008182374666281963, -0.010545219726094922, 0.0017189626470464861, -0.00046906179412628166, 0.006212652736373478, -0.004229240050322781, 0.00615649862593267, -0.002081913053185651, -0.007181611654596568, 0.002633665690854549, 0.015472260116659444, -4.7526470540572264e-05, 0.014843677681999443, 0.015691977286225196, 0.01072578488670639, 0.0014579806415147148, 0.010813131146318057, 0.00166363193314312, 0.023449366867269228, -0.0014893441422206295, 0.026747953614247644, 0.00637836911472736, 0.010715289339626122, 0.014954844676022233, -0.0032290448649037497, -0.006455607287244849, -0.014852291201677961, 0.004466015547132078, 0.0035232530922898178, -0.007847268026688298, 0.011998065389128034, 0.015005385943332006, -0.0025889532477799387, -0.0052306874257737595, 0.007259234208669445, -0.009501176730834606, -0.003063577355533712, 0.0017636725965826478, 0.001027215503104521, -0.004331222263500621, -0.015008431044849287, 0.011635264226684552, 0.018271619173266744, -0.02794537071846755, 0.010478932233309429, 0.022285754537938202, -0.0025995734871455877, 0.014330239144358362, -0.019114060536561808, 0.0026714158764612906, 0.0024986385329009288, -0.015898129442752502, 0.012893635970329649, -0.014835947215653596, 0.014243788024534684, -0.009135263190291237, 0.015060091223520516, -0.005948947595022932, -0.007963773949288766, -0.014126472452943673, -0.0003208940163655788, 0.001160863298850511, 0.01965978886478548, 0.022707844786668038, -0.0030379378782525858, -0.01624288813415401, -0.0037259124729741677, 0.0016447279449568893, 0.007099846827534947, 0.021915448442100187, -0.006332681635972324, 0.0005963269544551513, 0.003355490677709432, -0.0076425739172694684, 0.017203231793984444, 0.0009125709970448578, -0.017096433594626786, 0.013364873668316042, 0.00902310834206936, -0.004205810163652706, -0.00406394245783931, -0.0037204040162331247, 0.005013579577664374, 0.0009161303212189657, 0.0046378021069095774], [0.002606035729698616, -0.0017887308049866757, 0.0016977744266958512, -0.01186347683662151, -0.0046432185220682525, -0.01216323753511131, 0.014476029809672311, -0.005703311534967455, 0.021289039557271537, 0.0034596210436854463, 0.004909420146391307, -0.007020203910236156, 0.0018528283889553893, 0.008052682549705826, -0.0076962138891317694, 0.000128680121716543, -0.012562332237742321, 0.014156440857921473, 0.003508035780356786, 0.014860997112948145, 0.010060102947204226, -0.010300481560198154, -0.010504178621486985, -0.003275395456599409, -0.02029162348189225, 0.002721659967509932, 0.0139210039360297, -0.0049330298853799, -0.010442010401759929, -0.01165717224097125, 0.009166056957418624, 0.011954857962647203, 0.017614029702269156, 0.007394680159514274, -0.0041528203417751895, 0.003779608364666674, -0.004384238978773137, -0.006354229954286875, -0.012944037652700077, 0.00032584180378236776, 0.0025904675923466296, -0.005538362098856069, -0.0004846017911781707, 0.0043027276257742945, -0.0028639009562737077, -0.018257185884532637, 0.016158668364951265, 0.012223581164537487, -0.0190245043046345, 0.004886423161118778, -0.003373728576971844, -0.004641811253997846, -0.02229395294053466, 0.008132850268334085, -0.004457187228389242, 0.00931505077082773, -0.003977955762555138, -0.004324956714075516, -0.003354577332192641, 0.01721879107529995, -0.01282957107896101, -0.013354363039521778, -0.0026816663129547273, -0.013285909485694178, 0.0013615283523831104, 0.005995035580793319, -0.007572647063751437, 0.002839925636890549, -0.003839703693522223, 0.00599959099337374, -0.0007393495922162995, -0.0039376186807943084, -0.000953260030822494, -0.022771554150287556, 0.003986139456194927, 0.00029545250352468855, -0.0027567941623996978, -0.0017637234835917565, -0.0036958758478996168, 0.014005072628448615, -0.004075371068867161, -0.0036283421122521755, -0.0017032261372894961, -0.0014077296327736693, 0.014817343698428931, -0.004301007764395108, -0.0008633868298012824, 0.007726388954841286, 0.0036466899073976217, -0.004628241950218583, -0.009102870074238566, 0.008377450995233881, 0.00287146360729759, 0.001093533390103217, -0.0018606980654342564, -0.0136029195904566, 0.0040041676540964665, -0.011201338200820017, -0.01660171477215106, 0.00103487521794837, 0.02576602809885997, -0.00829381770299645, -0.0025344863944397624, -0.01577372212840874, 0.01517295370194191, 0.00313428193107971, -0.0013947454047835495, -0.0010818278232662022, -0.003834571625184105, -0.007728489858467891, 0.014706218329169348, 0.007943834245954379, -0.00685877845011574, 0.0022267463706154835, 0.006966544198704897, 0.013591652415416733, 0.010923316342927829, -0.001647913781901147, 0.00038806386311736714, -0.005505503605496613, 0.003554827918177786, 0.0033948612417177065, -0.0037832438866289993, 0.007952954061598735, -0.009807032011054727, 0.0004338122007774385, 0.0019982365766211194, -0.0070307775374128904], [0.00046266024659958786, -0.0070918413150267935, 0.006863954637920221, 0.010415047406520161, 0.013618400023756255, -0.01085243304485546, 0.014617610670056087, 0.005165852018875079, 0.004996162175385118, 0.018004230099429894, 0.020179300583347715, 0.007289466422346275, -1.3526708309838634e-05, 0.009587806187624474, -0.015552558103648141, -0.004978010377873678, -0.0017678604938184803, 0.00038741779671022577, -0.01057444556268885, 0.010910236271849892, -0.011757340700425861, -0.0016145975570713655, 0.0007629514005786436, -0.002599761956696506, 0.0070407750715460425, 0.01313599433156248, -0.013416462569024668, -0.020336561621575263, -0.007426496866851206, -0.0010947242514380315, 0.0018996354564538328, 0.008383000342227801, -0.0019017231200089313, -0.004621595795432202, -0.009109248615816672, -0.006814983418353503, -0.007198632253181504, -0.005532601414810805, -0.0041861272952847415, -0.0032102180062375234, -0.013787215095848706, -0.010801929929805377, -0.0010323037639369927, 0.015881730796665515, -0.002945386706662732, 0.00745745660557914, 0.006275981049231583, 0.003513238456052188, -0.005767629765179974, 3.0000271912356036e-06, -0.0116433311178387, -0.01395091714369811, -0.006441305088167969, -0.00133370476852051, 0.006286970061554954, -0.002623715832376983, -0.012469743757637285, 0.012007849020310322, 0.015329800152812852, -0.011370053772904566, 0.01778858946981279, 0.002389041278591569, 0.018671323182211853, -0.009772661867554338, 0.016697560103542595, -0.014467440926850945, 0.005048208534444232, 0.011965549869739047, 0.015992617959279948, -0.004914017103162765, 0.010711260958491684, 0.006273810637303096, -0.0009489499211708092, -0.00991945818289928, -0.009368318538904638, 0.002428342271304087, 0.02308366461285479, -0.008294057366276726, -0.008421200572002012, -0.0035905320318216356, 0.008667682119229633, 0.0048779101391396695, -0.016740264566849117, 0.0003504930274510262, -0.0065547977438395, 0.012640640103063726, -0.002173014679030543, 0.0115771480794187, -0.007683441506138753, -0.0045309155204864, 0.017821335903180767, 0.009002479911062445, 0.00832775672551768, 0.001518658592750998, 0.004983675487974027, 0.010875641225148265, -0.00390840090424291, 0.00656631763419809, 0.005279789443202896, -0.0020665590717141376, -0.012669643296598643, 0.00921055803152081, 0.01519865672323587, -0.01441276657486172, -0.027129996821689317, -0.008596281100218192, -0.017023525428079934, -0.022529939050063542, 0.005942158412407897, -0.0034853071477820175, -0.0077365363424181455, 0.0078217962982677, 0.001007113518356731, -0.0008455521520901276, 0.003449128855147476, 0.02175728367035845, -0.014296759602824527, -0.0008160684769014662, 0.010333634611184165, 0.009429930499366244, -0.006438203804936276, 0.006789161206874645, 0.006327973342464032, 0.01720830720650608, -0.005031044116466971, -0.010618571379983488, -0.009443253867686675, -0.014845435705414146], [0.0009200106690248238, -0.002968129735472129, 0.0074362342187380085, -0.01297150668549481, 0.004340901725843981, 0.0022856026199954173, 0.013100322291473598, 0.010007030875463657, -0.0057132376781685295, -0.00568993391523775, -0.010785905654299426, -0.0034770822430446415, -0.0018580045226901372, 0.0012066459365467313, -0.001511987870222215, 0.00892838189073176, 0.008340173392417346, -0.0006643123711929068, -0.003759344683313479, 0.000861210555180833, 0.019321092185968336, 0.006723497494168422, 0.00023991959352072368, -0.0036781001912338947, -0.006450741049083433, -0.014142438497671897, -0.009411983585014083, -0.0004306022415694116, -0.014402279125599162, 0.008286819733877937, -0.007518366800620698, 0.007804016807117453, 0.001621158567965916, 0.008630019771955407, 0.008991839440555562, -0.012598428789269313, -0.012976346817070357, 0.0031945460632753714, -0.011149742908420381, -0.010740470275013932, -0.005184408068210832, 0.0033438602798353512, -0.010481178222183671, 0.0007600729591387036, -0.009910880936246268, -0.0017768064087604436, 0.007955463437404412, 0.005138358066639295, 0.002285106973844132, -0.0001368800960845749, -0.004069740305809938, 0.01465722025025092, -0.003686874370712717, -0.004967055268913262, -0.0009045477223651583, -0.005947155503666451, -0.003966582746470228, -0.0012070005388410163, 0.0066407838745326025, 0.02032161130729117, -0.008055552789189001, 0.007361657505683798, -0.001274614916880745, 0.006011538338177886, -0.0021399032282078813, 0.0007713706122110667, 0.019255617421911408, -0.004143282527883712, 0.005888099323173225, -0.0036984805495325923, 0.010454178915154544, 0.010949095071093323, 0.003525562967407085, 0.024178532144146937, -0.001115679139350191, -0.00689263991181973, 0.013224775576302574, -0.0015557278576892061, -0.0009904912282097857, -0.005167471949787046, 0.005337331098501167, 0.0029869391913296644, 0.0010343114780988379, 0.0032457794291202357, -0.010043081769220561, 0.0049487345005059455, 0.007068578553868836, 0.017904835657940474, 0.022479273862185144, 0.004316376211367662, -0.003910057392337445, 0.008000329725579064, 0.004926383441206571, 0.0006129696078098865, -0.0013382167487427194, -0.005620513791709322, 0.010249267565591967, -0.01620732122804019, -0.0003359968297497114, -0.0007548019992119696, -0.006555300362339337, 0.013103647705781608, -0.009593013302466317, -0.013959108188848579, -0.0046078308911217634, 0.0017100097176377905, 0.00717749179686516, 0.00562896650252268, 0.011722378715102373, 0.008167439271148689, 0.0049866446482429065, -0.014348590553152867, 0.0050597238512424874, -0.0031039057695927763, -0.013846432061417353, 0.0012483861410529996, 0.014554510306009846, 0.007623407746536846, 0.011822861321314881, -0.0003840452344361237, 0.0013511459807412146, 0.012048209734232776, -0.023013984467950676, -0.007577493596429111, -0.006229963019121973, -0.01963371932939619, 0.0010416968906944784, -0.014470483690156116], [0.012258989155540892, 0.00663351015701474, 0.004538214493271556, 0.010309753407877245, -0.005063443841757494, 0.011087103803734929, 0.007951893623833042, 0.0062007054470271245, 0.005161384047695185, -0.005002591695468572, -0.012194863166010171, -0.026289420513429484, 0.0074186422936527285, -0.010567254095655183, -0.013990677515885532, -0.007908199040408277, -0.004143529276199041, -0.013608508604285321, -0.003801847157413038, 0.02392304282032317, 0.0030602700775427543, -0.011631591941615385, 0.009057401994173372, -0.013354574772968449, -0.022583372062163033, 0.023283791585244004, -0.006005940667425928, -0.006841631780374779, 0.0030018794954117176, 0.0061756515925897315, 0.0014933745409843582, 0.004197777456607773, 0.005953475430945573, 0.01226796379341026, 0.0013392461553263118, 0.02083959740395513, 0.018281833123254737, 0.013843892349873144, 0.005342854174553783, -0.002555142947297372, -0.0018704972091750905, -0.01065691817548855, 0.01490829216160976, 0.0019618154936883185, 0.00033112621390332957, -0.003410895747820002, 0.0038843931137560153, -0.01233227969044003, 0.002229605609226827, -0.008160771869498625, -0.0034037661609271487, -0.010195306893700795, 0.00569794645857669, 0.0045729452123169515, 0.011199457317842025, 0.0047824364484205595, -0.01798041824512568, -0.0012443792804509694, -0.02334224823540912, -0.002129210298439752, 0.006794962261291681, -0.007738130043530126, -0.0028572575321058704, 0.02451279117347811, 0.002333696660203522, -0.0069786116126319825, 0.0045512900961880084, 0.006794429091691368, -0.002976967284971295, 0.00612948596531542, 0.006827490875446715, -0.0112960245156174, -0.016578112516363246, 0.006488171066621595, -0.013380549673574407, -0.011591803967927595, 0.010505610211016116, -0.01962525029510702, -0.0038231848342332978, 0.003995589254782817, -0.0040950100717137205, -0.001766647122300338, 0.020513689024784357, 0.0016290631367209213, 0.008996936707294248, 0.0044917892222924175, 0.009906954809462335, -0.00019063643166651573, -0.002633401193308555, 0.007985660769655597, 0.004867649879961527, 0.008654614936978151, -0.007020196160728382, 0.0181035416847334, 0.002830356920720567, 0.011453396948621457, 0.005340498697428089, -0.015268994290184884, -0.006191026802959848, -0.003522569332906915, -0.016926007360824516, 0.005107856025158355, 0.010129026168380222, 0.008602014813790661, 0.002434279274594351, 0.006858212962798693, -0.008130093628493101, -0.0027789011685742902, -0.01231011994939387, 0.00032631765989385393, 0.0018262777345103016, 0.018102548155557816, -0.008687397941878347, 0.006934251024364021, -0.003751990681695843, 0.009753276456792682, -0.0053601822782469435, 0.008779173057764093, -0.02184580666181723, -0.0060950009310186725, -0.007656732414642364, 0.014489481893057484, 0.0032931869647685615, 0.008398544296933218, 0.010288263797684565, 0.00024926267339723, -0.00195906555243128, -0.0035032444047333722], [-0.01044166116188712, -0.009365324044343475, -0.012804721118298024, -0.015052345184687628, 0.00842005893228575, 0.006468034544972569, 0.007059538737667343, -0.0010781413749237536, -0.00428371906318959, 0.009304024162351954, -0.008267340885218835, 0.010055803264201895, 0.0020311282111095583, 0.006874948286577252, -0.00150481290383338, -0.010250640004841771, -0.008346113988404782, 0.01111479820911868, -0.007238919014524329, 0.005246457561910558, -0.003553029155213975, 0.0022810219289717245, -0.010171729718788493, 0.018036170532141037, -0.0009554600203488858, 0.003950585894699096, 0.004298883185462544, -0.0005043152794639333, 0.016756142465956383, -0.01096412193057553, -0.011047119972742466, 0.003233147007683766, -0.011628998827435533, -0.0052766925242042195, -0.010185106589994126, -0.01835809775417797, -0.004729460818482297, -0.01597055412012926, -0.008258042672255314, 0.017704531697163583, 0.020224925402478524, 0.0010356499762679443, -0.017332351596426543, 6.855029872862499e-05, 0.0006031559243625206, -0.017274410034549405, -0.0031375222301096885, 0.009923415036594867, 0.00803574328504485, -0.013161217174330189, 0.010249537995972448, 0.003594486579886449, 0.0031503773163785997, -0.003434224119488692, -0.007407815710213295, 0.012577873829195277, -0.006633910217701108, -0.003952658811122051, 0.0014404951680195152, -0.0008440883043514773, 0.005446374113424336, -0.002705197867342545, 0.005972611235311888, -0.009715317211121167, 0.010109822784699674, -0.01100248499885733, 0.012640433856263603, 0.0022470105683270493, 0.0042635389401945506, -0.01068299525274005, -0.00023805747675356598, -0.010826948963304836, -0.010258403114331049, 0.0025201601501253774, 0.0018057173363110177, -0.0008108560301051745, -0.0028928593133677994, -0.014275125540356773, 0.0018847624196376013, 0.015064512887947426, -0.009582036239577174, 0.012864756439965494, 0.006204016791923506, 0.010308738863457508, -0.007992082693967737, -0.016164775506578553, -0.0022156736305290027, -0.006694417774588879, 0.006234353062300641, -0.005515483774413662, 0.00983860162582328, -0.017472220447097637, -0.004742753040151771, 0.016967273150211692, 0.00997212248788101, 0.011686045391022977, 0.0006380218064442792, 0.0012144444692281423, 0.004281946830507709, 0.0010386031943636874, -0.0014608964103565397, 0.014735131837557779, -0.021428732572886064, -0.00297017520119732, 0.009820556010405167, 0.013468081607760293, -0.0003945310186248492, 0.006535822188048328, 0.00023862437587481779, -0.01124432570653426, 0.008165392173911514, -0.008568254738482235, 0.006278150614284053, 0.010551519367297781, -0.002720956839395313, 0.005636468773099712, -0.025516650435681555, -0.01060481540521498, -0.002826262210977102, -0.002459153952887873, -0.0055851282190274975, -0.002576236274331718, 0.016919862516140163, 0.0028744012523475725, 0.00506838561912737, -0.009440690951104636, -0.0011915860401993852, 0.008055815287883876], [-0.034080419986086144, 0.010864736823835, 0.08676943921550821, -0.022080805489013724, -0.052025590631938706, 0.009097172290666415, -0.006457139377551646, 0.11392552199540201, -0.02457538804288383, 0.0013699603091645916, -0.006907281562477628, -0.01791065310338564, -0.0035149399027514447, 0.05318676521400064, 0.028539236126577952, -0.05233039165098644, 0.0722910782623998, 0.015806263925833477, 0.009968878135788225, -0.04954566585783312, -0.010394178505296371, -0.005499990648917974, 0.007107146814288578, 0.08609493978794107, -0.03752077832461579, 0.08537542817506882, -0.08945370473085137, 0.005412100209944728, -0.007976516806675032, 0.10548658856017476, -0.07921303221354628, -0.06018150117021836, -0.03603733960821062, 0.0453009064169572, -0.011934774326065259, -0.01931472275260327, 0.0026933794346939714, 0.0038329446536075206, -0.034513483738081524, 0.011067621679056365, -0.015785433270617308, 0.08026064267234966, -0.10453858218811449, 0.04132440134476722, 0.11780772122630098, 0.01066381564156199, 0.059914069533124156, 0.048462677407055434, 0.08345999719282962, -0.10557560568059163, -0.08676995060450635, 0.10671535555887263, 0.08736061193710667, 0.10241696860423569, -0.03080453636519952, 0.03581594259927472, 0.12484289427750422, -0.025452216193554988, -0.0279360289075979, -0.036083587325965526, -0.07756279199557382, -0.015169853959081632, 0.12024763196636425, -0.02600252690118707, 0.07774338586297214, 0.014222166243501122, 0.024483306395577747, -0.04867784947012502, 0.0762482453626385, -0.0007350210035025999, -0.022087708632074706, 0.010535647443976191, 0.022524882642200473, -0.04104178611877502, -0.0120326368093384, -0.007123334503103575, 0.02953265130382273, 0.10566707162285002, -0.0642002795280526, 0.07771219562032114, 0.014527436970896252, 0.019416755898415454, -0.0017983900591934225, -0.06159926478556642, -0.021634802290167236, -0.09910081037887344, -0.031223431238871443, 0.028794901281767364, 0.0913551464343171, 0.04683973439798875, 0.052234049711893916, -0.02764141166232713, 0.054853469555761016, 0.01685514461422041, 0.045170726257422356, 0.028157644442896878, -0.03273026959334584, -0.0946652493901246, -0.021814343859859794, -0.07612501868342225, -0.0682649543508703, 0.04790589845808396, -0.04800955120554797, -0.01668152521294942, 0.02324599419295032, -0.05671742795463424, -0.025627610021354226, -0.057464222804970835, 0.0028377253355700107, 0.08090895437023483, -0.06268701165005572, -0.026547865235489684, 0.01546935337038865, -0.07572901505111615, -0.020775750090982578, -0.02301493059071076, 0.05389382008628374, -0.004875726340100699, 0.02466139077158355, 0.01260433860674402, -0.020318112696442903, -0.005179226829013715, 0.08273439391383153, -0.00833849099434156, 0.005008458779176797, -0.05895275982971094, 0.032806862212421004, -0.0648433504251104], [-0.0017428026357274953, 0.08789326913711393, 0.11301803104890552, 0.0004993465929597208, -0.051557078821322364, 0.06803781628954349, -0.0014481860325119091, 0.1094104468581838, -0.06162041620767829, 0.04696369073229987, 0.05904967841088515, -0.06184058170610037, 0.03248508493084512, 0.08214207794338402, 0.047898467935490505, -0.0644146772049679, 0.04580262598909875, 0.008126088845511355, 0.02021416717661075, 0.02321096261113786, -0.0012040545770039366, 0.06612554188047762, 0.06979522374641918, 0.05466705908225917, -0.0714075419571492, 0.11471874702226824, -0.1388459610755885, 0.030080837413572578, 0.016212523555066742, 0.09853190029838237, -0.07285568270631028, -0.08065924705700922, 0.018196299889812, -0.031001370050524325, 0.008574804742836966, 0.05397937062028109, -0.051826503421463464, 0.07702224957628395, -0.052298764857836244, -0.03683184345505423, -0.048663772413134035, 0.036569638450123336, -0.1301717457259562, -0.03413571466320499, 0.04715564136411549, -0.002514226260137976, -0.03169232461456842, 0.11010328419882774, 0.05297520639742858, -0.10796069213754156, -0.10591649347387593, 0.08092529365223514, 0.08232101093876672, 0.06999814347007967, 0.04773148239249137, -0.0013465058737771583, 0.11089345184461505, -0.03452547795433911, -0.0007238186479138785, -0.014897254347790163, -0.0733760166865771, 0.011237495699997045, 0.07659206603923067, -0.026446062575842703, 0.039644271425098895, -0.045563536392379894, -0.06376342122238164, -0.09729085494955461, 0.13159950956644023, 0.08816204339801917, 0.03233398994498772, 0.022392321633287495, 0.08318935627926911, -0.05501497309603358, 0.07614573238392892, -0.032331533708678466, -0.05400663570587259, 0.08151485466310043, -0.0980175163287021, 0.09671405410818447, 0.04049767674474445, 0.026799275411732593, 0.02376716917153286, -0.08978705189091452, -0.07052459938000606, -0.1536120156101158, -0.04215686115477682, 0.0019258208382390907, 0.08731609620062218, 0.04094053567888368, 0.029211417739708152, -0.005536436589349409, 0.0919611825618589, 6.795719685995996e-05, -0.017736513060487968, 0.021693257365123352, 0.05712268788763387, -0.11492722452095812, -0.05229133235692112, 0.013258354629567023, -0.005551475844645953, 0.0051322354118360945, 0.03716095700939967, -0.03916867314472862, 0.063794575715763, -0.12698786992865974, -0.06492025872646022, -0.09442075734293962, -0.005561181213404173, 0.06349729235549702, -0.08268584592734453, 0.045873825948957433, -0.001716590289080277, -0.06168248750573011, 0.05646398524372346, -0.036445867546410105, 0.08287602937857949, -0.06556132296592233, -0.04002920335902976, 0.023464362367946672, -0.046884308345196066, -0.05075849732360251, 0.08429922018180332, 0.009621673788229729, 0.04728357705270828, 0.021091687416636137, 0.07378097581847554, -0.04402014512916266], [0.05225854695507999, 0.07921824341525761, 0.05435053657256789, -0.002959402731358103, 0.00729973979839062, 0.06593001576211384, -0.001745688674216412, -0.02969004655815037, -0.04200638701643028, 0.04243825640204373, 0.07774354894558849, -0.051929147679351695, 0.04841022563773057, 0.056736916427612374, 0.030766596772080844, -0.01842869119124288, -0.052113249234153274, 0.0027421522028841408, 0.008821028996408332, 0.048967721119194625, 0.03357156163302016, 0.07326376844978533, 0.04506799761277468, -0.06439079940514021, 0.0019731838190336147, 0.03535236187735464, -0.03143251158774475, 0.011955610780634965, 0.03897855747968306, -0.0634239106722705, -0.04419411666173995, 0.01579941585329929, 0.05844025918735408, -0.07340086018776547, 0.048700557378119486, 0.06392554313225948, -0.06966880768337255, 0.10046967055370717, -0.057746678021554795, -0.05710039535321682, -0.04277959041200583, -0.06619818119140272, 0.014918211838964326, -0.09024306533124037, -0.07497639213638721, -0.05888212532237571, -0.06688711759509428, 0.05725130171435149, -0.051294234867734476, 0.05897967753275204, -0.044907794478752594, -0.062130405064823466, -0.03649170085568162, -0.022963462810853343, 0.06228375739330688, -0.07091612744468104, -0.04433422913799001, -0.013076742178359456, 0.026889548531672237, 0.031244548875215175, 0.0226843146610853, 0.02252058456527983, -0.04926427102566472, 0.03478885345547387, -0.06172281343080086, -0.06736961326503967, -0.05667703266806981, 0.011275607374012044, 0.05919201372013781, 0.07360812292607383, 0.0782582672714591, 0.02440648618114703, 0.05170599405629944, -0.03425158286655198, 0.08243407268431724, -0.004171079702334476, -0.05493337232103352, -0.07046591069198692, -0.06698244278533816, 0.055820574737089144, 0.006870133716180077, -0.01658679364755416, 0.018927921212866468, -0.03702769530838856, -0.056274116493412275, -0.048404788343290824, -0.02587847354908156, -0.036941873278408234, -0.044142033105760224, -0.05135994126489817, -0.045579500498825094, 0.0276161873547169, 0.04816709081238653, -0.01662888916609685, -0.0511749463767338, -0.004208287480415845, 0.07067555806518339, -0.03168324044429864, -0.03925920644481974, 0.06583572582801044, 0.0862463475909866, -0.03942060144914498, 0.05698980434658303, 0.006992449150491896, 0.053222178601429936, -0.0547942248676569, -0.04905889606725861, -0.030291598103372192, -0.00800240246798526, -0.04413154013716354, -0.0742214951954741, 0.06638756721565969, -0.004825832869019812, 0.03292142718671174, 0.0585599112629482, 0.04623288115211005, 0.032068342642695896, -0.05011302737599097, -0.06989915505888812, 0.021533939469859795, -0.007896078370437334, -0.06888969340527773, -0.010007828420373496, 0.07480630535726049, 0.03824373484152297, 0.06192266024091145, 0.07774126947391022, 0.05924370769013067], [0.009565440088797887, 0.0015208645072787824, 0.005246118966169653, -0.0004384652738543453, 0.004616881293184398, 0.027749055996171598, -0.012140329232652123, -0.004073830635160906, -0.002834927675309602, -0.011341510318968176, 0.020969083128496026, -0.0028780469472363887, 0.0034728120526115597, 0.013054584285527278, 0.00238878963480088, 0.0076404414562437645, -0.011749521647534818, 0.0021077665386888263, 0.013177645708911112, 0.0047051984398449225, 0.018523158075076294, 0.007804886145327631, 0.02330513499756393, -0.008297638457322842, 0.007242471890300022, 0.005591170900349414, 0.000140142406595149, 0.01148920043915058, 0.009603799859345778, -0.004354064789098305, -0.013980384365644458, -0.0038358671032914455, 0.02129793721083066, -0.0065280654134594555, 0.004386048712024152, 0.019013091619355302, -0.00014152981099219023, 0.004067091714294224, 0.0034710320014974937, 0.0165763584067195, -0.000724104383733484, -0.021136720664993357, -0.003734351894001106, -0.0046671063946557385, -0.007163172866842749, -0.007643879559835231, -0.011332763686096571, 0.0034850223081349012, 0.012220061768463736, 0.005948282575394308, 0.021481425325967324, -0.013084601838996634, 0.0033451253431630605, -0.00694594732991387, 0.00469295518296461, -0.012179999709890447, -0.0008660680502419497, 0.005692695504621355, 0.006485531220593106, 0.0008179424532357434, -0.029320471388204778, -0.009531432506329556, -0.027973430584944902, -0.022420565644677922, 0.00018081945102676084, -0.004564552527605924, 0.011033562955822565, -0.022737269391906345, 0.0179870244916337, 0.013533412893006767, 0.014642332466584767, 0.007009110195111062, 0.011614494943681632, 0.011396399500291008, 0.0049722274604894765, -0.009337175830350142, -0.017040029703338195, -0.010537161534461294, -0.016727155132426143, -0.005684154978175199, -0.015243442428604528, 0.0039082619327339705, 0.0002658084379043879, -0.005486368554133481, -0.019789537075763124, -0.015802120279033105, 0.017377390029974016, 0.011610051474796332, -0.009751919263920831, -0.01772747690660835, -0.0023163333909706043, 0.009061371182511324, -0.006335833998440011, -0.0034374662262889916, -0.005789421860490553, -0.0080459086521178, 0.013567045364716162, -0.0049892843481512215, 0.011036645602524193, 0.01736982654389287, -0.003605412660567187, 0.006361872720898602, 0.007690453783412431, -0.0058169185108525945, 0.00886073596414559, 0.0012692199580337244, -0.01412511185302591, 0.0074993178782337185, -0.009892417512687362, -0.007384514069040129, 0.007763718821346758, 0.005876311265980898, -0.0007302547501798845, 0.002805381443738243, 0.00712029765318477, -0.02608460733153649, -0.015836217191422027, -0.0030901514175047276, -0.003419149032975789, -0.0035067134008212103, -0.005576381482366347, -0.008158203520497896, -0.014293047844511037, -0.0022355672485897507, -0.015277912374064066, 0.0022704288000414134, -0.004382584425225634, 0.004428652539029774], [-0.02670769019754834, -0.010606116996972241, 0.0026220176577522953, 0.006592667886764439, 0.022690712462783404, 0.005970322376174368, -0.010269863691496685, -0.012154199380184359, 0.00940606717196907, -0.0076464138372204496, 0.015145156545321772, -0.007900667002697632, -0.001211202715530248, -0.0018875621560239706, -0.004454677036730424, -0.0015819952163734921, 0.005883451078272224, 0.005294222518872247, 0.00605103405193858, 0.005776928522192015, 0.01235797150116348, -0.005166315034638056, 0.0034519958972687144, -0.006174828470608657, 0.014067796773526289, 0.0012318077931095827, 0.004305608384414024, 0.004049853080068653, -0.001994078054695264, 0.009004544481312554, -0.014770613891535165, 0.0006279941288699432, 0.00779041123084544, -0.020341785994378234, -0.021327270445096337, -0.012138145149216892, -0.0038621522771175648, -0.0077479960951290765, 0.01185632760888413, -0.013122923970167595, -0.00044206125306559083, -0.0031220521403825907, 0.005881232086832389, -0.005874579016218496, -0.005580013793293285, -0.002479294762194294, -0.002879185668865984, 0.0002554608012833697, -0.011451299970378827, -0.020029372216946357, -0.008397065293167083, -0.00381451685132997, 0.0010385477513559348, -0.0005530428030659431, -0.008683364394055433, 0.007109424763753881, 0.004191565242086766, 0.015926682293222104, -0.0037017687906303713, -0.0071020297015071355, 0.005736460488188257, 1.4295617128585414e-05, 0.007414558086734952, -0.006585544655639314, -0.005204487090686514, -0.004320496826402468, 0.01333802718931383, 0.025188838863059084, 0.000359601005325122, 0.004672031258815103, 0.010527816294432136, 0.001894306101828178, 0.0003553480292287869, -0.004138811918216981, 0.00959614121564543, 0.005676951419918716, -0.0022658709174221596, 0.008822163358544329, -0.006086130329560744, -0.00856555402737609, 0.021656031689463954, 0.0036304227000445773, 0.015993337845235482, 0.0081811506525933, 0.002103926183835643, 0.001770004928621155, -0.00858742479429968, 0.0004094289866402644, 9.886475909009792e-05, -0.0009168484942718414, -0.001743249595038916, 0.0012887857121739608, -0.009302890656949598, 0.009491519268827842, -0.006260820334574416, -0.002418623799357916, -0.008807341929372485, 0.00633728311301474, 0.0033440208782021226, -0.00011100098792049057, -0.0015062929973865607, -0.013467544820137746, -0.014847041573341773, -0.0033598727582999028, 0.006988084166139214, 0.008480860551164225, -0.01706253125712749, -0.012598295654232403, 0.005732339062204556, -0.005561337052945182, 0.012821157920336706, -0.008199671832635704, 0.010972467456513773, 0.00014840241969347976, 0.010252618523313729, -0.0032023088352860184, 0.009307695987731509, -0.009318155685910082, 0.00650194229813878, 0.000700611701525336, -0.003309434298674299, 0.013304992574998214, 0.006208988032923082, -0.007399069234001719, 0.004673631567827801, 0.009905774771609175, -0.010697998078821531, 0.004906983481669197], [0.00495569699646029, 0.004464117216984727, -0.002847844191341213, 0.005020112853633664, 0.016623258663347597, 0.01803831561966305, -0.014722367565226437, 0.010193253606299173, 0.007933950331434684, -0.001857862487047093, 0.009743664086771327, 0.019483890884511107, 0.005644906898499831, -0.006478230014777391, 0.006196979715850909, -0.01375180983285267, -0.006118004907863639, 0.014925578084843072, -0.012748356809845478, 0.005619363676575575, 0.0019129998064467682, -0.002381186525954796, 0.000480985531832854, -0.003907238501810475, 0.003941914761433151, -0.0014579031791011328, -0.005251013253178754, -0.004923953120939917, -0.00608534737463465, 0.0043252206635113, 0.013461170143055102, 0.011291991701011842, -0.0060357825661163135, -0.007853927335363825, -0.009968228584433515, -0.008196328759204905, -0.0066416564940548406, -0.004531456154989542, 0.0001842501133787564, -0.000286525149028251, 0.01785837761055845, -0.020376348671411425, 0.023571029015965365, 0.024602658574373923, 0.011100841159772534, -0.0040860952359431345, 0.007023928658418884, -0.003166344468028813, 0.0015100954618123465, -0.0226890828956181, -0.015841886542029882, 0.007903170981572033, 0.009631929337365735, -0.013097281561833598, -0.003357530191977792, -0.006030082664179959, 0.01003252413675594, 0.0053166179305707785, 0.003693782995082114, 0.008078906852824294, -0.008672525264474837, -0.01013433651660329, -0.012655846067507633, 0.0012152198833098992, 0.003012733180830499, -0.017497800999768037, -0.010722078103508021, -0.002766253715094985, -0.008532720418288724, -0.004197441519375026, -0.026516734515791777, -0.010701095586077139, 0.015821797778435173, -0.021446033963363788, 0.006301587168112843, 0.016395385544147857, -0.009264044249772728, 0.0021176816214633367, 0.02527476808273181, 0.007399623571581764, 0.0002780853824509509, -0.017403401789418887, 0.005689125501097149, -0.0012711030473358553, 0.011085029866266381, -0.010792573217066928, -0.001170241301814904, -0.006223404384699181, -0.00849284444017949, -0.005870256971866645, 0.002694052856779078, 0.0017350866587960306, 0.003558560376042977, -0.022354880292212106, -0.020525240414173838, -0.0006677853855704069, -0.006992245322188245, 0.008803102121113845, 0.008515132931307342, 0.00438995338737357, 0.003342233615910247, 0.002810476222121454, 0.0009088105724419989, 0.003132285316830451, 0.017010794648538066, -0.015115915326809615, -0.008871297798975232, -9.008035465644757e-06, -0.010578152094496121, 0.003697334627769581, -0.014389622792616297, -0.0038523014569749625, 0.00187243623267106, -0.0011685546336665442, 0.01023076005864337, 0.00994261162046836, 0.009915210224603883, -0.009983358875820327, -0.007189290729849739, -0.020692948493422177, 0.020375869677559628, 0.004093256209365564, 0.003478845860443516, -0.0050976271998059595, 0.00022862582960224542, 0.008971708286685037, 0.008366704670205505, 0.003126987009073032], [0.00044744465349269265, 0.0010214420982431053, -0.009776226130581806, 0.02106552289112138, -0.0035598476003837684, 0.01868883903262246, -0.010620133784323825, -0.002534620445880246, -0.010385248797951665, -0.003182879587110913, -0.015092159479540049, 0.00020883424763801562, 0.0099328962429394, -0.019653280322789568, -0.012870530450440358, 0.005158108961845323, 0.009651812995451549, -0.009218130591886293, -0.010717176482947424, 0.002913643294132055, -0.0139658114232998, 0.0019285116940927047, -0.02222503472161625, -0.014012849054868213, 0.010968548442195764, -0.013063409455345645, -0.00010698795583968154, 0.00544284520080121, -0.001719699593580381, 0.005086838829942697, 0.008377831533799758, 0.017936245966877786, 0.012487549654588535, 0.0016715669769799388, 0.020451947260746516, -0.013733766256427023, 0.003062482183794377, -0.006255082299120393, 0.004246176464384343, 0.007889743258086274, 0.006578652137695713, -0.005902219339382472, -0.015201653707645556, -0.014116486652068586, 0.008074945949699675, -0.0018321219847917836, 0.0011893820404503578, 0.00549133301930765, 0.013012341118354824, 0.013439297538799959, 0.007054205778222087, -0.002888290348660162, -0.015797476363799818, 0.0008265597497558095, 0.005284259905840114, -0.004343913488928045, 0.017892588722948626, -0.0006112294311380409, -0.012751962272533597, -0.0029845775373726086, -0.008771422016745812, 0.003998617802736067, 0.0018279206957476314, -0.005524725016546616, -0.0011198631101581216, 0.020481180187590705, -0.010708726493159522, -0.014463962238294286, 0.010522124570054366, 0.02041457987037163, 0.002053727879161652, -0.0022882667588864035, -0.012202462645040458, -0.014967522395026371, -0.006666019617985082, -0.001997668526203849, 0.003187433149308116, -0.011942727207117497, -0.007846315811320047, -0.0026310734067030534, -0.019560550051247422, 0.010287021620163773, -0.00447523625101164, 0.008245963285203294, -0.008725517891705246, -0.004555580832715356, 0.006935683529243562, -0.00790055219551636, 0.010871132338590758, -0.012219478510549303, 0.005819079314356783, 0.009624584567748963, 0.0007457268669996721, -0.0026055473346579144, 0.009485337939894733, -0.001671165317474612, -0.006430073633747482, -0.014896401919564818, 0.001503005177956077, -0.0037024150774140115, -0.007603001346527407, 0.006320870740511182, 0.001003385998056067, -0.003052081740151117, -0.006547927029721039, -0.012103334307656137, -0.018091678875456384, 0.0005236417869331194, 0.022704931735647808, -0.0036281003739692223, -0.004683884330737253, 0.002773009394143048, -0.0029259867035150476, -0.0026168698209894526, 0.02410246065032616, 0.005065453851854869, 0.024016408245832097, 0.0008037576817581804, -0.008206940233267639, -0.0074261378747468324, -0.0211588551251083, 0.0047316305410317686, -0.007274053038407651, -0.002329203609815325, -0.0017425477264094674, 0.001750306583862207, -0.006330093916669808, 0.00015265166271169548], [-0.004822563608997867, 0.011656683044178195, 0.0007638837854061198, -0.0032536087826682807, -0.007110470086279026, -0.009217241135751307, -0.0017075752925104419, 0.007864305568507283, 0.0027053314205264904, -0.010292960037952244, 0.008288466162880783, -0.00651615671301963, 0.014782154336767637, -0.008359920196738865, 0.003392062608619873, -0.004479822656531552, 0.004540908429207432, 0.0005842248430687178, 0.005077614938891614, -0.015732017984307404, 0.007626715742779883, -0.02734587924055856, 0.008885473367743117, -0.019822800594108136, -0.002774900977046976, 0.0006768270863700648, 5.53706284483353e-05, 0.011115958012530174, 0.0035787643145018494, 0.00532901977642897, -0.005817384106117372, -0.00460435043797643, 0.0030146111131665048, -0.0003281955900737793, 0.011242853550326247, 0.010565958371851553, -0.014991303818040922, -0.0223610241811561, -0.02097601824077109, 0.02241748917605842, -0.006249592395815842, 0.022105340497842102, -0.010892724859968735, -0.005869634333207038, -0.006900907219833076, -0.005784572966072496, -0.00976168871992456, 0.0010671030058217379, -0.00403242680788111, -0.0007281455352686947, 0.0018025102512539, 0.0006247982652353104, -0.0025063934019428375, 0.009352573989732564, -0.017233275449336796, 0.011884411580320222, -0.015773393180556778, 0.008312947589640594, -0.0010961237002631622, -0.007355755349961591, -0.011045412262649578, 0.008388914228142705, 0.013598034928002963, -0.010747559535716647, -0.008972937138639354, 0.004852712203793232, 0.021435454411407304, -0.018558801803066852, -0.00997769725174237, 0.012575756471905713, -0.01777518075169224, 0.011769386030517349, 0.0031557857167442893, 0.007701690176734935, -0.008979865654391447, 0.006692422250576325, -0.0070203229517496754, -0.0029960035113835632, 0.005946445834286417, -0.016992598145198556, -0.005989273643377278, -0.010785558782808081, 0.005404147738796247, -0.010071755669764043, 0.004907693238324828, 0.004032690997395836, 0.003726778164533048, 0.0005467317586259761, -0.006875051612031164, -0.006991316038983855, 0.00025722781958818113, 0.007661593847914221, 0.005822474503528018, -0.007149645433042913, -0.00752116798386504, 0.009112943848908959, 0.01831321412870606, -0.009437642427273135, 0.011454521906841866, -0.008794194201158335, 0.01277139164687483, 0.008432018052639692, 0.002557369239797354, 0.0013497610297885396, -0.0018704352265831116, 0.013281805602019985, -0.013751933728407842, 0.007331483425669369, 7.816508927458627e-05, -0.004945547897701552, 0.01300012936214991, 0.0031758245901007238, 0.003489622788953819, 0.00026313417168664466, -0.02263414431118976, -0.01290499772769582, 0.00031797814427601107, -0.00024231243619897053, 0.0056071080740148875, 0.010930407795958648, -0.010207919886768732, 0.02506886050470696, -0.00022549025145945486, 0.0036542527432668497, -0.01427210998020259, 0.01563127613692851, 0.010956985344789574, 0.011874271047127523], [-0.003646001341582367, 0.016487055171308045, -0.00811287166456372, 0.006646147200272801, -0.006032157407070944, 0.0043453694482242676, 0.00750201780218134, 0.002959857179416848, -0.014347613957500553, -0.007337939364920148, -0.0052566615415943095, 0.013318287359053986, 0.011880310288463631, -0.011485310164120242, 0.011897473185070916, -0.015201992715593556, -0.0024199104276598445, -0.013879425231602105, 0.006245527037198292, -0.0025572773437131224, -0.005337668365848818, 0.0158967010301077, -0.0070437096392384655, 0.009845056210095519, 0.011911151862674144, -0.013143617187702366, -0.005356779638593775, 0.0011712463714486628, -0.0193845652832793, -0.011980928758724165, 0.012515627110234896, 0.003871944468123004, -0.00011390032586608885, 0.013291771264774042, -0.0011938569089864051, 0.007569889876359612, -0.027150922185582838, 0.0059809473766602285, -0.004897602482816932, -0.008102817933331846, 0.0020184644864392866, -0.006954268838131269, 0.02105937028530559, 0.0052944735929854455, 0.021822588919333353, -0.0034480659199866755, 0.010689735327767076, -0.006429292141351032, -0.005314573965610432, -9.119231173413707e-05, 0.014596782468677596, -0.009732131842959409, 0.016772900138337068, 0.00011219303473465659, -0.004327296924962121, -0.018317273506549877, 0.0009813660149968508, 0.014195963103702856, -0.0036081345792302304, 0.005256435947841483, 0.009157873762825825, -0.010040375058660757, 0.016047746147394286, -0.0023801720024796665, -0.010669172342274862, 0.010720155631480564, -0.0020479337238115823, 0.01677308294450077, -0.004523358232746999, 0.012711235394290185, -0.0016688980023713785, -0.015135097874234773, 0.004002477252192201, -0.014646899669197197, 0.004584361974628844, -0.007842174146502581, -0.013958887057616725, 0.012622780780329338, -0.010742259567371041, -0.01220571476885668, -0.0011129078421632398, -0.030652560819234623, -0.01362261420868071, -0.006038756124362312, 0.0003055453114846025, 0.0035556825381135118, 0.0005518825533933517, 0.002019707607112164, -0.008575159801378693, -0.0065517301807408125, -0.005448597161595465, 0.0024261385328296094, -0.012346503935317932, -0.0048098327251551234, 0.002907080581147225, -0.001386313991723738, 0.018860874905843518, -0.008018206399241666, -0.005273227909647231, 0.01249165446974771, 0.011944452815151115, -0.00457838470056731, 0.004508166831936077, -0.0014925594089212862, 0.0013361960573675784, 0.010357122247855313, 0.009344631743057405, -0.027352789291742296, -0.016764571962709047, 0.0036843766454479733, 9.819194378561246e-05, -0.02024860745552366, -0.005554653403356228, 0.005015251491167102, 0.011807050753862803, 0.0019275406759988879, -0.0010205511046002334, 2.020005737760201e-05, 0.006406949064863649, 0.00447079496145408, -0.01306121296821857, 0.018466230086275313, 0.023318041322352375, -0.0017624373796670495, 0.0007484230122087508, 0.0022987938227625494, 0.004380721910591489, -0.0023974015238348544], [-0.019264915291936763, -0.017382175939718705, 0.007099383770811282, 0.023195737401258625, 7.267195251661073e-05, -0.01086198891120442, 0.016817753686744628, 0.011930500391908272, -0.0031312584308577293, 0.014199891215452638, -0.0011700261973740759, 0.0014530568174441346, -0.005668315426027395, 0.003706461284809508, 0.00032371074946733325, -0.010578895851322384, -0.005794201797624958, -0.009817026497149417, 0.012115883305150905, -0.010576389063344533, -0.00941243818883233, 0.011258989469836906, 0.0013059213012468333, 0.002826799621326953, -0.0029864252110009494, -0.014737282931077393, -0.0017767688872556587, -0.0003526995745018065, -0.006371019583502209, -0.015209454268786365, -0.004981534252846105, -0.007532308788334055, -0.0014328310583918524, -0.0008228227216993272, 0.00012592295674500545, 0.005456843854912016, 0.0008031609296362785, 0.008736903223485984, -0.007449304113088056, 0.005302490598731898, -0.018052947227987667, 0.002495276084756701, 0.0077107557780784364, 0.012767957317076917, 0.004390659936602996, -0.008173890894010024, -0.0008773350886792339, 0.0009271371572687838, -0.0036460322268933067, -0.01324158858820218, 0.006227970181404732, 0.013223261019407954, 0.00600590747816481, -0.007318206012871478, 0.004299532030365198, 0.0007851337033088802, -0.004006293069062132, 0.0011456498965110118, -0.002087391129030201, -0.0009038362717659955, 0.0042630467553275144, 0.011434057296399429, 0.0051604852647996954, -0.01285436577548187, -0.006996723742908856, 0.02018228054122379, -0.006047222713026197, -0.015679320921457702, 0.021776457589103827, 0.0016308885881376257, 0.008730057537196937, -0.005023633115116284, -0.001720633312168325, 0.010051107090772513, -0.003772709874463818, -0.0073902116304505, 0.004479739697331873, 0.001086022249509102, -0.013863302738592596, 0.0014675909571286142, 0.00924405893445742, 0.0055722109564961585, -0.0027720863302978303, 0.0034298186439014663, -0.0016210656494358355, -0.020641108068935706, 0.01620170429091898, -0.0043805782966395545, 0.011401005673815466, 0.004386389474692655, 0.01087363368748288, 0.003298502709236125, 0.0059671504860465754, -0.005962230469870841, 0.012403765843364452, 0.0014387240543734731, -0.0125762833533207, 0.008883743256625056, -0.0013031823981313033, -0.00926555600384259, 0.01455623150996449, -0.0020996137258346816, 0.016059251880626537, 0.00448519620192347, -0.007741969599939449, -0.012562020002419912, 0.004547155612424464, -0.011455477174484578, 0.008207316577324587, -0.005104069626491679, -0.0004339802870230521, -7.436329999832e-05, -0.0034821791017020038, 0.012696910478972494, 0.006773585427705682, 0.012285275041727618, -0.00586069080364123, -0.009342119139296981, 0.0232695917034554, 0.002651623322931478, 0.014732301765774542, -0.00163551675240245, -0.013089332693117751, -0.0028745402615690907, -0.004840653248422157, 0.0018102067703930347, -0.0013895980273106593, -0.011219520408524076], [0.0008545076439174747, -0.00032098842009305596, 0.0020080809775072424, 0.012117070512431431, -0.01588495108441817, -0.008326992011253549, -0.003672294398119518, -0.030583019818874048, -0.020579482010856496, -0.009286788884965987, 0.00211046453268512, 0.009572923052563836, 0.007864737559909464, -0.006303161819219147, -0.006975855939334347, 0.0013553495222661264, -0.0005225683239618705, -0.0024445748169891826, -0.0015378416197063466, -0.009501003373009308, -0.011549991352859987, 0.012936295683741082, -0.00020820882646695519, -0.005920194868968005, 0.01273761063650577, 0.010077774856575836, 0.006872942714447381, 0.004046342587802375, 0.0022758717744347733, -0.004037568323263383, -0.00618989378562944, -0.0010570195049002572, -0.015593067316229628, -0.02515117750435066, -0.006509643872825207, 0.00595919493129484, -0.026903468072412808, 0.00448708437463826, -0.00036695913583554126, 0.0008543862182130548, 0.01692092364908745, -0.012156939037801857, 0.005129098797927091, 0.013938902502181487, -0.010674435892405744, 0.012405888230064532, -0.005033313488436999, -0.011496307752981896, 0.0126025844098029, -0.0006696506122040101, -0.016957032044148137, -0.001983205620352407, 0.003978292299823573, 0.012708479400815317, 0.001131454832792743, 0.006481569513131531, -0.002103091060325778, -0.003466723039732571, 0.0006785605688285785, 0.0020905501724582483, 0.0018984808348016856, -0.005113545279189717, 0.0017113080673021516, -0.014176768496727662, 0.0074709853101347715, 0.0016462755630416413, 0.00248318842721555, 0.004591197361592673, 0.0022890056837255204, -0.0041430566152541575, 0.0011343631010200146, -0.006168526207652072, 0.011350534482598724, 0.0017954752583776723, -0.0019830464168596046, -0.011546005471175028, -0.012351562451832807, -0.008858163510589155, 0.008267917921200478, -0.00022187600606183775, 0.012633254662446905, 0.00019641592254931187, -0.003292941632502863, 0.017097271382025846, -0.00909559076213194, 0.007493136852534185, 0.013024556727695417, -0.008594490130292351, -0.00250958934377059, -0.013845705789560379, 0.0032328902453281788, 0.018006636624355376, 0.01834939130230957, -0.009158414023747627, 0.010868925564963453, 0.0005706322147843696, 0.0012274532124971998, -0.009978506031044125, 0.009719392794480515, 0.0076464473661453005, 0.0031598124687620965, -0.0058960542704262955, -0.010153017901765269, 0.0028017164416891285, -0.0007880446591765633, 0.012832588992101608, -0.0008812154647081153, -0.0009963350100696817, -0.0046005301649484345, 0.005935882513786076, 0.009567465171557788, -0.015251483747652742, -0.008214498287726187, 0.008849234434024088, 0.015262638667809232, -0.010340941161570085, -0.006508654433104321, -0.016038865780864216, -0.0025069408763610398, 0.004215403063662888, -0.0020231631618375183, -0.0005412887253526571, 0.015303685211373803, -0.009059568691491248, -0.0038574122027156, 0.018904713842064796, 0.005742596934413935, 0.0026901673365175983], [0.023184638671579143, -0.01657388273297404, -0.0023219293366570108, 0.009951774694419387, 0.0031382459694719424, 0.010191573419538158, -0.006805224581143168, -0.016746300684073585, -0.013836678225014167, -0.0004513038441140726, 0.0057498104486539935, -0.015514615293663941, -0.021962314583754278, 0.0002931314310067285, -0.008489243257260705, -0.009288039102415487, 0.014868131782673709, -0.006428795258509205, -0.0021285991632833483, 0.0030258173279490513, -0.012459716959513345, 0.009142355097486723, 0.007535327547361148, 0.002168773010666647, 0.009035289304402642, -0.0030589453042452574, -0.01006287019608296, -0.0035448931832970138, -0.006007656715473243, -0.0012672288639370686, 0.00404753623829496, -0.007501575004403389, -0.0015490655817042753, -0.010724164883147655, 0.0057948076182047096, -0.014443268652919295, 0.008149709377118758, 0.0007483699437661076, 0.007655700919307701, -0.002686726581382149, -0.006177537814351457, -0.010796922774146301, -0.0006838209509712337, 0.015076941545742824, -0.005445528207178826, 0.0009892552457663052, -0.005226378721511066, 0.00020101687865953612, 0.005414792612366228, -0.008895897925526872, -0.0013465131711888532, 0.006644100933814246, -0.005541806313266491, 0.013910486243891382, -0.008814757353540476, -0.0005431103209014008, 0.010322733995834096, 0.015051363103481994, 0.0025025465828426765, 0.00897120922983246, 0.01430325044823738, -0.026181241274082223, 0.003902076990279918, -0.0004983334523490138, 0.0027745097507774715, 0.0029498487972111492, -0.003418539291681343, -0.002114622504984195, 0.007453916108580905, -0.012431223376547665, 0.007482860817156287, 0.0002733393574294147, -0.008423409282620784, -0.017423420236095128, 0.013627714550402592, -0.008783667947566276, -0.00025376390253874784, 0.0016985111291600533, -0.0028176329242775165, -0.013594976950993338, 0.001822157163289061, 0.0012453729798533925, -0.014966024960513497, 0.00549475057872632, 0.01630043212369895, -0.00616853166848262, -0.00723001504583122, -0.011479362431287617, 0.0022809903814903273, 0.0011207444690331373, 0.006380575660567572, -0.024042247191004715, 0.01593349292259074, -0.011545371175091858, 0.011306154517092649, -0.008611444738218631, 0.0016566185886254404, -0.0006812208223839278, -0.021819702583619056, 0.011493434245146017, 0.0032370631497819504, -0.00789678082539409, 0.004369497302230533, -0.007482477660381412, -0.014911588891588192, -0.007724524907007396, 0.011272787842618478, -0.006080784124369513, 0.0017843353563204653, 0.0025984683568887087, -0.002821801690902899, -0.01742909014235045, -0.007508429894068243, -0.0020867984430874547, -0.009226011010699095, -0.003785741649415862, -0.007621587539852793, 0.016416087869965897, -0.007540288295634728, 0.008835505342696247, -0.021297444077126415, 0.02354742403746041, -0.00011196804661720417, -0.00555798121505669, -0.0049966997141114924, 0.014939477764697309, -0.016821724930681407, 0.008053051543566189], [0.013145737452415996, 0.0012500014402010793, 0.030750983595375318, 7.543021523291427e-05, 0.016590827866243146, -0.012376300759866952, -0.01582064583246634, 0.008984289039583333, 0.007240089145412115, -0.012573270482878283, -0.0019148508544598298, 0.008568518424236404, 0.005702018869057577, 0.00869555634731719, 0.015419139285238932, 0.023708484368337623, 0.013246189325546016, 0.0016506509268242034, -0.011447810663869675, -0.00624627312039877, 0.005253150796684968, 0.00138774635768736, 0.015188824313450986, -0.018692769868257023, -0.001747454250412009, -0.014508252600633804, -0.0026339110472024772, -0.00693425978750505, 0.004740070213474874, -0.0025040007035944368, 0.002171724199050418, -0.0018278320710914998, -9.976516476552234e-05, 0.004977587504456784, 0.015912843083380684, 0.014250245732295441, 0.0018891065567456496, -0.007646214793140943, -0.012925591908812933, 0.0035564194053207833, -0.011136214764110459, -0.01202463674701596, 0.0064884750502263375, -0.011851813666440095, 0.0014582644928258113, 0.01137352222146137, 0.0008030261779930595, -0.006822251876742805, -0.005087679632047236, -0.011305376854037952, -0.003144246715496914, 0.0003680322171697754, -1.3199269109124413e-06, -0.005223794061976979, 0.0024682928053813436, 0.004478782991353941, -0.005895824260236663, -0.006287333484273093, -0.002193088920803863, 0.003257217014618229, 0.0013640941926851627, -0.0029338971658771293, -0.018249824283739592, -0.01347847614700068, -0.003200307025586718, -0.003657177885475597, -0.018924782342530762, -0.003196598416854371, -0.016489401154667977, -0.012899367975315459, 0.007577468552986816, 0.0054117021706687465, -0.0022091133830931006, -0.004362928268561491, -0.0027488894375278816, -0.01378402779610088, -0.0023305926996793768, -0.013930290663062663, 0.005406779694963567, -0.009074419127283318, -0.006862202230382309, 0.0009233048078720894, -0.005739536483122401, 0.000922892109444495, 0.01342122206499777, 0.0016106956236427977, 0.0028892130134717683, -0.0041975045832636755, 0.013556136510385921, -0.015545441156202069, 0.0034824139300400807, 0.002237309161755822, -0.019724482924554112, 0.000422730562248651, -0.015355692593726374, 0.0081920116147902, -0.015189391969915141, -0.00807960916568273, 0.00647470704525932, 0.010204080752014065, 0.0016206870883152971, 0.005837602588105915, -0.008071044804292804, -0.004380099824275071, -0.009267247077950564, -0.0020895733189146503, -0.008280473294886313, 0.009244646257764905, 0.006917764723856245, -0.004002641096251382, 0.003032039333379025, 0.012450151070173955, -0.006503102992421563, 0.01184487107178677, -0.011064174415868613, -0.006435799653968098, 0.015864232912278738, 0.016787457579553054, 0.00696382713436923, -0.010664686724422372, -0.004684670384895514, -0.002127865404895164, 0.004013871467822081, -0.01054717073656483, -0.009185254404131942, -0.004220580333685637, 0.004632938788736201, -0.015346348217210003], [0.015548957660227864, -0.013353304833845166, 0.0071396761718935395, 0.0036661147207785742, -0.0052632028528870455, -0.011266347550672328, 0.0066500093249280716, 0.004841102473226453, -0.006560964488062236, 0.004668097558579101, 0.021766347394056113, -0.0076320743162833085, 0.013115628379076212, -0.013332165440823399, 0.004869419608893331, -0.005073649497461269, 0.008193423819739684, 0.002211280383229556, 0.0037893162380259284, 0.013229530772483013, 0.004479639873048092, -0.0018551742804856525, 0.001854529258686045, -0.001257663830390526, 0.012714054397776856, 0.0008039742718751102, -0.016973523615020476, -0.011731265834326461, 0.0007582177455469413, -0.006615741572405404, 0.006162627468575983, 0.006557234011427559, -0.003184986966018696, -0.0016426897232528442, -0.009655705191358506, -0.02367487841950975, -0.011970643826477641, 0.007139792691499988, -0.02043588440103982, -0.02018815448991937, 0.00518182940677007, 0.012446933465923992, -0.0021995706541426876, 0.0058095569861765905, 0.010097899316048169, -0.004528465734350893, -0.0006221612906319443, -0.00041152115242380874, 0.003311664542505302, -0.0009034772554236654, 0.0020538179966174317, -0.008742169295569311, 0.029304604462756068, 0.001466640063256656, -0.006880275864041753, -0.016894506208392716, 0.019433972210189967, -0.0073351604350628775, 0.004438934332615435, 0.008636125449177103, 0.008977904010185467, -0.0056330233458079595, 0.008886854400454017, 0.004486193471608122, 0.0013709595724112156, -0.005589532540301767, -0.001583091780191104, -0.010264838171405171, -0.014903393668448586, 0.008486439725190984, 0.011256939370326895, 0.008378241368270194, 0.006141202586494818, 0.0032630843222819046, -0.0073389038299127, -0.003926559889154249, 0.004518986129190659, 0.0020650340095008553, -0.0017180176564642786, 0.003692934817235212, 0.003659569730165741, 0.011438698616143907, -0.008779987619211527, -0.007365349094297851, -0.0012580474946766638, 0.0019179750299312727, -0.0006200344161948829, -0.00010757836092158054, 0.017606732440203127, 0.0038900731995658872, 0.005743591718023188, -0.009222054764020231, 0.0038485014005485343, -0.005071838003236644, 0.006806237732637269, -0.009798863115004004, -0.02387239317082021, -0.006982717559696965, 0.01625719831115547, 0.010065750658727194, 0.000801088047562626, 0.01131604283354091, 0.00862021680315338, 0.011446684679186485, -0.0011800739008924067, -0.0016422200605857135, 0.005573221470846399, 0.006249398474306076, -0.000301120446675759, 0.00486956061645086, 0.00042545123469197053, 0.005661818810868146, -0.01643363309376203, -0.0006327361554055627, -0.024482043121603764, 0.00023023866879112094, -0.002023942825283555, 0.0021050241071865054, 0.008342540633603172, -0.009599674131365447, -0.014284775561065905, -0.012607610694401125, 0.011606898310060471, 0.007945993233451661, 0.008863377993725398, 0.009447594296683631, -0.0038927456166839526, -0.015830517930633434], [0.025075085496379518, -0.002332789340619643, -0.014107946245530245, -0.025697933536885115, -0.016777166111704243, -0.009655841995327765, 0.005749214858215254, 0.005498850763678428, 0.0012294844448949504, -0.008401367330451251, 0.010560409477448716, 0.007361062077712135, -0.0015114370386617598, -0.007640232439772115, 0.005458029675344874, -0.008889135110703996, 0.015339889545376064, 0.007851935026804813, -0.01605839738747133, 0.012822887475924463, -0.008074690461272677, 0.0030857823038571075, 0.008216498382546088, -0.013909403505549344, -0.00880519187660134, -0.010575542192016967, -0.003494595851665526, 0.014890481870560196, -0.0035794630247061305, 0.006766073498930922, 0.009854095194940066, 0.004033868573559344, 0.0056062821184207304, -0.004575335834673086, -0.0012515439403974896, -0.005552511323106912, -0.0034149912947160476, 0.012332017514204265, -0.0004899612303809434, 0.009896354993608898, -0.00259293919361485, 0.004807612427354408, 0.014629934967781666, -0.002310948028622041, -0.006186037175793101, 0.003326668231883709, 4.249782763633972e-05, -0.003676067641478917, -0.016324619377326544, 0.008353305458145215, 0.007163408200363994, 0.0011890451589713284, -0.0051702120843802836, -0.00732732038656762, 0.0017064532741604174, -0.019370788107697528, -0.011743215879971187, -0.009290898614328184, 0.00022048416551703352, 0.026335872607999855, -0.009431958575164236, -0.0015545390608719001, -0.012172222988106763, 0.008580787333942705, 0.003391327791806707, -0.013855024896606637, 0.00201951156076034, -0.01412287046029746, -0.011339313566172259, 0.01257278270461307, -0.01716795982956014, 0.010615184181991023, -0.0007987472488564964, -0.0006461047200839035, -0.02267219013335764, 0.013120035122342808, -0.009108181620088583, -0.011569518372730958, -0.014360167273839257, 0.009966250539006459, -0.007193980242947384, -0.005655926523547479, 0.011011049976786608, -0.0074461047029900675, 0.007106310437069693, 0.005155741769999908, 0.009286368775934379, 0.011266452075567224, 0.013035462042032908, -0.005128649476273249, -0.014251616069320272, -0.01096552439405534, -0.0009397285962087868, -0.010774029592414443, 0.010647868275889535, 0.01680986306147893, -0.00042083870064489327, -0.016520987645167837, 0.005499119623515005, 0.009186654524977978, -0.0010690475843000485, 0.004925081373698943, -0.0031856161422750455, 0.00019958283443683431, 0.004054043233087746, -0.001789035120094621, 0.004544188519939519, -0.008306821609255104, -0.000785249217442683, 0.008447883363909822, 0.008459758195347696, 0.013550915513554529, 0.005268070031596112, 0.011340968776046035, 0.005879363126344987, -0.017599144579923145, -0.0014462658496187557, 0.006121268241503291, -0.013824145481647452, 0.014994877502271456, 0.0010970438363830986, 0.010444743633000804, 0.014210097849278886, -0.005261528105531411, -0.005560600528194927, 0.004012101996380748, 0.0012200169701497687, 0.028852631200771348], [-0.013206775777655545, 0.006003083266358046, 0.009421876236674807, -0.0017427380041495023, -0.006459533857945883, -0.00436636891808155, -0.009718120320603083, 0.025548620721574773, -0.01862920898521665, 0.012379645055100082, -1.9963413866060528e-05, -0.015742552964584777, -0.011883574382641543, 0.0041298563911638785, -0.01109942804749132, 0.008549594001436801, -0.0060939236399371365, 0.009137902260037209, 0.02393586537080422, -0.0033818794747023607, -0.01677113460053946, -0.003471752940974653, 0.0087463353765292, -0.009388135912222439, 0.0198289173050637, 0.012952339670976675, -0.0051684116010473555, 0.008501645202925965, 0.014111363183409987, 0.004288811628860069, 0.00869622146059985, -0.002771306867569149, 0.007174268969476017, 0.009347757200215476, -0.01058296009207909, 0.011571427489683248, 0.014512015576735118, 0.013396639875228426, 0.008355394753874167, -0.010095673109401229, 0.008131628988512992, 0.014877415941093304, -0.0031740723986079084, 0.010350760749767669, -0.010973560485130505, 0.008254285738740312, 0.003646717607000099, 0.008053321881053075, -0.008745465462747013, -0.00027507905726736225, -0.00871515238947865, -0.0029809834648684974, 0.0038079149612510865, -0.0004934186801432178, -0.0029789480418199944, -0.008605347278965335, 0.00827326333592888, -0.0013001601248735306, -0.00955950728480008, -0.004953740027531821, -0.0022709193449477584, 0.009057294914387361, -0.0004516645112988479, -0.013478676654568868, -0.013237919503830327, -0.007117453972230248, 0.006575437883610903, -0.007916218484482046, -0.009104650436828562, -0.013563729503187691, -0.001723923318536519, 0.01159761169711029, -0.00185161660072555, 0.0028850668460431482, 0.012470154981219006, 0.0060579604615995045, 0.013737967698279506, 0.014754776938056815, -0.007320598232860995, 0.011121830157816506, -0.0024619292769253822, 0.0007341888034262021, 0.015193249897172101, -0.006075530890185612, -0.008030083973239965, -0.0024897869126847307, 0.0022224178526386606, 0.00014447203115315827, 0.004328840241459411, 0.004163190361063938, -0.0029281413228819677, -0.008255065475518011, -0.018567424423294343, 0.0014501214742180396, -0.0019285259142889158, -0.01028158163067437, -0.005580693177666499, 0.006287413337083305, 0.0060789960921288945, 0.00736317736986076, 0.02101409470246419, -0.007259102205760121, 0.00257123566899176, 0.00014825764152553872, 0.0031001510057166518, 0.005574095509920631, 0.0021496340664467497, -0.009928296419692161, 0.002501398332317012, -0.006429812120975473, -0.001435913659204745, 0.014053035444233471, 0.013327297834083755, -0.016366448417000825, -0.011829118629780257, 0.005130501884000496, 0.01219169073574949, 0.02479216089262009, 0.00044285950971814463, 0.027264464198893328, 0.006107344110989223, -0.01702650351437959, 0.013484857584491227, -0.0026109310027240536, 0.009206019070454938, -0.0055207570308234985, 0.0016419466344176601, -0.013376198029481841], [0.012837645812125658, 0.021838990882444235, -0.009406218491638281, 0.01694815376720579, 0.0046743038164454, -9.687136426429778e-05, 0.012188665291211414, 0.020024440793908888, -0.007821255599556298, 0.0008636024362602338, -0.00959230328577716, -0.000822600474830054, -0.000622902605371677, -0.005628324237166071, 0.0023640246955788937, 0.011691208053873976, -0.008196360792293968, -0.004713695429770231, -0.0010547004772737119, 0.0037315510921040714, 0.0026670934776540606, 0.005308522749654938, 0.005204124110055747, -0.008953777139287218, 0.0013213733052539253, 0.004882653484902001, -0.016426325304590053, 0.004938325220672723, 0.0047279477506184196, 0.014804588675313726, -0.004753244530795955, 0.023451957994352974, 0.013094183631276003, 0.009651306054252943, 0.017178652851338565, -0.02189259748000034, 0.013405441911396462, -0.018583504320372063, 0.008261474787828706, -0.001771740935421122, -0.0053836224775385775, -0.0003612414802380888, -0.01371050820358737, 0.012731076461601959, 0.020249321855517567, 0.024686847623334653, -0.010721593486385666, 0.006106900773566353, -0.0033829408106021493, -0.00957324898778559, -0.007029879561132355, 0.018371446152821113, -0.0029027269273103474, 0.010068382547275203, -0.003983356861746361, 0.0029832750936428717, 0.0036721626829448835, -0.004027599473609355, -0.0010302468389939113, -0.01997713152027046, -0.0031481105827869953, -0.006688022875293372, -0.0074273414922715756, 0.01746334910842419, -0.004991240673558041, -0.0045406363533010904, -0.021053065752312087, 0.02707182927597171, -0.012612576541690141, -0.03720025420556602, 0.008053361122549566, -0.0033152017419572437, 0.00039013799696090173, -0.00992682398322446, -0.010838628519916974, 0.008054934328301119, 0.015539490938499115, -0.01315790878609964, -0.004591723414567972, -0.008334686879665135, -0.0021068729405742414, 0.00544567217452764, -0.0006147802349697135, 0.021383174139917433, -0.004125600153387518, -0.006177151104642868, -0.009929870607888344, 0.001003136460065446, -0.010950166073600942, -0.0014499658301204885, 0.007371181138193689, -0.0003043129820188677, -0.007395438374469518, -0.005036996643747076, -0.004111823042655147, 0.004849806267138729, -0.004837239558099988, -0.00906633402068968, 0.010179304653267513, 0.004155795258023776, -0.008425541451261603, -0.00810613584520466, -0.0011198704565265629, -0.002928657913207598, 0.002174706524690332, -0.005476585238721601, 0.004248193771979183, -0.006599992229503082, 0.0004264298487345427, 0.008162865622452602, 0.007075489632969167, -0.009882540972962952, 0.011726828303019332, 0.001385174113522696, -0.0013818682912426908, 0.012325340059443454, -0.011703098210081971, 0.0025135333571684234, -0.0014691144038070072, 0.013548530914793777, 0.0014215912793919888, 0.005024375163326591, 0.005829138001901594, 0.008271491280603916, -0.004463988528012361, -0.008748320911449671, -0.002420458947784957, -0.009951212790773366], [-0.008923295940661715, -0.009935278891508666, 0.017636140441975576, -0.00038348280037497705, 0.0011211901443122568, 0.005986247339789437, -0.007774484093397998, -0.0039092382940447016, 0.004350328289686816, 0.007060766137527096, 0.0016300710952544277, -0.0064090260217835905, -0.012427056258604184, -0.003115630729995401, -0.0036256561047155206, 0.01262903718244169, -0.007199523677232829, 0.009036578223258237, -0.011642245558654951, 0.0055497913094729005, -0.009596246947276009, -0.004471453900727669, 0.0022009175125515716, 0.00803723650689591, 0.0009595271414886468, -0.021802326072700558, -0.028773596448924507, 0.012182360932828018, -5.179489062771361e-05, -0.008339974420162835, -0.0010284579199542558, 0.007265597363711186, -0.019607334851708194, 0.00270756755297959, 0.00017527373327841077, -0.009823001774803443, 0.019677109414758958, 0.0026828165738792572, 0.006075555648264494, 0.0124514756865308, -0.011341397023523199, 0.009658478062799064, 0.0002742758322854945, -0.001231814265544567, -0.013435826720525953, 0.025454243189718374, -0.013040049767425099, -0.020353613508045588, 3.8121245639667694e-05, -0.00573345520698886, -0.006072377519851597, 0.010142659241395121, 0.013903012705346749, 0.01039050738933193, 0.02054651983472471, 0.028273844937853915, 0.017641120032357745, -0.00755722216037725, 0.008887474380029885, 0.004863937123825578, 0.009134080738012158, -0.007442916496288883, -0.00495999462440345, 0.001545819977354228, 0.0013531058027040186, 0.0011924887597319267, -0.002581628365062546, 0.002840205666808824, -0.01002753933543988, -0.007336139696899599, -0.015400442261075108, 0.018995733346630576, -0.004790912212265854, 0.00021973512932604232, -0.0005362256803291947, -0.011857614640524747, -0.009756674854856123, -0.0030599241267329365, -0.010410464647306186, -0.009494552427248894, -0.006339295874051562, 0.0019981112837836063, 0.0013949535436996031, -0.0019342969720721873, -0.0007620609927133419, -0.0091061657213565, 0.011954900226289023, -0.008602670248364305, -0.002192017363007864, 0.011661098170458016, -0.0032565322101014323, 0.0010956660404007282, -0.0008559695527239437, -0.0036088143838914543, 0.004673373209011021, -0.005464962426199699, -0.014828188050176445, -0.009137457300587168, 0.007773675397120466, 0.007480771721807057, 0.00011182501003786321, -0.006256048800153771, -0.003979926660132934, 0.008094309658528864, 0.0014286292728175585, 0.000308955222340325, -0.00721863933349761, 0.014243032607707196, 0.002601086602075183, 0.014707132612412301, 0.013588346602502195, -0.006434091749336848, -0.028440974029500885, -0.005550558546648939, 0.0003543044079892805, 0.017785132674608354, 0.013833236046552448, 0.03376119576911415, -0.009284563805849959, -0.014858513351821761, 0.0011679884146051653, -0.009011741873159387, 0.0023369484136839995, 0.0093517487637634, 0.009997587752807824, 0.005501950818193911, 0.007740659877800213, -0.017986479494495146], [0.0007837185314440436, -0.002108411507852713, 0.004996112369470534, 0.00029911587454409006, 0.020868098173517362, 0.0018424609479555873, 0.00934359349271137, 0.0029415550860528773, 0.028028189715228136, 0.005939962592613526, -0.004020694667309407, 0.003332100530274958, 0.009481420913358794, 0.020201812058279395, 0.012231562148885641, 0.00891680229152454, 0.001960033022935234, 0.018552300218886805, -0.002559890469866647, 0.01414587005334154, -0.007136884490709688, 0.0011530969854019568, 0.012915357872658406, -0.011960331951055952, -0.002050504767677018, 0.011961021118356825, 0.01171771514642882, -0.0013490447149111986, -0.004404499633449288, 0.0032017054903979453, 0.0017334858632259342, 0.0003795486154541536, 0.004571178797635932, -0.005184675278730471, 0.001881405762731, 0.00894075565414556, -0.006478155217061059, 0.018846835011110733, -0.0008527092680370972, 0.0038900920364986977, -0.0048458319457400124, 0.0061878072465224475, 0.000824420942850294, 0.0031157685169629756, 0.0064617570395837385, -0.006710333891080269, 0.0018438093479805201, -0.0054023621823709725, -0.004252057723962101, -0.0017880699416283055, 0.0027970699110898317, 0.004038030823447627, 0.006745002617248011, 0.009918557980585318, 0.008490351339331544, 0.0007974824870447577, -0.010004065373460339, 0.008737190573615017, -0.0016069841728036103, -0.00033534673593804985, -0.009603991760031192, 0.012475090459481687, -0.025493976780154772, -0.0021655262702900946, -0.012058611443560754, 7.732549275994551e-05, 0.003158328210128597, 0.0035552024349423793, -0.002004814421218228, -0.015361447506639989, 0.011814129147297434, -0.013495958035086502, 0.016377036950735696, 0.024021222957136722, -0.016982902826849635, 0.009049220600264701, 0.004563697290347125, 0.014601302203331666, -0.01688153476177313, 0.0064582025371223255, 0.003817740058534792, 0.0012633714905340232, -0.006943733959816679, -0.007590444492767684, -0.0025390185136804013, 0.0014283167102926086, -0.009366886597184251, -0.014126914010342016, 4.1107583887688956e-05, 0.003028775182151167, 0.006232558688735188, -0.001116524874542953, 0.010431665087206913, -0.0033451208472677026, -0.017678200182105776, -0.0005859199241198953, 0.009443512235945781, 0.012582523332360478, 0.003626029554987535, 0.003902644511662977, -0.0025285676509923046, 0.004412587706499175, -0.008543207137417184, -0.008027546164791507, -0.01867255714103342, 0.0035792053184297307, 0.008033185709237261, -0.005737124080841263, -0.01211377785270792, -0.009394773121222649, 0.010094420624851646, 0.010900066354547728, -0.009036620447026938, -0.0069757058080314625, 0.008619055648037863, -0.015687180661532338, 0.015086525828051542, -0.007422966211865215, 0.01104559470171347, 0.0008146447327417372, -0.008509097175521271, -0.0019521607092683098, 0.01626053536608308, -0.007987338826559862, -0.008863627560787435, 0.00574476762052544, 0.003028142198182242, -0.017280214859944926], [-0.009652171132004011, -0.013862309535224066, 0.002061787749446478, -0.015148803622616471, -0.00477087698467273, 0.000458770737106196, 0.004568166775948979, -0.006274091935159093, 0.017839655000972024, 0.004439506697056818, -0.002106023494161204, -0.016635595411326004, -0.0039992184632464765, 0.0038122379794688806, 0.0008320355363826781, 0.00784361228848793, -0.005220113429496546, -0.008812742831310378, 0.000927288026653266, -0.013758979794183128, -0.003032016234307716, 0.003824185246459083, 0.00619480514133787, -0.0015112050687195978, -0.0036697536179350356, -0.00017915534878272258, -0.019172640910596662, -0.004390132102004171, 0.007077195282099339, -0.016992371467556926, 0.005700229374535915, 0.009924195160581848, -0.015259308982068865, 0.010323744126844005, 0.005874123261177155, -0.005520026587322664, -0.008079194265646334, 0.0022729361534081518, 0.0012097025885388912, 0.0026128358185010694, 0.010509575346060089, 0.007818883562449955, -0.01450636148366654, -0.01911852785660472, -0.014415675509614288, 0.007011509321513419, 0.000550443272547927, 0.008629393814952684, -0.009655702949487966, 0.024759154673872446, -0.005939959011028322, -0.019792517640482774, -0.007632446631805356, 0.0008815405485803578, 0.009703490328361594, -0.013948682678224442, -0.005375178763478819, 0.007603595855080181, -0.010476879812589135, -0.007099604469686928, 0.0003932398546334543, 0.001953684555214072, 0.010179411739503312, 0.003729400542931479, -0.0008660237592285217, -0.012256963916044616, 0.00848451614472844, -0.005780621130791069, -0.02366751588184148, -0.00673574643386715, -0.0008450369237898079, 0.0020383577949113943, -0.005923720092370942, 0.016602207296599992, -0.012625031738380057, 0.00016824324389525292, 0.0026356144656350293, -0.003224869871767569, 0.005955494137365246, 0.000695406383002068, -8.224461233628241e-05, 0.0025579452074902887, -0.006627921623224249, -0.005921600692726653, -0.0015239651982495296, 0.0039016747098046364, -0.0060317385922194775, 0.015688198300699497, 0.00021784926494288422, 0.01647673046312387, 0.006813949351414137, 0.0036024812283484437, 0.01495592453145857, 0.00041352212224753375, -0.010756567820419723, 0.009616990275350398, -0.013822282207323964, -0.00857935258674214, -0.0011274878971384102, 0.002880490670634547, 0.007449180623871984, -0.0014008154686520919, 0.01002024698258928, -0.013289278307119843, 0.0020778918247643325, 0.015617613398080581, -0.003041401985359918, -0.010454199927022914, 0.01077948598620065, -0.008278214505474613, -0.015196694393702824, -0.0019287434939325191, 0.008339489111369768, 6.722872319989387e-05, 0.00648177372726235, 0.00011220941819921989, -0.012235335711577778, 0.005280247890729211, 0.0025906620572256262, -0.007807700360441546, -0.015586870905095924, -0.003997975623097371, 0.012182000999963168, 0.003583761113841371, -0.0032477361739316657, -0.00568584334364822, -0.005636254466179799, 0.006666713149281357], [-0.013540623543443665, -0.008086367589096765, 0.014123538131594346, 0.0021963780245775953, 0.0164472658074215, 0.016505716475264533, -0.004690665505321406, -0.008071970922770554, -0.004206365887755051, -0.004466637002653946, 0.028609849305096927, -0.003145642984687365, -0.0115379420464072, 0.007106808079319791, 0.030184914140136663, -0.007704846955955444, 0.0004434842354004908, -0.002412671156183481, 0.004396068441779156, 0.004581098206146202, 0.0038074361573624672, -0.0021874219684282228, -0.004197792392436838, 0.008597081278107077, 0.015197578073225743, -0.0031534618192236006, -0.005739259942970377, 0.007622969831541417, 0.002814782194947165, 0.01070748056023467, 0.014489419868138429, -0.010281540015790413, 0.00831514631258329, 0.009922185114680671, -0.006047575253017511, 0.0080409166467692, 0.0011740574568771204, 0.002994611312557872, -0.004830029115395408, -0.009854429890712689, -0.0059426366911032305, 0.0047711803063534095, -0.01934491769158056, -0.0015144483207130742, 0.004697963026173214, 0.0011783950869109297, 0.010259094358200826, 0.0053034385486701524, 0.013657827608305478, -0.009346373567265934, -0.017352090302822445, 0.01267707814976234, -0.0031023335914013277, 0.005111998279336564, 0.015979889701377682, 0.006614505157832365, 0.0026928605371187545, 0.009085439791073483, -0.002280784499962866, 0.012654311277489144, -0.0059867840093687456, -0.005016150340147075, -0.005294992262293375, 0.011209082582833254, 0.002045878031663399, 0.001326512205767948, 0.006047421551976379, 0.02456325338104078, 0.0036741488984053314, 0.00019090993750337976, 0.005493340501354795, 0.008739723935630597, 0.001020196294531168, 0.0036200702903843533, 0.013504010721483163, -0.004846740329448614, 0.00928116470158865, 0.004113825332668406, -0.01053760251234064, 0.0003236872988650409, 0.0008902665739659306, 0.019947324083581765, -0.004454969232066528, 0.02698919152971881, -0.00768740729695651, -0.009528189888650663, -0.02354420327496878, 0.006367001420007687, 0.02875771115879658, -0.006174926876248951, 0.009377736508671413, 0.018552969694659728, 0.00927031300621229, -0.00955092488435237, 0.006538940921835423, 0.017877291966751113, -0.0023933405766097724, 0.006586941264605178, -0.0032361540497740458, 0.0021829391563100617, 0.010584803382070376, 0.006065753068566354, -0.009407549473286092, 0.0056352623773425325, -0.00510324168067719, -0.007320488370557741, -0.0033242924472041994, -0.013724215176074693, -0.011233091095463879, 0.005314075602410804, 0.012242797100184314, 0.006043544054662433, 0.00036372842184891524, 0.0029014300483600573, 0.00033874027878864367, -0.011318877350756824, 0.013905329542567128, 0.014122826028666824, -0.00539565631133504, -0.0067690115462550335, -0.0038342106344627304, -0.0012493602572291613, 0.006579983431716737, 0.005330195606448202, 0.0054144177651729315, -0.012929586629117534, 0.00333494691890232, -0.008880690698216235], [-0.013406431066502592, 0.007292837009978567, 0.011332641723577563, -0.014131719050162339, -0.004085309711359386, 0.021130552523697298, 0.009029259649477574, 0.013303811579127087, -0.0008753257979896555, -0.006733820639580833, 0.026305059138649955, -0.011696170265916144, -0.021976846088439413, 0.01739130448336706, 0.01620915797227874, -0.013842798977328263, -0.0003133341429647199, -0.0018576185228757602, 0.004965631106549188, -0.01427691322786912, 0.01366481862044613, 0.0068494995864891595, 0.003631019411377499, 0.01173022101883358, 0.007627516235317857, 0.02061106948138855, -0.025755547039769667, -0.013095592665886838, 0.0028332872458655643, 0.007529154846090396, -0.015191655932159731, 0.003717281239589925, -0.02540731894838585, 0.010554832505769008, 0.006473662782693796, -0.003239115606702319, 0.003453636164539009, -0.0016168743469056781, -0.012648839088427198, 0.006209048387974948, 0.006099046368646899, -0.007679564569751586, -0.020577044153460886, 0.027563245869227797, 0.025137197911848926, 0.006359939483330929, 0.020343680467130816, 0.004251586569903965, 0.037018373983869264, -0.030076531320556425, -0.005252496687565802, 0.044324842717870634, 0.02028771743736647, 0.019524347763277675, -0.02248220232615122, 0.0018964011783056602, 0.012551250164051689, 0.007309582182638871, -0.009780561971231875, -0.005080623431221328, -0.004491207235063517, 0.010870549751311041, 0.027111739796990386, 0.0024318415087775974, 0.016269896319682696, -0.008257813399617413, 0.016744415145741515, -0.01111516345405551, 0.019449590556723132, 0.00746954340638556, -0.01504208822939458, 0.012562450065028553, 0.0023534019952761594, -0.010554259626484498, -0.006899889298322683, 0.007626747534460388, 0.0066507501222969785, 0.03213429587406688, 0.0015778642055343588, 0.012908423002678023, 0.0055104764841795275, 0.012045408157737605, 0.011650025405800764, -0.030651909556317625, -0.019822054604050596, -0.01768374560503422, -0.01543833666725485, -0.0004204269075434792, 0.0017006441368936983, 0.001329916668497284, 0.02653161623886268, -0.0041792470871619145, 0.03862347831565601, -0.003029502261186098, 0.009751157633845152, 0.015194527387508565, -0.0011900015838952778, -0.005560318097479079, -0.009341603274861268, 0.006768296487918551, 0.0010955036158669825, 0.00703264810732638, -0.004567019678347389, -0.01790519786507355, 0.01388652895910767, -0.010452245605388441, -0.006406983653487071, 0.0007071354918929278, -0.009898520360237292, 0.010629470597753687, -0.013902434449597479, 0.000393803792417394, 0.013050657182595234, -0.03325046442262645, 0.02300353335462255, -0.00309545722286542, 0.010141316618319286, 0.017926337884298444, 0.013815476137132118, -0.00871042121362514, 0.009771057020484046, -0.0065928009054640364, 0.0187788445461149, 0.023351530334643118, -0.010075695694045752, -0.021936631134959937, 0.01345601932159811, 0.0018284395139609327], [-0.09408186020714039, 0.12948679615766934, 0.20000870106724428, 0.020163330681003462, -0.12134626449701524, 0.10870952585899832, 0.008908737944518548, 0.17911431179872386, -0.12390561447621652, 0.030098453127743535, 0.11407778164206711, -0.08152951437568012, -0.158517621177071, 0.1649044895154252, 0.10550379144282557, -0.10666254650149055, 0.1283398286533711, 0.09696339557455384, 0.011665298272424168, -0.08223324394322974, -0.040906184939433425, 0.13322291968363567, 0.02506536207869949, 0.1440936792520124, -0.17480457353318565, 0.19438141037060044, -0.227019818427887, -0.0029733414263956905, 0.03271126803909418, 0.1548118219823545, -0.15408376520247125, -0.17780286157153402, -0.013083277560234589, -0.009855088216731455, 0.03565497796958338, 0.11140114403989697, -0.17476421907544099, 0.08651534238837873, -0.1095225028999356, -0.0759067313095681, -0.13831113144784132, 0.1756277765156607, -0.2004477081215563, 0.01919861491779503, 0.20449955810467885, -0.004249174757089673, 0.1148731362370412, -0.0006196027743024567, 0.14333571468910622, -0.22481614733943428, -0.18364073485204782, 0.18144819108728802, 0.12893675282706274, 0.16982909052945028, -0.0035992276623316496, 0.08691096064757542, 0.128532629081157, -0.02962096192869103, -0.0069498456309111814, -0.2162868175238893, -0.18106171902075296, 0.005136310192065543, 0.1838066415557899, -0.018643115361173742, 0.1615667723941125, -0.1331606333331157, -0.10260623301308763, -0.17457423874779965, 0.19799736141644017, 0.09893105806387607, -0.016874059203808106, 0.028645378902500147, 0.15720411896150732, -0.12267060757515247, 0.08912340765517565, -0.0905419248124367, -0.07107017225504637, 0.17654444181811962, -0.19152644480722392, 0.19278352096295762, 0.018130727473043458, 