{"layer_0": {"weights": [[-0.001516202458773529, -0.004855426358744595, 0.0020068154627167927, 0.01461631289460686, -0.005981284173609717, 0.009582045218389231, 0.00010147857637604966, 0.005697571874764276, 0.012740053767277656, 0.005871405744735886, -0.0073033267623601825, 0.002903118638178363, 0.012462020892351445, 0.01370750926152915, 0.011966755630864507, 0.0030322776637727723, -0.013290197642462101, 0.00631700481754248, 0.0033672838645320354, 0.00526553439166275, 0.007050527964489765, -0.006726063132006313, 0.007919369563958294, 0.0005251323548471409, 0.010292904801125142, -0.0008413725112308796, -0.012600697150744633, 0.009842620994273622, 0.005040916254986692, 0.0062128330217584285, -0.008367165067434932, 0.005697221949435524, 0.006785482045643661, -0.0030894282039561783, -0.02125393531169127, -0.007089027608450759, 0.011491494860938114, -0.0059690979865030525, 0.00350841376998915, -0.0023309145437403075, 0.011776444994997977, 0.0008958072269854969, 0.011685728115027135, -0.005627758478512231, -0.005211228910500362, -0.007145124957062371, -0.018092119933197343, 0.0020841903016661683, -0.001838064669283732, 0.014382122997432136, 0.020061454328112106, -0.011567661256856132, 0.014303915109469836, -0.006165304570557303, -0.016587668463308673, 0.0038121822386647246, 0.009236099865080755, -0.0022479215316368465, 0.012525425716378876, 0.0008742730681568288, -0.010227325539189569, -0.011528155143903727, -0.01078534051223484, 0.0004870911394792932, -0.00038189711743158406, 0.01204729671806092, -0.007253045868126244, -0.014453888388049438, 0.007210598555420931, -0.0046927713799015435, 0.004497237795324194, -0.0012829152210512352, 0.0017559369397322049, -0.0014222335343486209, -0.004734565886945256, -6.404157553741741e-05, 0.006864791858049215, 0.004480872142912108, -0.006877917072323644, -0.004673611907913146, -0.006983346257080537, 0.0051177100279024045, 0.0025082990663851607, 0.013765634703110062, -0.006915487416459833, 0.00249784303736417, 0.010326894801359218, 0.0007049058634531747, 0.0010858197035581603, 0.013089512144779963, -0.007405080812512144, 4.1652567745592144e-05, -0.019108037519263245, 0.02565200345624032, -0.0053183634484662914, 0.0018053848705766237, -0.003397305294063651, 0.00031193785516640316, 0.014846469263789281, -0.009468398817313387, -0.011035930082438132, -0.005914551809381253, -0.010679093737308439, 0.010711086909798386, 0.0060400993409076, 0.0061057367292930015, -0.007647914739599482, 0.007479979286145663, 0.02404625042312162, -0.0009842597707007592, 0.004941962701274806, -0.0008697830426029804, 0.0032638639032228885, -0.0006533719240285431, 0.025666194982863072, -0.007408084606824862, -0.0046905614867367015, 0.012181634769174084, 0.011300052226311964, 0.0008683696365943673, -0.011164337914895786, 8.31931971634577e-05, -0.008016571888316254, 0.0018241725567255385, -0.0048468161583540255, 0.005879294835215837, 0.0030058780703801353, -0.006195016462819331], [-0.002150396672105329, 0.005551444176346085, 0.004447835130793997, 0.01291947861792919, -0.011578569149239368, 0.012350096672197235, 0.001405090024374041, 0.009234558800821208, -0.014401615205487996, -0.017493186783609557, -0.01710186988898008, -0.01030810661119974, -0.009013361598151463, 0.0140410136792253, 0.02090274486512334, -0.0032539084481011194, 0.018734832235032278, -0.003487049937696622, -0.002200448570660336, 0.024334124228328972, 0.003935435198803563, 0.008308403462609337, 0.00694096062276784, 0.01075492905591301, -0.0012535116775332933, 0.010361122641081074, 0.007892230493051287, 0.016191519359718198, 0.013579173592448444, 0.002867808338840535, -0.004461338910417796, 0.0253263701938709, 0.014449896249568606, -0.0002208367864633928, 0.0001369519823044261, -0.008192846913367451, -0.0033634428091181595, 0.002997902048220931, 0.0024509507857978746, -0.0009114462552405413, -0.00559266059443348, 0.004519419960306391, 0.01764270741601801, 0.00026385217086962896, -0.025682266202126432, 0.008887020658359399, -0.00024164522119858787, -0.005333813228354141, 0.011485535241507652, 0.005112719235190868, -0.004309465775680994, -0.005363448545705724, -0.006436016979704976, 0.0011667497662578637, -0.001171671723918947, -0.00930571621234764, -0.0021034867789983167, -0.0062661974496399575, -0.024114162520833024, 0.020746287950544732, -0.013225051547174474, -0.007781132549145221, 0.0009746661669263936, 0.006619857707096712, -0.01345639225069794, 0.0021646588708825994, -0.010805269790489527, 0.0014345791878585393, -0.01706534738734716, 0.0033765817650906805, 0.005013252647532859, 0.006669746734333502, -0.007598857323595868, 0.011538972529347437, -0.005759230770592014, -0.009137563437528253, 0.0015824809817221897, 0.014396570422940356, 0.0019161297171955902, -0.0023127295894098043, 0.0037765003568321623, -0.015082424536656185, 0.0028328642338346227, -0.004595990257807934, -0.0006376974460511468, -0.005120078411519998, 0.0073517272353681795, 0.00931656389110502, 0.007051058000523728, -0.004580470758854571, 0.004056545284337505, -0.001029985611918651, 0.002706731680978528, 0.004432168396490831, -0.016431974509007085, 0.01473098159337663, -0.003168672361914623, 0.015528387323931565, 0.009437344000767643, 0.007303899782216547, 0.0063251578719271786, 0.01705703963392407, 0.016705623563849466, 0.002531009528012602, -0.03132217111819001, -0.01161720912430039, -0.02126463399248305, -0.006977744592691524, 0.0011788136203129517, -0.0028099725122174885, 0.011309892062980356, 0.009035945726239116, 0.00487948542041479, 0.0012060670740553679, -0.00045638558884197525, -0.011646099553871055, -0.015621840146672403, 0.01259406746951152, -0.0008169908804552253, -0.006782590152239776, 0.008306955370765107, 0.011248912019428396, 0.01964145471284461, -0.003210982574456581, 0.004751450030830145, 0.013686247685098175, 0.016782045502382388, 0.02212385261321123], [0.02470603039733149, -0.020871243252829283, 0.006072047105771586, 0.008442426231854608, 0.005049912393727376, 0.0038840624380050495, -0.0011576945882306937, 0.0039019416992340824, -6.961601677202385e-05, 0.00520684282892514, -0.008377890955623416, 0.002318929310577176, -0.02041810119629046, 0.0036797180405700714, 0.00363614245036111, -0.026275332776102056, -0.00357803176246118, -0.013517095968839528, -0.002378626461253528, -0.010912444543125012, -0.009020112873467602, -0.021715047837026217, -0.0012896090839511003, -0.015957270503115656, 0.008554760633052662, -0.003576539276852065, -0.018293315453953424, 0.013952000540269623, 0.005434468552610384, -0.006191548572229089, -0.006535335668758467, 0.012437081611985217, 0.011835054780003367, -0.002477542776724279, 0.0009317637694533503, -0.007757784096310585, -0.014217853560056042, 0.013268855520595401, 0.0010105248850416806, -0.00693765519270955, -0.009228873299034159, 0.0009221704822414234, 0.010980729303805073, 0.01263976373129914, -0.012433849602757556, 0.009051599882168807, -0.007720701506815716, -0.0026605392457151197, -0.00021364372123990267, -0.0019677703335452814, -0.02214763214636049, 0.012014359652968105, -0.0006480303681075495, 0.00689754242411078, -0.0006674638047473289, -0.013310321734635942, -0.014610576382587788, -0.0009197157163397984, 0.01550315584457486, 0.0015893820136689896, 0.011865890749462689, 0.004014198599825318, 0.0020245367066163075, -0.0003477416472759376, 0.014641041341772573, 0.01970400024596788, -0.006048827749286614, -0.007971358698726295, -0.002638593476044032, -0.008456962178881009, -0.016857221182733712, 0.013400287353898643, -0.0009167373561945448, 0.006883941568738972, 0.0014088469449888596, -0.002166756463192258, -0.020328561462832368, 0.009634196543837703, -0.003253064692830156, -0.0040265566744450585, -0.020479757945410983, 0.007109511213837132, 0.003955673477670423, 0.012641435818666641, 0.006145240697401807, -0.003167094312321733, -0.006212325979856063, -0.009649544849332675, -0.010930671856479033, -0.006417518064737655, 0.012038647779882745, 0.013849339415421276, -0.003944816008964419, -0.01810488200711425, -0.0119692565866322, 0.001134767035622632, -0.018584228485116275, -0.017283162235223196, 0.007517529626201561, 0.011785618503605516, 0.01420795818532022, -0.01163430541909025, -0.01614224693803786, 0.013309718190398938, 0.001465968437897733, -0.007710406516588031, 0.0011753197335306205, 0.007356010825613245, -0.0009390262684563327, -0.015996618699900815, -0.01701312388246189, 0.0025778999375666916, -0.00023978089099538922, -0.0033988906433855964, -0.0001512336230566522, -0.005089845217365897, -0.009286046032253378, 0.001563062825888897, -0.010525338952876941, -0.01571567905442804, -0.010936414392161444, 0.00029574328576393585, -0.013591999829300039, -0.01981453853777321, -0.0013377192482598962, 0.0077191780554611965, -0.0001428209672674834, 0.011837040957705632], [0.004875117648229602, -0.010027132015692884, 0.00015736577547691976, -0.008174748413392835, -0.013160823075541892, 0.012000398898541384, 0.0012007596910883556, 0.006572735058744137, 0.00010577506890059768, 0.006529806579354572, 0.0050829846025288415, 0.01107287607713979, -0.002103669274519546, -0.004539671930070764, -0.007373563686821508, 0.00828767850322355, 0.0016688810100914408, 0.0060233821436154805, -0.006731196711226216, 0.006027600278059929, 0.0004728460672222102, 0.002922821139365979, -0.0026133993208605245, -0.0068916616932129, -0.008274811249289886, 0.0026718622536552362, 0.004870562018230509, 0.0009790118909880064, 0.007492688734300679, -0.004278096889602849, -0.009047772197410372, -0.007909556534977213, -0.017890533227190763, -0.005898360067489127, -0.010158477489810106, -0.013109862089685993, 0.021851896312346693, -0.01602215057875767, 0.00847459154347213, 0.008032373906687911, -0.0012345983461829794, 0.010538982731077218, -0.007134531882818889, -0.0011745914648670177, -0.000620443755798324, -0.008782906225915611, -0.0013188258619157697, -0.0083733400972988, 0.0015204708429199549, -0.004002899423198092, 0.012044749693837968, -0.0019023985728716319, 0.0011826257476885583, -0.004393014560440108, -0.01924577133030563, -0.0023573326850128014, 0.005675634104813695, -0.01504555374307321, -0.0020721663421274126, 0.005903523476227413, -0.013023228311194882, 0.02467770458528814, 0.007831059173213497, -0.014252851996673435, 0.0022032133149835985, -0.0059827023626816255, 0.018567442771057423, 0.0029549134953794423, -0.011125790576480433, 0.01740521350942092, -0.021239332241762436, -0.001405044113316851, 0.006788756441745821, -0.018926823684689818, -0.010933115436407015, 0.010899982592821596, -0.00659247878595945, -0.0049082015054835, -0.005537235979507738, -0.012260575725915233, 0.0013818710887402458, -0.0154718352654569, 0.01953613816894053, 0.016962456524239375, 0.02089762595919975, 0.030915380395995857, 0.0012226064529686084, 0.010673745764128327, 0.009791298185358035, 0.00652912318133649, 0.003237925447395518, 0.02416748302927855, 0.0037195838904396173, -0.004245518479931394, -0.006926723083319706, 0.01491801844736464, -0.015153117159844841, 0.007812577702116243, -0.014846631321053318, 0.005512982248079561, -0.0005526380569755391, 0.02116554175801193, 0.008986066848466126, 0.00016258912006074006, -0.0021223639620068543, 0.00028034191150457785, -0.0007399892722160076, 0.003286446987790913, -0.010460251749050327, 0.007529528383979828, 0.007139635435454574, -0.0033577698509704716, -0.0011765398362179771, -0.0031528337488117915, -0.002983673670419325, 0.008876446699571185, -0.02226009982918036, 0.021301107612841815, 0.008931007336244658, 0.02805458990683949, -0.01650775362809954, 0.02703317461853263, 0.0017005277381593414, 0.002999345543407092, 0.004897270416630465, 0.0075713540290126505, -0.0032717212767080883, -0.019163328810989696], [-0.0030708177926986723, -0.007410310997994875, 0.003705948356558432, 0.010682619702173955, -0.010343783486171973, 0.015089847286332636, -0.00994794222972968, -0.00935493542812532, -0.0010350039158594994, 0.012770001596054624, -0.005617490263434464, -0.011970674595442777, -0.006376353733784105, 0.015002230209480811, -0.0054962955801160385, 0.002437254578481287, -0.0038186797681300385, -0.008220523460286398, 0.018732524489873552, -0.0018563518487632006, -0.02212429061441536, 0.0028476736412568196, -0.009697830326803665, 0.011837458331591378, 0.00251666359778348, 0.001034082945610895, -0.006347902222287074, -0.0062077480228283945, -0.0013181954868303264, -0.017337271175146513, 0.006695069886775761, 0.001375414371939947, -0.009522241825872857, -0.005654189301487486, 0.00345699663386788, -0.005214678157100922, 0.005749244694807787, 0.012962445356918914, 0.007698536934015648, 0.021228341997574698, 0.015044047838751516, 0.011506791617569465, -0.0017584656206684015, 0.009680084599962004, -0.006433704460217488, -0.012507664144523372, -0.00685413736485035, -0.0003332738943108669, 0.0018945550772059292, 0.003831198876107567, 0.004073922728030362, -0.011702226400076223, 0.0036038151304480723, -5.374106344204201e-05, -0.0031309787715856872, 0.0138103474295668, 0.011893087786578374, 0.006577511183886818, -0.011017914317923108, -0.00664726247853789, 0.004707579424031649, 0.0014611778610103313, -0.01843714928016042, -0.00021913650670800765, -0.006435436663409216, -0.011097047439763997, -0.0024343014647835756, -0.0007807052558442411, -0.009839428119782402, 0.0004466039293617161, -0.001393483104641014, 0.0038289628940871767, -0.010815214272858356, -0.004070758389083996, 0.002029350992199229, -0.0046501515793466765, -0.006290331995775021, 0.00033872119269893753, 0.021383060949204374, 0.00831117530719969, -0.002098957513268584, -0.0016922518622676042, -0.014044008291843133, 0.006750435602960993, 0.018500322261748213, 0.006409932297416867, 0.0020506084945583424, -0.0027486853191905905, -0.009593181584865317, -0.0028657872749653234, -0.0008205225951568793, -0.01395327495260839, 0.002835090994513724, -0.007166302311099191, -0.005627144384858881, 0.00620686240861081, -0.006789455997850135, -0.0022267157025869784, -0.009933165628301722, 0.01129333761534015, 0.0012560836130344612, -0.003021211434858881, 0.011295266471832542, -0.008304046538129124, 0.022896987228056494, 0.006466291400034407, 0.011858697746774973, 0.004427048834158706, 0.002402914127232132, 0.018731617071949515, 0.012082044493557452, 0.0008880974689557694, 0.017737941215950844, -0.002512481084412305, -0.02166573124218164, 0.009966278394218472, 0.004008225345926248, 0.00753775438770708, 0.004730953516811727, 0.0034587331055867684, -0.002464251534050408, -0.02391859717333181, 0.006811230898485508, -0.011984375717652753, 0.014938442474343124, 0.00913189641771093, 0.007633476984192784, -0.001759163094831796], [0.004624717443996025, 0.004107495150779501, -0.007766475271932355, -0.015185838530520046, 0.012801537819329238, 0.010357324750694386, -0.007483801852653075, -0.011500251514844233, -0.001713141404544205, -0.019304881355702425, -0.009713149919668252, -0.00645558591210473, 0.013810870923555985, 0.006840857125873191, 0.014722239756098867, 0.0018404732445140369, -0.006428667698171499, -0.009830969672130613, -0.004791443757404822, 0.010144709363186842, 0.007958883021349443, -0.0024344507878224526, 0.011800309270638295, 0.004981511111594379, -0.010820418995287538, -0.012284190922105944, 0.018300085216966477, -0.020331534901564727, 0.012812551081155374, 0.010471006389080748, 0.004951406902450533, -0.0015955009345233083, -0.01137936636283542, 0.016085892700709144, -0.01334402190454255, -0.007614840729201118, -0.002783076314143237, 0.001975668430586657, 0.004955878387560335, 0.005257322637709227, 0.01279172365355889, 0.0011231903822378762, -0.004601722459981109, 0.013907880678193459, 0.019832090001368312, -0.006038476701925794, -0.00017477546854907915, 0.011309797481198354, -0.0059032831734023615, 0.010857857274993086, -0.0019488175481738566, 0.013456213280950036, 0.01026303802584813, -0.00885258907484067, -0.006170894988492004, -0.0004302264123497704, -0.0073707620868491055, 0.0002791208564160112, -0.0066304955164677775, -0.0031849128367481354, 0.003906743269699302, 0.030220105506593178, -0.032018379933802465, -0.0053225560049478746, -0.017524900389586193, -0.004098686041450463, 0.010472744424135432, 0.009377517041283352, -0.0011126022328179937, 0.01267389223454595, 0.0033027783409437673, 0.019143160147139404, 0.0034227584357126102, -0.00845949135729814, -0.00963330088652635, -0.0031928126707539456, 0.013654321080131851, 0.0026898205566933432, 0.006197131129470598, 0.0005959081456852974, -0.0034561389147349146, -0.022063370623384277, -0.015043411388378792, 0.0011500077414699984, -0.003253803458617481, -0.006898286025546947, -0.004299209866168668, 0.004656625779601399, 0.005912189510369459, 0.018871785296194616, -0.016642941801307164, -0.004131211668696464, 0.012560144680890577, 0.009712328679989772, -0.017501815177684035, -0.0014958113755358547, 0.002731663379278824, 0.004228195125434281, 0.007837821754960662, -0.0007918011382325019, -0.008584268240280066, 0.0008960088500565847, 0.011513862633975178, -0.020589850355003825, -0.0038335248878618405, -0.008994805427791866, 0.0038434674643858632, 0.002435279681036851, 0.011113517635741128, -0.005257789557870455, 0.012822903872478706, -0.017313352735856335, 0.0016982130917940462, 0.022335772586246846, -0.0007568061662282617, -0.015750133115812456, 0.0021027337304307375, -0.011944097085277234, 0.0037480669321704957, 0.0038865695980893834, 0.008064847209694748, 0.012690906012106814, 0.00394099258044211, -0.01535820523269018, -0.0032887419992023693, 0.005811146097558759, -0.010682751511051915, 0.01621226450073833], [-0.0013959133074246293, -0.018246732923848083, -0.013106549366944328, -0.01379134425675331, 0.0035890902645079625, 0.012927603867109139, -0.00686016033551785, -0.012439972033229503, 0.00830755170052203, 0.0007324806407351692, -0.006005962425590301, -0.011351110623291376, 0.0022900912236648303, -0.0008395036447751161, -0.006523124088077265, -0.008334527095088152, -0.00046897601382314246, 0.001220041445079498, -0.013186226103170598, 0.00023749621742793182, 0.0064092044938719285, -0.0038289341637506723, 0.002067370455759703, -0.0064577482079489976, -0.007161342685166845, -0.004085005660829797, -0.0046111989810801255, -0.00023774995543402217, 0.012891624387330181, 0.0025057758454878096, 0.0068177969726801145, 0.009834417792993592, 0.01946585423786247, 0.00972389763571386, 0.03375906309865005, 0.011586051705989817, 0.020871424792997556, -0.007067197876222262, -0.0035285375832254723, -0.024728090356435972, -0.030490310530228274, -0.0004234654799744164, 0.007575781824423263, -0.008105481692509216, -0.005998021949941354, -0.004437692268550587, 0.0008409110356379413, -0.01446486865795969, -0.0011895032061120115, -0.019230667696151768, 0.0005903265201083118, -0.0036684124553239424, -0.005054966194662937, 0.01099555363495987, 0.011136875681318988, 0.0015381293095284843, -0.0007127552691952944, 0.007424562933572549, -0.0043025279641642844, 0.0018719102066446888, 0.018341397496253405, 0.004115670162991083, 0.006288101676105716, -0.012671770419964746, -0.003422172600690176, -0.0022746789253277055, -0.0038762889438533838, 0.006958780979877118, 0.00900356617589741, 0.009284445644170776, 0.01020422611391903, 0.0024497833041792444, -0.00019171596556598488, 0.0009091612648793554, 0.0004783850634241822, 0.019926838859315947, -0.007746182333481723, -0.011019660922922826, 0.012034233878278513, -0.004619823581962999, -0.0013236538391253512, -0.0014969936870678367, -0.014244391444483149, -0.0021738508510047504, 0.007906599259737156, -0.010220840120601576, 0.0016596543716866391, -0.012277902316142071, -0.00975438902891239, -0.004744478558133887, 0.023864244671915464, -0.004638510943737806, 0.006692359817990437, 0.004808170851085398, -0.00591186556689271, 0.007116617902597382, -0.008898113593600994, 0.003725987842049131, 0.013851135646794004, -0.0038451609010453033, 0.003901019241396477, 0.007960762386164676, -0.008206235159190048, 0.0015094458029598075, 0.0017539727929445845, 0.006829667835757233, -0.010194575573128506, -0.005253387702811788, 0.0032411424437672853, 0.008826858376418107, -0.012912766792089843, 0.005427016012477584, 0.0009863987386708475, -0.005585978951668064, 0.017819905484540335, 0.007552444808994917, -0.015168220877859746, -0.015846203259659082, -0.020328120905606633, -0.00840410111980082, -0.027765677872660217, 0.004232365554097896, -0.0022605812759637304, -0.0032797709656778285, 0.001083791684709437, -0.011036188209590805, -0.0035686097001841307, -0.0033181247064155497], [-0.0024034246637769695, -0.005609205885015392, -0.02393598129281746, -0.003452257236452015, 0.007087394912449841, 0.012057656687131992, -0.0010143570229421955, -0.006401205104282402, 0.0025177548305622987, -0.0026428404745935013, -0.0023398339571149736, -0.0012481262053338142, 0.004817440174007601, -0.004318349866402381, 0.014922720725700245, 0.0007873722704387093, -0.017198432621015565, -0.008254879979394076, -0.0029469657084236034, 0.005242962329852431, 0.0035554756916622026, 0.013660474023948717, 0.00025382225936917177, -0.0004952276514926103, -0.0005649484059767771, -0.01404987149235775, -0.00400185716279772, 0.016596021939799914, -0.006478941927266478, -0.0026398714254651967, 0.003394880970437083, -0.01143450673119784, 0.004248318128772183, 0.004984590925754064, -0.0031416359331010186, 0.005783833608211529, 0.022591379776922296, 0.019291298313855596, -0.0029998176910562913, 0.010391589336769381, 0.001676991170930493, -0.007431707579277416, -0.017300135635730417, 0.006690718238668259, 0.0001408180667277149, 0.00014883616364229146, 0.009084018961808597, 0.012190675000975808, -0.0066602489666945435, 0.0028542706519051465, 0.00152806355985654, 0.011599562509868959, 0.007698669125226364, 0.0018113347822694829, -0.0021113159053719175, -0.0042571602442360605, -0.015895689153723025, 0.018268828280485136, 0.016653742257182344, -0.010227095297818505, -0.0038350781991894657, -0.0103108210513309, 0.0035582820100938397, 0.02145022989854768, -0.011392854547978108, 0.007445470827422632, 0.013378406625310183, 0.02733158239022953, -0.009064305303892194, -0.005380854059429249, 0.006339230203971675, -0.0032481498735880228, -0.0019391671616263953, -0.012763215962730043, 0.0008381218363410341, 0.004317336441039449, -0.0030237988968007056, 0.0025069179126257475, 0.011417080756207967, 0.0031953806800281807, -0.005014048783027901, -0.0017953420864756599, -0.01313530375372984, 0.013392525705669326, 0.009045266486585088, -0.008967063940292041, 0.001405532484457113, -0.011266602475117477, 0.007905778550206702, 0.007860641270325333, -0.005121183221990574, -0.022296486238105026, -0.0020163238964301202, 0.01345187000373099, 0.003810957406479458, -0.004185445917198701, 0.021457827632639162, -0.003937309828955436, 0.0042271438303462154, 0.004521437352030526, -0.0011682618898116019, -0.006211106377245204, -0.008078784312951883, -0.014823333515331372, 0.020640186772827248, -0.016613793412150118, 0.010343044129729364, 0.01708587667066737, 0.0024327061704148382, -0.006284310636238298, 0.005893979347409726, 0.007254408751786692, -0.0044752672622499915, 0.0023228993720498495, -0.004599935818630532, -0.014349648307855968, -0.007711124646189298, 0.006807350757316437, -0.013602354611455645, 0.0006824822183688296, -0.006090228629416532, -0.012964536422505175, 0.010124091042983454, -0.0014024311655404886, -0.008160319528600498, -0.0025668854898253293, -0.00495023386384911, -0.0006478905225404702], [0.0008631376477859105, -0.01549659394928803, 0.015995030849940625, 0.01258621423081134, 0.005354044884876134, 0.003681097995218826, 0.005765315245540641, 0.005030779405044121, 0.0005689027107524445, 0.0036987808346273343, -0.004401834923844934, -0.011376676918249935, 0.006445377659295641, 0.0009905185141690382, 0.013125700518191716, -0.005226538571036113, -0.005766465277619472, -0.0017735080861494212, -0.019819537476691764, -0.004793668938950528, 0.004732351431248292, -0.003944299531279565, 0.00342549531625093, 0.0050571014918598224, 0.001633475553336386, 0.008401815748501677, 0.006604311909921454, -0.014216990431185307, 0.007128013280341752, -0.005812472474739288, -0.0008629632531390079, 0.006488550151939395, 0.0011895236626192711, -0.0043813631250127225, 0.020284223088565877, -0.008022422411130343, -0.012365917819300128, 0.0065053062204270175, -0.005320339741774883, 0.002575016390078706, 0.0019136501869672022, -0.01894721321276371, -0.002546170208098461, 0.0028902257335435767, -0.005235893323826667, -0.002185774853854256, 0.00030153964968425445, -0.002773682687100577, 0.003136680686825534, 0.0011427945898840304, 0.00865593749034037, -0.004577626893045354, -0.004855240950402711, -0.008445607366133208, -0.015204695639474979, -0.010017077083108956, -0.009046043778167086, 0.010459155003396883, 0.008240847169428323, -0.003776072627376677, 0.004240610396410199, -0.005968349857722752, -0.015808508194450326, 0.0105791273436232, -0.006151321606882344, 0.009819641690733889, -0.0015909465501923689, -0.01687615898692346, -0.0017431787628732537, 0.010504895471870786, 0.007447329988280852, 0.0001908258447894939, 0.014680177262260109, 0.00046548252795479926, 0.021127369098916958, -0.02011482199558981, -0.0005445265350618219, 0.011292704409992207, -0.009846050051455639, -0.0010118337033373657, 0.009924105550353963, -0.008864424875807275, -0.0020422931472511515, 0.006811154128015519, -0.012253273079463762, -0.01873491151638209, -0.006973793513248121, 0.00680293386227214, -0.005030455264023172, 0.011949283075390909, -0.0029486435147726073, -0.0012047919513785536, 0.008648198354048519, 0.0037264517975781363, 0.004710334880598978, 0.0033892603194624407, -0.00047450788356673577, 0.00387961813650547, 0.011158504166378423, -0.007423086853167803, -0.00041339181134042837, 0.006788981549721821, -0.011771461195352629, 0.008695451625803428, 0.0027118316236110058, 0.01939793343294355, -0.011047792014398025, -0.012785121189792765, -0.015017123595498795, -0.0016214765196969942, -0.005410904724093799, -0.00952017280379414, 0.010490577601765352, 0.005513144048936038, 0.015533263812567387, 0.01211372437199879, -0.004816097289472612, 0.011461036505819016, 0.01327924840656688, -0.009273275071392778, 0.00868093470715193, 0.005271525034715712, -0.005188178628100371, -0.008113708530983251, 0.0007901591070152846, -0.001416111672392254, -0.0016215968205813233, -0.01160968466697715], [0.013857568169108343, 0.0030480166537495395, 0.005044132249973411, -0.006666535877775976, 0.006943947406070896, -0.020408356863293946, 0.013783335893985822, -0.009237034857100894, 0.008102481630774643, 0.0003058696674426647, -0.00011180344915857637, -0.014914359841171567, -0.00031531597317177004, 0.013192256465192289, -0.006090224299180343, 0.008120022434131268, 0.006876628799907129, -0.013145722392193596, -0.001262614786712739, 0.002385231592244233, 0.0019360170251815309, -0.007837893400886779, 0.010462017076608505, 0.012488352866572378, -0.011373025499162422, 0.016415396086243438, 0.007599986074914814, 0.003985836788312201, -0.015020453085950954, -0.011309301546857695, -0.014501716250240748, -0.007612374931376313, -0.014225156221898705, 0.009774741125680676, -0.00748927762259479, 0.0010313139148803473, 0.002232171569164696, -0.018634256331674287, -0.012659158118381919, 0.01130712629359395, 0.0029319222483671103, 0.012089188696957654, -0.0028453010871864384, 0.0017542254997267494, 0.003553150182334625, 0.011585822976095292, 0.008480267339840792, 0.016347422469912415, -0.003884087223147747, -0.0008558716901782131, -0.0033086021501594464, 0.001937076541259392, 0.00118591721755679, 0.004649283033584336, 0.005151438050572883, -0.012223289939748456, 0.006001751083336857, -0.0026908633105106965, -0.007903855673318269, 0.01072937296221119, -0.0007400258962945228, 0.005499057339190273, -0.01213953567859855, -0.007128312533282131, 0.007326947544432548, 0.006240288858493319, -0.013894906336881814, 0.005887467300654712, 0.00644530848646692, 0.004675511784975114, -0.0002173160188517008, -0.0006199887108823328, 0.0006426753930892924, 0.010334231018520735, -0.004577631799218691, -0.011825481831712765, 0.02144955428888922, -0.005842588238870618, 0.006681363764940627, 0.00454895930335576, -0.022676955356540428, 0.007363337483842538, -0.008558047044166558, 0.001820114451960262, 0.005835243904319522, 0.001796316900871852, -0.013839329223572141, 0.013677451234370738, 0.006973960649305277, -0.014723886349248674, -0.00945737662031439, -0.014184835158734801, -0.01045307110927702, -0.006638194388977953, -0.029738872337273424, 0.006108816237158317, 0.011705561010886177, 0.0019998899272726783, -0.005168112244209862, -0.01470038101017275, 0.00262607678718911, 0.009043113792625337, -0.02505421861217651, -0.008653031805707388, -0.0014327787266970068, -0.0064179698344519675, 0.00034566564758413404, 0.021065921379881385, -0.005269250084812187, 0.013159425410499104, -0.006396662593480635, -0.012267169258584114, -0.017016495301523916, -0.005308676010734585, 0.003349934795775747, -0.007275193210279652, -0.007983220431210478, 0.0013505097670545353, 0.003895842505787844, -0.005769367642135206, 0.008647181802935567, -0.010019533171595, 0.002707544657804725, -0.0024256730913888793, -0.005053681098783076, -0.0009787252204865068, 0.009571818517752807, -0.01834931727027748], [-0.00891689118791259, -0.008799919086576296, 0.02156084770438208, -0.0013563283890653747, 0.009411171688904462, -0.008537645802341011, -0.0012184664213448384, -0.012082083441176443, 0.005124083099665328, -0.009241827917955601, -0.006362044775918741, 0.0018805451839250318, -0.005884664315343283, 0.02170073182557651, -0.0021252384072627016, -0.003291252377668495, 0.015413214416268368, 0.034574903644033976, 0.023879658598204023, -0.0007157006496489002, 0.010909282485990721, -0.012696885800181952, -0.0041349419380560856, 0.008254304726674903, -0.013053413963213849, 0.016814930147695435, 0.001185487265845357, 0.006749380326073532, -0.0014283507418406374, -0.00011138418688146384, -0.008529816127301637, -0.006085203670920321, -0.02057205718639204, -5.349281308859876e-06, 0.007058606430723004, -0.002676429184003525, -0.000712705572371937, -0.0029805256540521813, 0.007206547928538666, -0.005171493986819732, 0.009859254674755328, -0.0076816802696859955, 0.006848971729771244, -0.009792440707521551, 0.0061252484368457686, 0.019778622216359756, 0.006136328485362326, 0.0047137338264613094, -0.0036822593440862667, -0.004486797884544767, -0.007484942471459793, -0.01716375664443962, 0.0029638818027839797, -0.01048510538237205, -0.015116466059709658, 0.0025560173798639296, -0.0030519423853446435, -0.007412781074433917, -0.0030733330977138337, -0.01884020563769688, 0.022774060280112387, 0.0013344208161115147, -0.011357623734035453, 0.010654979333009887, -0.018527304349176564, -0.009721451800931221, -0.006432741376878085, 0.006429448087915821, -0.0031263410621697484, -0.00014632289088663066, -0.0037095262852889234, 0.003849775228874982, 0.012851350503338297, 0.022659074242658336, -0.020209034404398626, 0.000296823310239547, -0.00990032601508589, -0.016266352734758405, -0.0019969086078934347, 0.00485647589152319, 0.005066275325350377, -0.01153277754671628, 0.013925763342332427, 0.002271368567670858, 0.0069276780028310735, 0.004939538873402302, 0.007101253009442757, -0.000994514403551163, -0.0014554969532374704, -0.01152313735104956, 0.006509287340897364, 0.0008475655831800894, 0.010101500270365271, 0.011798823988833768, -0.012728551558820134, 0.009404560909719193, -0.0026022745095162524, -0.0011489142343571051, -0.0009425087800583244, -0.001626032398828527, 0.0187684150161961, -0.024605179857258835, 0.0024216256364643605, -0.0029710626206175574, 0.005848291857566105, -0.009221750527647723, 0.00804741476520877, 0.005395339451625292, -0.008133801246719773, -0.020079776372735596, -0.013893556920286758, 0.01565972840187459, -0.0022221048952699054, 0.00488969379776365, 0.012910900410785072, 0.008046050139428787, 0.03911357827047289, -0.0014420035317156074, 0.010318939854728435, 0.00047317958724095113, 0.012470132547468331, 0.004666906484398193, -0.007319417106175423, 0.0018019447548251338, 0.0159295353566905, 0.0013789614953002044, -0.0051000224131893855, -0.0105635712437566], [-0.0005238022373481961, -0.023475578141573483, -0.007110815821668281, -0.0010388934655835489, 0.015026460722843103, -0.004023277864552971, -0.02321198246229463, -0.00941658828960972, -0.007411317336815886, 0.004532009338450597, 0.017235439974343823, -0.0004139459034579491, 0.003537167440919642, -0.004665346965385251, -0.009198055923199753, 0.004734960085684217, -0.0015090593993271966, -0.01137853376226337, -0.002012874896128344, 0.006693064278372665, -0.007057403128145376, 0.011652424751238611, -0.004000169126043561, 0.009705608822034022, -0.01840224134755922, 0.008083985861080896, 0.006954672264427234, -0.009516790018612716, 0.002762643963456703, 0.011792337362673133, 0.0030476427016075877, 0.010375496433998021, -0.01457747536345891, 0.01624512785035525, 0.010348225614489987, -0.011686369205199682, -0.005430372737606318, 0.001999206191088169, -0.0009657404936313949, 0.007110917062751353, 0.015575797301551864, 0.0005517392579661207, -0.006371591487017155, 0.007345706635785525, 0.012804237211247058, 0.00015334507447608124, 0.01377398392126369, 0.00763482452092849, 0.008269185895084723, 0.0022229480085522915, -0.0014472771646704588, 0.009253339420505064, -0.001522110336464613, 0.0021851820248351547, 0.006000922161092785, 0.008914728574429782, 0.004414457027573349, 0.007953422689307207, -0.006359396250678028, -0.008871840240638515, 0.0021717302761086296, -0.0015351715382773354, -0.004750443177137081, -0.0004893423284039986, -0.023560595798672347, 0.019194946971367418, -0.009521979786217423, 0.012634573023109913, -0.00797110705585322, 0.011640255729239943, 0.0012865501454646833, 0.010422285356405183, -0.008012768612754755, -0.0027140577602932955, -0.005762551101320414, -0.013179871272364784, -0.003693756267331356, -0.0090525815639481, -0.01644612304940508, -0.003987005832580712, -0.0017324162702857125, -0.019694661502733572, -0.007501924471425776, 0.011262439069852692, -0.017493958028189968, 0.006878754826935878, -0.008870096575400254, 0.014667986983092858, -0.0027467601908681577, -0.009962237900629391, 0.011743431975206955, -0.0024586032464905564, -0.004015193435644926, 0.009867657844854685, -0.0008978231209546886, 0.005744547034985842, -0.006408610099669508, 0.011753252351804891, -0.0042806161270640495, -0.001625716793681189, 0.005082647379886875, -0.0058969900499570935, 0.0015394537719444982, -0.015869677467245828, -0.006261604903317102, -0.0004614135656348842, 0.00214116886327113, -0.01281333294401758, -0.006576775373677019, -0.0029679803246914554, 0.007426758957522207, -2.273856242058265e-05, 0.0032674942767936008, -0.005174143754065997, -0.0111099306897949, 0.025896933123364562, 0.007064633854210133, -0.01051157751746921, 0.01785922047230272, 0.008555061894620715, 0.0001803660149805565, -0.003305769387917178, 0.005901222182654886, -0.0011295386460911372, -0.0013567651941549714, 0.015847190251749507, 0.01826935945375742, -0.0009848746194178705], [0.045267319307123875, 0.052555063427662356, 0.09578317484997463, -0.04197010486751855, 0.05427994407469081, -0.0288440383023463, 0.06110621098355877, 0.039015059315001585, 0.10266735705184399, 0.02068612194883819, 0.019350866411273693, -0.05861226688783541, -0.08573592594824113, 0.03512299215987673, -0.023700081128455203, 0.06914819502158306, 0.034434504771237565, 0.0413945867965989, -0.033249719600882126, 0.07956827820835267, -0.043094483448703313, -0.029191078239090232, -0.06423738233198077, 0.10101854193055398, -0.023122010045990557, 0.014767865096320335, 0.0031062027905943927, -0.012118744793646575, 0.01410210673408944, -0.006150185099497688, 0.06431544170567619, 0.0014264845453956997, 0.003599306432361399, 0.02810811189435574, 0.03229493000570104, -0.02095066034000738, -0.063553670263267, -0.05434355308053396, -0.03441533848915889, -0.03366738987397031, 0.0016821725704328045, 0.002819089026151042, -0.04106918439214868, -0.0005644444706549528, -0.06013406847378958, -0.03526971491510958, -0.011915284673945, 0.024354139592796153, -0.037876851272221505, -0.03924776151306452, -0.025558623192064717, 0.019476799587441966, 0.005214178867873948, 0.00699293606468076, 0.012471961422513294, 0.07491664668682999, 0.08008887989222031, -0.061198381849844184, 0.05807320477363768, 0.0860217400955812, 0.06396690140171521, 0.02095613823682139, -0.027860134633539257, 0.006771040515690739, 0.00444555696020735, 0.02665076316558272, 0.07205939300848853, 0.04660317166956557, 0.03182636772931107, -0.01381449603875376, 0.044457097329188365, 0.03200324902338448, 0.07276652292133362, 0.069208749369738, 0.06281281628476941, 0.060629904291112736, -0.04542162652357093, 0.004338497551149925, 0.04423779578882966, -0.007840089375643402, 0.01329201631492342, -0.045380900144388975, -0.0005584103340523847, -0.005780262433967061, -0.04804629378651034, -0.013162146920908634, -0.00609484767607216, -0.0390339008828817, 0.004440879835005959, 0.08448623411047833, 0.04559130974079877, 0.09509488094000955, 0.01715429704021215, -0.0548729065396399, 0.0862427414104866, 0.02665807605162662, 0.00987758929114281, 0.0027052014315129846, -0.06471591189154809, 0.03833711911786206, -0.07549104732957439, -0.07709531138758206, 0.04391566803173139, 0.013935695183740182, -0.031335702145015125, 0.007779194203175596, 0.03502896763179692, -0.03846489059165879, 0.014571832669467476, 0.08821101652798267, 0.09566580142907592, -0.00024968758707631205, 0.05453274084341604, 0.03780279534917086, -0.0426835904565957, -0.030031143823386407, -0.00888775390931764, -0.013301478912242756, -0.07144973598120509, -0.04581120559649847, 0.0002852663119882077, 0.02789202174848935, -0.042710978418357325, 0.0011464542887500459, -0.0028855421816295353, -0.051178606444057084, 0.07288301731569477, 0.0027840200015082986], [0.08977922709794847, 0.06552638544566661, 0.09002060156158471, 0.011126428766966411, -0.021176660546960296, 0.024107989151087864, 0.02780244439561793, -0.04043561820817334, 0.08151846853126977, 0.03911508493965729, 0.03706487046374926, -0.05810733707753801, -0.04571645848821801, 0.04229597439049808, 0.027151823868646452, 0.038557308484659845, 0.07127870509061507, 0.07127412012447944, -0.08716580081710586, 0.07519728084370157, -0.05676989338999877, -0.004015767545119066, -0.020882967842187173, 0.04280819722535797, -0.05634283935743942, 0.007252235060954846, 0.05969432566189046, 0.030450235710856907, -0.0004201087488844462, -0.02008926662592688, 0.002761755799289265, -0.012499600188105009, -0.051592860769416556, -0.05413270816761056, 0.0902158357070656, -0.04577569664106685, -0.09429621822459472, -0.073002969719868, -0.042235843162157574, 0.026754331919715702, -0.04900074942026169, 0.033108804765156125, -0.08106673945043409, 0.02916016684453236, -0.10521125616147832, -0.03737189785532618, 0.06451375585021606, 0.09361046466703594, -0.030252965736355796, -0.07567947449759986, -0.055621701918725244, -0.053923090515575964, 0.039628659954639905, 0.07374615401629947, -0.009456296520421287, 0.02896134575045975, 0.08939179960246513, -0.05324253099114794, 0.02251784277491421, 0.11287009772399212, -0.001360648877216273, 0.01793996863944374, -0.06356829464127305, -0.011671151820992454, -0.011327496365747805, -0.025754751392643056, 0.08846680505357132, -0.023646339335143172, -0.03281629659697851, 0.03563946431007054, 0.05474527255602183, 0.09288920680265011, 0.007772410168354455, 0.08369290832897698, 0.033634797783345445, 0.02267597222058219, -0.07673833647807106, 0.06366399596924799, 0.05766314741547985, 0.04221872433067065, -0.04632284054058727, -0.06140650041607828, 0.053699339999573006, -0.07102768720544686, -0.07668334432924692, -0.06232940161756609, -0.027549145985681707, -0.016773847702088236, 0.037749283203340665, 0.0909294752722242, 0.08306324866262478, 0.02268731576780111, 0.0800083213619907, 0.04011533634979158, -0.017647211341262195, -0.021236772186393613, 0.06869762163342552, -0.003843263004339579, -0.063590737726053, -0.006224837281056562, -0.10054763415849494, -0.07566309511842523, 0.010070942707540564, 0.05994680051335474, 0.04644643519293476, -0.011188328280308212, 0.06472147875000502, -0.09629092434831779, 0.01726328082057678, 0.08557838937638773, 0.09186750187780551, 0.06899005247567652, -0.011584208859946099, 0.07157390808651339, -0.053183791707063235, -0.00124254112985629, 0.033919770915348604, 0.011918739116286815, -0.010989595313038746, -0.06621394173385844, -0.01445610846228458, -0.03730016541830517, -0.034659040062171874, 0.039752537844810684, 0.019180766906324333, -0.08072657758450155, 0.09431481732494286, 0.04502489117379591], [0.05726288994742454, 0.03310023171990728, -0.003588443692531379, 0.04568609538600647, -0.07826030209567782, 0.009170711694510805, -0.04224029099130453, -0.06659587381449471, -0.06070558999699769, 0.05849192259345599, 0.05122849750480371, 0.01548839973530403, 0.040423521593854185, 0.08006835364750312, 0.06179131618408382, -0.057729748445602046, 0.05362699691991732, 0.06018105511823362, -0.06005866476280272, -0.030891347085989895, -0.05321952396565857, 0.03778489068299294, 0.07180239474653248, -0.048007821565399504, -0.0642302282298396, 0.035052852432174486, 0.07836966290493699, 0.05449195490796521, -0.03339955531940108, -0.026790687609447972, -0.058827919178691464, 0.02017566736097802, -0.07180200633155605, -0.05151592142907307, 0.07999067039894289, -0.052458548017979174, -0.040508990211814644, 0.03681149501292849, -0.009096727024434044, 0.04772321949580201, -0.04355540697086235, 0.06570146604049872, -0.032062433291741785, 0.017241961039174282, -0.0047939339527720585, -0.024811606854741087, 0.07749928415939689, 0.06834304038847497, -0.03818347685534901, -0.06251747776092702, -0.043454016798542924, -0.05374738887677905, 0.0235018593516549, 0.058257585213961266, -0.04440499818068394, -0.04469369197727815, 0.000533645550279345, -0.0061412987805849854, -0.06198262218391172, -0.0045266708343741574, -0.06464206354982478, -0.008695432612536505, 0.004995098204119443, -0.0267458959369824, -0.005078771210791409, -0.06700793084288834, 0.026259390104665273, -0.06442204220110061, -0.04472444737387614, 0.0576359978913199, 0.032182430499898045, 0.08034397999371691, -0.05840273912867931, 0.0667542736411032, -0.038779763993195916, -0.054526068881098545, 0.005987924996318848, 0.07577323016435444, 0.04600080326553398, 0.0693910361613985, -0.05727423017474757, 0.02358218625285279, 0.0875005345277231, -0.04330874398516725, -0.040449775076242915, -0.04882418735506673, -0.044407124573458204, 0.020716500537180396, 0.029505116295173845, 0.05796398157619031, 0.04361805607911699, -0.08356202146037588, 0.06323727300522788, 0.08255020763063219, -0.06569384366641638, -0.042710126217557105, 0.04682639132498313, -0.003965318308722913, -0.043682486947820925, -0.05799971283709478, -0.03470057390227378, 0.03689018657429771, -0.042993313564472314, 0.06303067881688716, 0.0602838257815111, -0.05037832979254209, 0.046044778159805, 0.01384230167952359, -0.0221402049758609, -0.05161788364995517, -0.03349441380001934, 0.07003173362013607, -0.05087772665161778, 0.0353893430865334, -0.026831902584933072, 0.04082238685996741, 0.005071700075257762, 0.010636210703463374, 0.05905603741035108, 0.03787452897220416, 0.026542488544670024, -0.06578466584295688, 0.037579493641175986, 0.049566630552115534, 0.02106483007788224, 0.011908628847114982, 0.05645167077965932, 0.05259084711922749], [0.005813084905429239, 0.007323480795571718, -0.006937073986471818, 0.00905475469032036, -0.0033882086735210885, -0.001566886780251485, 0.015207684959505306, -0.0005349026166952479, -0.019288621374463275, 0.020329226289639825, 0.010967673615566829, 0.0040254867342319695, -0.013236840751538845, 0.023307697009461444, -0.0066808178557402585, -0.010916232592376967, 0.00501345815136007, 0.011547723048351707, -0.026299882448277644, 0.00031227171875605877, 0.00702171559914285, 0.00411304628402021, 0.016937732845257777, 0.0014144544553712575, -0.017268562688597864, -0.012505206479396163, 0.014759801786093728, -0.00968688536405082, -0.002486022016540565, 0.001350648440555022, -0.007054986500325488, -0.014297216055803901, -0.006251024853614462, -0.01975486902565328, 0.014079905021615375, 0.006516289218558283, -0.011650975493530318, -0.006868257533936148, 0.00621984056302932, -0.004100790538823032, -0.010181815933844478, 0.0062344640991765865, -0.0030838638136771223, -0.005471670045013054, -0.01125110349796808, 0.007523365791735432, 0.014082334054034234, 0.01478709935766626, -0.004859744309780257, -0.013103223812964996, -0.012353371369317462, -0.0043765822331728625, -0.01863892013968913, -0.001858479607745646, -0.004611696197125678, -0.014418878090259499, -0.0021379517850024883, -0.005244325674465992, -0.013118250505023655, 0.0011385441468605092, -0.0142773386210757, 0.0006991770198657433, 0.009004736154451383, -0.019616740430101143, 0.005267698214989505, -0.011973936569714402, 0.01583144110747546, -0.0011843340438850362, -0.018711851713000154, 0.021123727329541694, 0.01374720638614583, 0.007215983453538263, -0.022650078874838588, 0.011550084304698574, -0.028423918276434024, -0.008825906176454254, 0.009719117584995461, 0.008015257859252639, 0.020233035361733688, 0.003493158204384257, -0.022016187306054563, 0.016389035886146867, 0.010171004462238058, -0.004531315249965872, -0.009532230075853852, -0.0011625021120665823, -0.019990117965607075, 0.009090857716534735, 0.010941232839916278, 0.01582712732779325, -0.011972825637720015, -0.006734743179802378, 0.016861242546475634, 0.025116048584220063, -0.030279917527051753, -0.007945551265084932, 0.0026582299051081384, -0.003068430742338327, -0.014029112931569318, -0.010249869290884773, -0.002041983622476136, 0.010754760603652092, -0.002140022881665461, 0.016566682686729086, 0.013548482834472058, -0.017412699810117047, 0.005808833272678294, 0.00029100383017035354, -0.004736040935197057, -0.003492237095188379, 0.005676044558339836, 0.007009478492420995, -0.005930368381410555, 0.010521568540386057, -0.0028767854945521048, -0.0032050671897318143, -0.027427759690367565, -0.0027622057922647653, 0.035367445627110125, 0.006676968937335143, -0.005176170762261942, -0.007706923421295608, 0.004434184038938778, -0.004090214329109927, 0.003030952481065343, 0.005604800902777933, 0.018788187121177507, 0.01305073003068457], [-0.0038726951488756312, 0.0033485798911919292, -0.005053340755922747, 0.004592462546092264, -0.00830298790225653, 0.0012589625301020115, -0.007868424840191256, -0.0012271322880415482, -0.011627234209535526, -0.010845791962101857, -0.02436744328613238, -0.001980515506412927, 0.012475609782824344, 0.008360336978354995, 0.013761888956440269, -0.004587528668527726, 0.005643417117165201, -0.003943548490262656, -0.0017446500999147249, -0.015020812676212117, -0.003255874091040347, -0.004558652179595794, -0.001656766041077171, 0.010360073462105329, -0.012658101184620817, -0.0027192948141264344, 0.007598615729240498, -0.002870687640596864, -0.003579464362613097, 0.009176871695075, -0.003767472792887771, -0.00035869440820812524, -0.01337587700314583, 0.0013336554503439403, -0.002246831650365929, 0.014119059046833951, 0.004171563281679176, 0.0014566016189057585, 0.002159710908121066, -0.00047114829053575616, 0.00667275334309672, -0.02876184349229717, -0.0013113209693481622, -0.002364263181803938, 0.014448606961441757, -0.025306608162386446, 0.004852936992408199, -0.024946859205924113, 0.004519664056559634, 0.010753573220928651, 0.011761022354719961, 0.02093658990307943, 0.010078121415334707, -0.010565991178167313, -0.006103564350219156, 0.008739322757432487, -0.004258834785128414, -0.002310469581642045, 0.019847850146412768, -0.005312339114117864, 0.008777265627662177, 0.011597064687589339, 0.002083386411192083, 0.00719406961827377, 0.0008269005056134895, -0.0007558271206017438, 0.008998336954830329, -0.004196645293297214, 9.6388487009429e-05, 0.0055464349334625185, 0.010594990969320204, -0.008068821451558895, -0.017288821922536484, 0.0037084783134959318, 0.004758129166194431, 0.00490325288633455, 0.017611793398638734, -0.0016705703335748124, 0.002674206911866135, -0.003976676859535482, -0.012621585624566426, 0.006501888876671846, -0.0024575488644033305, 0.0021139202930218633, 0.007581868401447937, 0.003531944069434768, 0.0027059491060787994, -0.007815666057216807, 0.0057632489510548645, -0.0017542079298575822, -0.011229239349225843, 0.018168427436301298, 0.004832479506936519, 0.0003010209595577686, -0.018602878473239156, -0.00045293107787465454, 0.00282454089032011, 0.006253791130271283, -0.002206272895547429, 0.018892630656845277, -0.006476733992663752, -0.006289536208819831, -0.0032396019156306637, -0.00025359330625124743, -0.004103904515707529, -0.0005649918762683564, 0.02536511111896127, 0.015207901383709624, 0.005680815304849152, 0.006942037480961733, -0.007155904808226362, 0.007243581190910237, 0.006728049800287916, 0.009757114404276514, 0.005267870914693177, 0.018126354135914638, -0.0056995608490294425, 0.0027238132231066415, 0.021247451650085125, 0.012257696273847832, -0.015648743143699136, 0.017264240773098422, -0.005674703581857961, 0.005024174433523023, -0.009971383608296325, -0.00585936156894807, -0.006146443900000904, -0.0031258947735411198], [0.004646800259315632, -0.012611092409046244, -0.003686836415793395, -0.0006952811296518025, -0.0043395812769131195, -0.001339480530577025, 0.01614292615216259, -0.013216777469698057, 0.0039998397454880895, 0.021561671496516534, 0.0038958322103260718, -0.008849856959461985, 0.0014848342427425504, 0.006507726197039225, -0.002184671323497588, -0.006281035147301658, 0.0045408773660484845, -0.002071633401725252, 0.011274882682225327, -0.025161653711148584, 0.0037749163242671853, 0.0021628006447453646, 0.025134928206523688, 0.004598666307602822, 0.021173483212522846, -0.00016204256869457444, -0.004861731426835892, 0.01575121186395475, -4.812459274508054e-05, 0.013431277632464309, 0.0026668956491270597, -0.009316692188268184, -0.012391499026884077, -0.008472871351668774, -0.0006791432902927972, 0.009327023651713432, -0.015561035408194855, 0.00076935286507874, -0.001122916422606982, -0.005748101896947373, -0.0018031279799608382, -0.004721475074824199, 0.005988377929189214, -0.005151859949301673, 0.0024634233686394134, 0.00030062370002943467, -0.016275744298379937, -0.0034051164584605214, 0.008249011883644727, -0.002769442267951221, -0.005334948225026698, 0.00233326531706765, -0.0015981503689017926, -0.011375045661229466, 0.010896167640997613, -0.015266874902604177, 0.005032216514729399, 0.006429428032976337, 0.014134498236367365, 0.00011292426089839682, -0.011299805058998922, 0.004016135194327932, 0.005114352075363062, 0.005324370846657933, -0.0033311036255489097, 0.019988839659615253, 0.015056828526077749, 0.002066014847169566, 0.018326576483986542, 0.003083527819620473, 0.01258128201208155, -0.0019567796617628837, 0.0042667073512574205, 0.0061442171830472575, -0.0030383857698811417, 0.016542490805988692, 0.0009676738094783916, -0.0029368638715293787, 0.009936319157900048, -0.008122159885417849, 0.012433423485584794, -0.008549004810866154, -0.00717630563366925, -0.00895703686530505, -0.003506396110052943, 0.03159880338098335, -0.006254288076449005, 0.014525172767347619, -0.014031310961036355, -0.0011456333788906429, -0.013557306619809676, -0.013829783877758947, 0.007052902365539573, 0.00032825205179925023, -0.01565833841002387, 0.011498276050010456, -0.006205710782901361, -0.00025336890787206704, 0.0026174106815202436, 0.010456573186209444, -0.007312020067586997, -0.0019613807241012373, 0.012993435691327973, 0.010468884409491348, -0.017560903348630842, -0.016606437030572383, 0.0074513969257994144, -0.010479649950752094, -0.016226627751540865, 0.0017852366039897666, -0.027803472606673346, -0.02595843863442442, 0.015011359766673822, 0.009818618297430609, -0.004409335199278595, 0.001137299578605869, -0.014509614419173582, -0.00636359758986038, 0.00142220010548774, 0.001262950994895197, 0.007085299073908094, 0.0004471269037488538, 0.006515275931686239, -0.0014432267597307357, -0.008390172195666871, -0.005739824500246031, 0.01327924062768162, -0.009918129322171334], [0.007720744504275043, 0.015783286648641887, -0.001235424860329894, 0.00909807670563237, 0.0033787919143235326, -0.0032339764571376064, 0.024467654013673967, 0.0038777039143209667, -0.006864883846467309, 0.0017591371357666317, -0.004207389220772826, -0.01478829842212463, 0.010199146045714971, 0.005469142675194425, -0.01265522092783262, 0.02111449592351844, 0.00924363894701455, -0.005888838754673858, 0.0008142687661565767, 0.001215406008601075, 0.011312953068909434, -0.0024811103102110733, 0.002235970349981683, 0.002976016205740686, -0.011244406046881546, 0.010802673954518546, 0.005921718805292887, -0.0017220840517235831, 0.005611516267959054, 0.0009988764320197757, 0.011315427076558766, 0.0014394422769459783, 0.00601914093404034, 0.007212736888625653, 0.006368563907353824, -0.0011552388779920463, -0.01981052612101705, -0.008936539509251442, -0.008940423344238198, 0.027348543021351476, 0.0037397266504446253, 0.009925936858679976, -0.013848282126569838, -0.024161383914371014, 0.0007317875545914615, 0.011797244593145519, -0.005608550991900328, -0.006789073785404637, -0.0014762263714945393, -0.0023520458642767913, -0.0067981326672052365, -0.004654040637279627, -0.01216402276623654, -0.009167961412725174, 0.0019711264705024236, -0.007039143866179657, -0.01577022945656189, 0.003882181907023195, -0.0006427868251335772, 0.005889625174480578, 0.008745723113120994, -8.093153874192117e-06, -0.00044837734851289765, -0.011975624791714353, -0.0007601290622366378, 0.006669178646116155, 0.005998205617719275, 0.006471319177621745, -0.0029022646566529108, 0.004867887039080247, -0.017133430741430415, -0.010193975560289734, -0.00239991642177572, -0.009431081707085207, 0.002810201708170818, 0.015030758606161711, -0.00218442891646307, 0.016099020648498302, -0.0022813894159404964, -0.004907437469693702, -0.014372579982562101, 0.0063792053437586455, -0.0068760719416130645, 0.009926705057932632, 0.007334456146274127, -0.0060961129320845275, 0.004259445863350505, -0.01573683708163013, 0.015623029597017767, -0.010100256953690908, 0.006300549432236052, -0.012258664774136386, 0.0014288922149549982, -0.009325780862504365, -0.0034316786986902602, -0.013527968839020355, -0.007926243495567134, -0.009876995165353699, -0.015043140240777582, 0.0046950100153353306, -0.007058518962540917, -0.00634563253491225, -0.00930117925645624, -0.0012306493272943534, -0.008147180396368301, 0.02091564337299956, 0.006051639707006629, -0.007565689983187838, -0.013071740843094292, 0.008357699731432036, -0.006403150469326565, 0.0001633954892170548, 0.004878346925233524, -0.015620931602084552, 0.004787118672333161, -0.009740112926950853, 0.004295967001097931, -0.011238839249436248, 0.01364757815381248, 0.00792233130510993, -0.010683521473397864, 0.01891479953442863, 0.014780059651481294, 0.008189552430829795, -0.011245796166080808, 0.004378593552496757, -0.016368870895920644, -0.014531070249772944], [-0.0014362816014361376, -0.0069183681931334045, 0.012603757573338101, 0.005253275937292122, 0.0028999383905321595, 0.005217041356021534, -0.006213442248896933, -0.01035272466683069, 0.009571886735360826, 0.00011597555422889143, 0.01393875236152256, 0.004731914286588441, -0.007585670986990225, 0.010547099999606182, -0.0038869425380663454, 0.008535478288572295, -0.005938414992081079, -0.0005485270157637383, -0.004302405410947794, 0.008923768093467016, -0.007714876633453924, -0.004859647044136522, 0.009413992131659403, 0.010782021037426497, -0.003365958755411763, -0.00713593441178284, -0.013645354999030761, -0.00877735944342849, 0.0014509021809612412, -0.007249240319848939, -0.006878590594971665, 0.006448451218832629, 4.0195345901993935e-05, -0.0026339462856535567, -0.006400167580685649, -0.005434802438363804, -0.005620503840533439, 0.005051086223776286, -0.00487241335283743, 0.011662718584672872, 0.005966816394958517, 0.005825755551115811, 0.003677450011957489, 0.0033077044560685703, 0.006943602416762691, -0.016670629987957836, 0.012684490873065562, -0.013699970196701832, 0.00400246138408347, 0.000570349812697997, -0.015724202937667447, -0.0063977697175158004, -0.010727381777451235, -0.003979545415657589, 0.01719061932684243, -0.002073955331013478, 0.014264415074596975, 0.013081535727460254, -0.004278780915801586, 0.004339135237308384, -0.00298518332760753, 0.005411733308005539, -0.01907710207526769, 0.028653914701960735, -0.00040496982931535725, -0.0019063303752184701, -0.0011175685068124147, -0.0045430630206821036, -0.008325531593432226, 0.0020424539723068167, -0.016718836833944144, -0.0012510944516126187, 0.021843502503718474, 0.00793733050064707, -0.012386556868270155, -0.01332355124673544, -0.0020000001333976385, 0.003966381372275847, 0.012441989124207766, 0.0014346910031270354, -0.001160720471411084, -0.008526824784279127, 0.0040764483165075536, 0.001140011054435609, 0.005926975175125674, 0.006483495714944775, -0.005746879175350099, -8.979631045670056e-06, 0.002654606277352353, 0.017321536989714635, 0.01174318293679083, -0.004097030017962984, -0.0003811309467283726, 0.009989483863530456, -0.0006551202325365581, -0.010443241091678544, 0.0005877287120473103, 0.013200001237118873, 0.015591584713361797, 0.0051434655546968334, 0.00032450358532795426, 0.006482407044051397, 0.011142494896138215, 0.00489767718289645, 0.013939409641042693, 0.00614219169972661, 0.00788896555462952, -0.000529275284868585, 0.006559763249622514, 0.020423317620492425, -0.00248258257074523, 0.0017768332487791308, 0.00946194167436881, 0.009334637624144793, 0.011075025390250015, -0.0007280419294545924, 0.0008875218583395423, 0.0011569942394518775, -0.004242330736285343, -0.0037431069339553718, 0.00981919087863102, 0.01077081492992495, 0.004957087427606483, -0.0001926543232400392, 0.004870293435500978, 0.006461861182066322, 0.0010831190405662938, -0.005594108540321974], [-0.0005871506462873464, -0.007030162400382078, 5.722501275051669e-05, 0.00880040125868136, -0.005881071593443651, 0.00517832132787097, -0.0008220256692192268, -0.006252245434764777, -0.004130030393450689, -0.00462588365638901, -0.005860745181920036, -0.01891358584912007, 0.018854187468472873, -0.009348177923668648, -0.002397506300372964, 0.03334295921288145, -0.003152967339365788, -0.0014456943074611906, 0.007274106308288978, 0.019605336755710506, 0.018193152375378465, 0.003818361100667771, 0.013234392260734171, 0.0056633657334384056, 0.007235810363511683, -0.019405187065036144, 0.0067705180353588084, 0.023246988680566027, 0.008061858124812735, 0.00595659023721367, -0.007835770845067695, 0.0029053587530825827, 0.0027095903786057457, 0.004460420659005064, 0.00918912852387635, -0.007303933134753189, -0.0008586584751658469, 0.007330331301009735, -0.016544203682995615, 0.00869046382999236, 0.0057779754955196065, -0.008018025557911994, 0.01359139967835615, -0.010977967522786883, -0.0021036858465550406, -0.011660521445636519, -0.01592160816579963, -0.008128385937287722, -0.015714642516192635, -0.016931650404225215, -0.022952190171867108, 0.00831326718673955, -0.0013254489432040597, 0.0055622659198787125, -0.0020477298131057614, -0.003972456567058992, -0.003516234510813956, -0.00924630641525476, 0.009304894709613378, 0.008700160336707223, 0.021430232171875035, -0.008271787499421326, -0.003817105851613638, 0.0110626431168591, -0.0016769808022294368, 0.003288924559165414, 0.015484694459100614, 0.004210125005255674, 0.008741625369588332, -0.006748934802340031, -0.01441329927642738, -0.0006322955578740447, 0.0007819275814292627, 0.01410796173220582, 0.0035777907904494077, -0.005869184737470116, -0.0069291722550928825, 0.0022587924812102556, 0.012553319933597538, 0.005470571220679314, 0.0071232170333618, -0.0043200839911586636, -0.025605709265491453, 0.014673607318063213, 0.00805904963084759, -0.0031006571887128805, -0.00447259268265945, 0.023351395329737713, 0.021690294252956592, 0.016611833733418697, -0.0029944507305616802, -0.00925591539527816, -0.0013871178940876188, -0.014950408468509473, 0.0055214619410546405, 0.014489496221447011, 0.003425751893841048, 0.004029449783247992, 0.014500403876408125, -0.005121039899971159, -0.0065097578618557505, 0.0026881433906005173, 0.014872610822796868, 0.0002365144799428126, -0.004752498965932591, 0.005253074164524766, 0.0019007846535526354, -0.002319231784440983, -0.005881250332527569, 0.0020263465856761413, 0.004936178612417941, 0.020783347670102287, 0.00902770107471753, 0.00610664255903337, 0.0031484062516808214, 0.005117209548785951, 0.0019797226810309774, -0.0038212409045922926, -0.020399645135080396, 0.02032919137112817, -0.014319452937089788, -0.0009859917277071151, 0.007819956177463868, -0.004179322922432069, 0.009362997128689083, -0.00038773752080743513, -2.302789864396405e-05, -0.014764814375634698], [0.010015310474786732, 0.010578994147187413, -0.009747520996943947, -0.011109275279348758, -0.020815457241165063, -0.005252383949073586, 0.007745020930201068, 0.005077934481968645, 0.002683551160767294, -0.005140315395778846, -0.004697605186060342, -0.0036121095426609713, -0.0032925706757378375, 0.010137886135383259, 0.0010973041309218176, 0.004583009447268791, 0.004105208539975226, 0.007942922482118794, -0.0033581058470383064, -0.0023101105495864672, -0.01224394863975924, -0.01489510889527892, 0.013027783925685021, 0.021134359547778453, 0.006957110783610521, 0.005826156427729239, -0.007121993476899968, -0.005540371452990884, -0.002018840333871262, 0.007680004987817622, 0.005864859739731646, 0.0062472208184142985, -0.0017668180535583254, -0.009213710711932147, -0.018210152670753394, 0.003058564656441215, -0.003451215563406579, -0.003192148722308053, 0.0019901989239702084, -0.006301382560363094, 0.011063754314915679, -0.000253132284361575, 0.000565552104452905, 0.011574933607321347, 0.009948419618026068, 0.00611038355322114, -0.006805229086387741, -0.009276123551648424, -0.021128225453729978, 0.023074664639966155, 0.0003909785856615164, 0.008517295759503675, 0.016759413124025926, 6.166315789932138e-05, 0.0009395049555917367, 0.006912222251746135, -0.0014726402308419873, 0.010115958364082099, 0.003884106511009136, -0.00572304206878056, -0.005782022589935518, -0.0004027401740061077, 0.0046213038901671225, -0.009292900051312848, 0.010533609769937191, -0.006507604561757911, 0.00023145318430184596, -0.014461149626769296, 0.002078986571166202, 0.014635562412663068, 0.000771174179769119, 0.003665004407217497, -0.005358802893290997, 0.00954614502436662, 0.010096722119248195, -0.009736359530691503, -0.00596610245059908, -0.015553294731379704, -0.01382958445745583, -0.016662364574268205, -0.006714778582726601, -0.00565448837633759, -0.016681787058880966, -0.004865083819682813, 0.006071224768931968, 0.0017688300399027657, 0.004651006169663214, 0.0023950317269423285, 0.00028857343119110325, 0.0011642927260178246, 0.0029194619037142327, 0.012488387300702822, -0.00762327439132981, 0.0054677760574817534, -0.00552117495846012, 0.008613896200451273, 3.7564871719104976e-05, -0.016377402151856898, 0.005052702330984596, 0.008759063783366453, 0.0010412415267444732, -0.005993647786593392, 0.0047351958623099814, 0.010366284036158168, -0.0035364292847328816, -0.009618352934429237, 0.0035239182270168303, -0.00441843122461021, -0.007799864587619628, 0.00534662260424468, -0.0031431234687082357, -0.00988223187401644, 0.0051515821136850935, 0.00308802273194677, -0.008329327037989663, 0.018756487142586615, 0.002064017261863875, 0.002637232960907746, -0.0031971774190055315, -0.007180995561876173, 0.01742150003279638, 0.003872906114258606, -0.003031141798514594, -0.00034056074551871594, -7.790613344701307e-05, -0.011080757426762775, -0.004371884592864808, 0.012872443021845432], [-0.001764962506059903, 0.015943334970822006, -0.014970345296065748, -0.016361558548554426, -0.003999963006268524, -0.01758671048026046, -0.015928057567073873, 0.0018557770734601246, -0.012882354657121058, 0.004511624375484884, 0.002876946731571651, -0.0028914438605410135, -0.010425849936684288, 0.002522503790714362, 0.018622752215419935, 0.00507800501654907, 0.00898994752699791, -0.01110947109704227, -0.01616944275555057, -0.007894697968582038, 0.006056083996829497, -0.002809320224633048, 0.004253262408017112, 0.0027478897209063918, -0.010589787346385169, -0.006268340531111463, -0.01359715835267749, 0.0162230382896508, 0.008389435958658657, -0.0038862032758827116, 0.0034921870472800778, -0.013070250500948715, 0.0010564873810362785, 0.01673908253532166, -0.018732095602672322, -0.02253482660624744, -0.005532386657474482, -0.024377209152904974, 0.005031230795644174, 0.000736575867717345, -0.004407011439542774, 0.015850204722370788, 0.0006029262328501152, 0.006901226228911555, -0.005858809005677824, -0.01152869459998729, 0.003529914915388379, -0.006150996820175387, -0.011667879301653564, 0.0032183544287001935, 0.0004715782494769777, -0.016607438650892033, 0.0044242574333696605, 0.0042812180602841985, -0.005605700948986634, -0.01130399607556866, -0.003391078802589202, -0.013941085052878197, 0.013842351234794242, 0.020707249430636458, -0.015076154797424314, 0.009865927987944858, -0.0006877774958168472, 0.008519139942662055, -0.005175697465702867, -0.0009611017595624925, -0.00891183202999146, -0.023612311505200025, 0.004305256776267697, -0.014951598170369246, -0.0006634031218695122, 0.001467758457271592, 0.0021892067975179965, -0.0037950789367586493, -0.006171000828037434, 0.0179764482025439, -0.0067860459837066275, 0.008282332822405088, -0.012175134045307845, 0.008103430586241175, -0.011918195746239849, 0.010675290777599654, -0.0082963868623277, 0.014134386965036301, -0.017247864972703256, -0.015085958797106787, -0.003010514246916989, 0.014246389923466532, -0.0055418381592282065, 0.009118930776871415, 0.007338459148880541, -0.0019559966189599746, -0.004995915435460256, 0.0014560197528469673, 0.0045282981607639985, 0.0019433693743494582, -0.00475435242191104, 0.0015962965985290443, 0.01489235582083831, -0.009058786904146349, -0.00397577637551767, 0.009660544510489349, 0.0002696575026097157, 0.0009860273111478557, 0.021914662042568565, 0.008553471510901084, -0.0077640551857705645, 0.00013633363115219665, -0.006860413209719204, 0.000406404796798731, 0.005626018149170527, 0.002961094919130057, -0.009376667336895019, -0.012224418548630591, 0.011082342029327022, -0.018210672156434394, 0.00035868615726732757, 0.0016012853517138517, 0.012938078455884294, 0.0030402485845726626, 0.010205806396655071, -0.0016551439038301015, -0.000916410610989672, -0.003139993121602549, 0.006364638375133738, 0.006680452911472673, 0.02923558241611318, 0.010942404145008074], [0.010704356957830197, 0.010302431267329474, -0.006354961586255795, 0.004514286859783597, -0.018749023131470643, 0.008653482631731742, -0.0006086436808554383, 0.02213348830329593, 0.008389163205868471, 0.015973292498560183, -0.009061200001796837, 0.0006606539522617627, -0.01351743100692112, -0.014485231312255407, 0.0032142290631624634, 0.00903187985065212, 0.014512885794056697, 0.013541255772730876, 0.016902383428894177, 0.0034962990561659903, 0.015515511510707947, 0.006047317519977354, -0.005676621391483545, -0.015302206173064192, -0.011762114034569395, 0.007989441570016723, -0.0073730359673784005, 0.0025603545720147597, 0.0031413086242444853, 0.027629799745472416, 0.0037042452404500927, 0.02548794516930216, -0.0017335032849552943, -0.008455450855731968, -0.003728662621325381, -0.01838826275788467, -0.010952398490344085, -0.0032987239320849487, 0.010743610704352346, -0.00955533540228393, -0.008242341551121036, -0.0003891381003141823, 0.009013583515771608, 0.0006612921739581314, -0.009174293699049749, -0.001989218710457912, -0.014000554531941678, 0.021503556032097124, 0.004102174902805793, 0.0037576586572452193, -0.001498290691140633, -0.0074080061727484735, -0.008127563755452578, 5.507029071382563e-05, 0.01230349933432345, 0.013223230552700088, 0.021039498402223397, -0.014232560694703196, 0.004562050528534005, 0.001434050651589322, -0.005604983359565511, 0.004927008228155568, -0.0009040201608033438, 0.0015948887793168273, -0.00646840374888992, -0.002286486067714464, 0.004814880830490648, 0.01443231460424296, -0.016705412495666594, 0.014704207545420933, -0.0011882314902082448, -0.004214840462094861, 0.0006531377681277455, 0.00369060842324452, -0.016677919071916944, -0.007537366639049945, -0.0026799835269177086, -0.004257083238646099, -0.020184752259902187, -0.005256912572097517, 0.014999776773496027, 0.004241825777086148, -0.01506191186672865, 0.007530443429055426, -0.007764438086147401, 0.005709675089588164, -0.0024590924317080963, 0.00717397883569947, -0.014014389510464432, 0.010294928377694855, -0.01428974794789142, -0.005200941383549045, -0.0035452153749661974, -0.005064281162365362, 0.00836112781296212, -0.026799206629262037, -0.015930471903886766, -0.0071305557819884855, 0.010375017710715, -3.982936418028285e-05, -0.010288011685690114, 0.0194055895306532, 0.002451573955878092, 0.0009879707655817208, -0.0008189495674623347, -0.0012562955028035977, 0.0011983755759250498, -0.010970498721885059, 0.02264663159683116, 0.02950874295183191, -0.0035398224204158924, -0.008399186486808844, -0.007783665658494166, -0.008037953655934592, -0.009122514593818996, 0.009221558986134516, -0.012543480844786467, -0.010510346423917238, -0.006388269200165502, -0.0046189028211469415, 0.004129454135762, 0.0066044820201346935, -0.008574523944279265, -0.0075616817248734145, -0.004733789432673278, -0.000941105731345493, -0.008885854709910705, -0.003029038215949874], [0.0037522450784184076, -0.01010535618321746, 0.007933726495274084, 0.01446987147032599, -0.00047731730476176535, -0.005757111249671832, 0.0024583672277879824, -0.011862637856085581, -0.01695258770422639, 0.016543638017495393, -0.006544907814078094, 0.005373823261759209, -0.004243476484116161, 0.0008586363808379474, -0.01112628305471984, -0.0017773982386475287, -0.00537600902864428, 0.0036831682813500415, 0.01617453621302991, 6.531187234418685e-05, 0.0087467164960468, 0.0007471866269570643, -0.011143425231310691, 0.007176762953461563, -0.0065503783228068255, -0.00020712464601477763, 0.005241432309851358, -0.003915263756610534, 0.013755779062477932, -0.000996208095296121, -0.0028299222413210824, -0.01974232073460224, -0.0030958102006875634, 0.012553133000890254, 0.001401971124590053, -0.0024565944048075454, -0.0038325595230054065, 0.006138716801789188, 0.027380902607923627, -0.00028982187024791854, -0.011077189905145935, 0.0067242836928286635, 0.005978246380390486, -0.006091976069385719, 0.004171223443039819, 0.0025398333153151295, -0.017479771907175482, 0.0021599053394019694, -0.017680345357172226, 0.025493340039169414, 0.004319255952199702, 0.019787898586005832, 0.013783752171580097, 0.005301524422533653, -0.00039339466953399984, 0.0037756613131578382, -0.010167671212334197, -0.009622581529910315, 0.00480496854433607, -0.00908115892128604, 0.01787965153387223, -0.000873257419070514, 0.0008494321361415773, -0.005593977971928858, 0.005343268790624185, -0.004637197501545974, 0.009039544198381799, 0.017082045135715637, 0.0003790091175182655, 0.01209919649544893, -0.001268663280861486, -0.0012970670627447491, 0.008661009574355274, -0.006937973902504525, 0.019437634647431406, 0.0036551598238725906, -0.007397774488950863, 0.003297215138365781, -0.0015143932161260343, -0.002359855096145876, -0.0027110900521594545, -0.016778654666753757, -0.010941835470262957, -0.004397794100193057, 0.003167990994269926, 0.005013379901365682, 0.005248400113367651, -0.006819650010354509, 0.005356249624933714, 0.015403567016262014, -0.007121148814245701, 0.003679886084241426, 0.019825067899741748, 0.012563770169780962, 0.011639421700578214, 0.010780653509612886, -0.004599531094435671, 0.001590277774620284, -0.00249778291198193, -0.008513096317639612, 0.00727430168568928, 0.011833229282385794, -0.0001314114249664059, 0.009648948736201585, 0.002145174138469553, -0.020258883625332583, -0.022227074957817398, -0.0019750104188609105, -0.006553975765103779, 0.01632367692576818, 0.00036646857118723965, 0.005853421341309283, 0.011865119068173374, 0.0008806513908716634, -0.001061011186011732, 0.005098237007136292, 0.010411885677462105, -0.0005279659680583971, 0.0013732185809128199, 0.0034542135507936622, -0.0016261593710148639, 0.0023357896596770764, -0.0030958948933712815, -0.014042897246676216, -0.0045470323253204974, -0.00022067826480359792, -0.0021695753410816187, 0.008740217635979321], [0.006996415978933315, -0.0010658559551080017, 0.002518515296645727, 0.006118171259483368, -0.015587332605858073, -0.004794943237465632, 0.01749724979746079, 0.001725612669276751, -0.0039521322166091765, -0.01756280089316394, 0.015216256336670507, 0.008753725178925139, 0.00013947835918160732, -0.00041869194551885094, 0.006446166815811504, -0.009524767515627797, -0.003062601470881698, 0.014509158119489433, 0.019887921636537537, -0.003114043726349697, 0.004768175678974837, 0.019729259751679697, 0.00022215535598998793, 0.004248377247649071, -5.8035470159820855e-05, -0.0031683923916409878, 0.0023477948125230808, 0.006324849077004902, -0.0038070057422002214, -0.007680569720069576, -0.003742394079893819, 0.003917618521563601, 0.0029284611799288065, -0.01021555995613922, -0.018277369606007395, -0.001858872879177598, 0.006476051974035535, -0.01038547643943248, 0.029573129868016506, 0.0027342182335823697, -0.009223783262642544, 0.002152527005527171, 0.002531809816592557, -0.005860143027835023, 0.017009236831139116, -0.0036726816730817445, -0.013906648987985826, -0.0011258932450668236, -0.02008539258092518, -0.0071070689393094525, -0.004024430317767625, -0.015592709759813117, 0.008951468496288367, 0.020466614935724627, -0.00578955756230829, 0.001194467283602899, -0.004059904717524236, 0.015246632589212586, -0.011649843561048694, -0.015800235171803657, -0.017390144907512627, -0.01939012579832701, 0.008494337283000326, 0.0010066059097916114, 0.0011610054055321674, -0.017471427524949974, 0.005059343033255343, 0.008780642875054144, 0.005011409600712659, -0.005485766817305342, -0.006229476988984357, 0.02002990657421527, 0.011726128941314957, 0.007208875188231989, -0.0042896332595588026, 0.008797880114902124, -0.02311708137632259, 0.008438345196809282, -0.016881481625130132, -0.015322515955159115, -0.002300396702214046, -0.005914812679400166, 0.004441845559185424, 0.016615558195143366, 0.007074266095602037, -0.002573955993596162, -0.010924545717284429, 0.005580812914832084, 0.01882718282140523, 0.016357059266443624, 0.002434104541786067, -0.00587672221413236, 0.003866631704254097, 0.01554651617869567, 0.0057947615233552045, -0.016786062533409866, -0.002003479907400192, 0.003877482580515005, 0.008442987289139992, 0.018285541670816963, 0.008235520425019174, 0.015006413685553461, -0.0003332225214442975, 0.00935044088326286, -0.004725131705699495, -0.0018479432179678897, 0.005883226103601411, 0.00396777848369214, 0.006939308169341404, -0.02098735427618024, -0.019175523873326536, 0.006581158008097815, -0.005119156835967934, -0.010240628129725456, 0.001624519912506354, 0.001920121912788723, -0.01628514962370908, 0.0009866656219506772, 0.015848188393601522, -0.012174440387275396, 0.00023809617334498496, -0.00488582317605962, 0.01591620461053901, 0.022432135872566126, 0.001355434676226466, -0.023771390116787524, -0.006007400213974088, 0.0048119936960034975], [0.008153890495160998, -0.002049361264257018, -0.004061064600859121, -0.009788508197385571, -0.009686539020379355, 0.009224095459838157, -0.005794866681303973, -0.0030713915706185244, -0.007697273887012518, -0.009572839286272878, 0.007654745972305983, 0.0019622899394320537, -0.001511708724396911, 0.010608990434555703, -0.004854169018072759, 0.015244841445669453, -0.01366924456253417, -0.012822004594357067, -0.0016979530902578456, 0.006600750471958372, -0.013544497822613109, 0.005148325590771408, -0.018019137549653574, 0.00016586203221345545, -0.0006940483711990062, 0.005922133141102724, -0.01708278827452914, -0.00639035296003771, 0.008576338328781671, 0.012184010889897305, -0.0011536558805295947, -0.001743267999998792, 0.0011112488740677383, -0.006993102019801032, -0.004233392273877685, -0.0020222565299086673, -0.014078867824564698, 0.012912305345299425, 0.00251891143760184, 0.008284369447352984, -0.002090191126606892, 0.004922094440943629, 0.010359016702900526, -0.0017520709454055755, -0.013773153974769328, -0.007271158586397465, 0.01960963825700814, 0.003924131680307485, 0.00548648211031911, -0.020239427399805176, -0.0011409684953773054, -0.003909358392623902, 0.024089102304813412, -0.0056093185068564685, 0.006570911244879692, -0.0011924611394174705, -0.005302312958202673, 0.005000134242858101, -0.0042355891964495785, 0.014834590393153277, 0.006583721686277183, -0.015636038448067328, -0.024901671384967204, -0.013744203797021333, -0.014809625222222702, -0.013326417670929725, -0.009498307325274805, 0.0005360824257226044, -0.02197502913022309, -0.006384335513479222, -0.0014135609489152657, -0.007434340427604328, 0.0038998250012366492, -0.003191890589786549, 0.008370711859018738, 0.004718578733535268, 0.005140050324542913, 0.008565292504655942, 0.014826269909483917, 0.019036309680646863, -0.013787922326110345, 0.008407289374100962, -0.004909615846646505, -0.02008713841885681, -0.0020566138616869476, -0.017810342505164445, 0.009329862283814317, 0.003743432958045265, -0.019368597702877525, -0.00027438749791942446, 0.005340634031834565, -0.005188461206202445, 0.0012400210506824409, -0.007909955007867625, 0.00441438184935131, 0.009883599130553202, -0.00666357127292887, -0.0137244397837056, 0.004899388999958115, -0.0067756521144870146, 0.005869582268754455, 0.004317300444071004, -0.008799964444755096, 0.007051440575929196, 0.0025861184642926634, -0.009917516735091439, 0.0007483412166916226, 0.005690401915728345, -0.004259584817281612, -0.004306915284886967, 0.007708078831786942, 0.015708488936059237, -0.003747624298531687, 0.004786459576242268, 0.01180027911044349, -0.001850077699997952, 0.012357527936991746, -0.00982873341662766, 0.0117386561241231, 0.007875012025564506, 0.010780289924669825, 0.00668259674741072, -0.0005881645229430043, 0.0004720835908460932, 0.0016468933553391782, -0.013472144982539203, 0.02249073013189692, 0.013498310815933327], [0.0110370277695561, -0.006174994850734166, -0.009772540291986407, 0.006805210271462997, -0.010251206113635785, 0.020363137854419233, 0.0009948286761121811, -0.0004111494718457912, -0.007528453097706932, 0.01223354643672584, -0.006354540615057289, -0.010811300154239934, -0.0037316197296647993, -0.01199076172367014, -0.010943550768115807, 0.003792395775006023, 0.001277166060557008, -0.0032328476674765108, 0.021769422590515265, -0.005966056377151671, 0.001640304042624026, 0.008292719287097383, 0.000385391367379623, 0.0033213406848957867, -0.010699132589468833, 0.014979230019217547, 0.006060473175701992, -0.014731277182536815, 0.010978033125074642, -0.010480706269847801, -0.0015299793706852764, 0.0039357265402452605, 0.008565962842786594, 0.0013756922197613439, 0.006465632423484721, 0.01358948147315643, 0.004296191223873915, -0.011008914713091462, 0.007776361628485496, -0.0019833544157792453, -0.0028467247594289643, -0.005275785834437608, -0.0006846113269075363, -0.0017711353859688093, 0.0021205014779268425, -0.004090331596882032, -0.012053453144689384, 0.0031408429957765736, -8.114844726312632e-05, -0.006765402160848512, 0.011907651068128163, -0.013159193727359658, 0.0012034164277845356, -0.010588054336109135, -0.010128293264485264, -0.0012590313093331293, 0.0016022681274964726, 0.0017420080488134515, 0.0015014931075360333, -0.014988158439567686, -0.009637032329592508, -0.012262853047383518, 0.00558881458984791, -0.0038640698133035373, 0.012221209568356643, 0.01659114572572253, 0.001188028102805872, 0.0069933530081759225, -0.005263128588134014, 0.011358636063090144, 0.008699983965496084, -0.010943649239413503, -0.012174047398402544, 0.016175295513016292, -0.0027210420371560407, -0.0012237698654524248, -0.003279614696556905, 0.008176855615501064, -0.012087449290597763, 0.011128891988870635, 0.004797585768504843, -0.0024144243558229072, -0.008380408846670144, 0.006056430537060182, -0.0019840944517806316, -0.013127767574654272, 0.005179684962626981, -0.0025855543375335995, 0.012199409591142468, -0.001288020380535798, -0.002685516792801238, 0.0022845183926739525, -0.011042001006190462, 0.011390886409742175, -0.007864731376785948, -0.004686821752969517, 0.00397851486194797, -0.005030621429472236, 0.0162783288427641, 0.01079528322149597, 0.010306122510550941, -0.017942705829074167, -0.015790733081698895, -0.01086230743953828, -0.001013710687628486, -0.0014128431242839761, 0.004824337851231067, -0.010241388067028385, 0.0021113933265290304, 0.016852743361852912, -0.007656888072954986, -0.005545602816493232, -0.018686466191096218, 0.017185628208577323, 0.006839716980450711, -0.013160253019248603, 0.016632799613932096, -0.010139833758977632, 0.010294902539617441, 0.010163749712115136, 0.017659979054971547, 0.0002141642269585202, -0.010119484278458244, -0.00891088141818126, 0.022299874668811955, 0.0165064594840815, 0.0004091711607577854, 0.015114926541703804], [0.01454827965752789, 0.0037463281932062164, 0.01760587264575272, -0.00937361585697149, -0.0003007846924570297, -0.00855430556044236, -0.02010672204973592, -0.00878278055950809, -0.00830086341702723, 0.014144601662052829, -0.009134038935676018, -0.004876446943310058, -0.00031660687015734395, 0.0026818960581257057, 0.019764737542723017, -0.01956452489223662, -0.02218032383846258, 0.0017511800959743933, 0.0009181599313480411, -0.006381916741874464, -0.0020589227337138465, -0.004568121863419809, -0.003771609636889292, 0.01618153699259461, 0.0015462475368501385, -0.011502943191679927, -0.01338975708621371, 0.007118702540628781, 0.007252498425002044, 0.012392441501843524, -0.011788324260057728, -0.00016035934980931384, -0.0003661986788889486, 0.0029523403567067604, -0.00035294915309012654, 0.0037960220184708898, 0.00533104485047194, -0.017922449072027197, -0.002283223334720809, -0.004254185040385076, 0.00686055032516935, 0.0027151729696561727, 0.0070807176764098095, 0.006445964636841232, 0.005357022669144406, 0.0019364481180430217, -0.014306010893983503, -0.012011449319660264, 0.004116795584476415, 0.01636180582909188, -0.0152707050156497, -0.006179547848631006, 0.007201248947954535, -0.007432370069727849, -0.0008481342523505707, -0.006456472839220379, 0.0040572073461616134, 0.014525459960292024, 0.004086853953992921, -2.812886182200483e-05, 0.0140075144549748, -0.002360414208278839, 0.009095406586460767, 0.0015024387845524038, 0.006813851006311525, -0.0027944173050352926, 0.014594832308134196, -0.013602032595112184, 0.0011920414741682145, 0.00807356775107258, 0.0064815642216719494, -0.005223025263811093, 0.016380548246346067, -0.004683856076251426, -0.00805823098023487, 0.0012884058133149452, 0.001935399281321012, -0.0014011257262536293, 0.014887431043639376, -0.002396192248690762, -0.017399501970661414, -0.017527304372246654, -0.0025235564635937087, 0.005690441441876576, 0.009286775244994716, 0.00811734486017011, -0.002526913752809032, 0.005127770566213929, -0.010950326578800773, 0.013279298978996578, 0.0002960014516824194, 0.0028297368865140126, 0.0032529911146663556, -0.01417464066029113, -0.0061705106268744245, 0.006643966226157254, 0.003992845801542865, -0.011557151102205641, -0.004683164755940021, 0.008093822090870298, 0.01862730107841568, 0.02516302056145026, 0.0039650517049122464, 0.008939761349074343, -0.008414511995239052, -0.008344568713384501, -0.01648295800683681, 0.0003848198419168973, 0.0019908188601762394, 0.009563265819107873, 9.819540009502038e-05, -0.02373676829755703, 0.008134993382663694, -0.0032957191420016413, -0.0003855345021388118, -0.013068482980439522, -0.0031195516653945887, 0.009149655976473263, -0.002749823924828359, -0.009058275893583377, -0.008206751431237237, -0.010219850529878158, 0.005821657667087214, -0.02657267967958551, -0.0012423972860652539, -0.0038058987218259972, 0.0006938488168720815, -0.00160141560283362], [0.006263622301845797, 0.00981057416511473, -0.0002950171760014244, -0.004646931955712816, 0.00018711237108725372, 0.005265765856612311, 0.0012926901959386583, -0.007490843861336886, 0.00422424924505228, -0.020446920582798334, -0.0096286184732217, -0.004909703250181679, 0.0018426397746070398, 0.009554114165383262, 0.022192012255520064, -0.004870077396266065, 0.0008902460261933038, -0.0029370898308787646, -0.00620646728767216, -0.002628383748641318, -0.0292621941517311, 0.01562608113333851, -0.009977966979684429, -0.009654591781742317, -0.010358343410882652, -0.0225730877691205, -0.012594388732096964, -0.0077759612301904766, 0.014138379641852463, -0.0061101594033316975, -0.004655882089141566, -0.002933383429750435, 0.005257301326085954, -0.0006375561421984336, -0.010586571710655475, -0.010080247737465279, -0.006296372397376781, -0.0020131580426730735, -0.006053378369540448, -0.005945676988831276, -0.006082926081012102, -0.006886715124088409, 0.002766758599504874, 0.00739792898427924, -0.007871079817908421, -0.002630036161797875, 0.0012272736450561505, -0.0020263897909239643, -0.010119068125074935, 0.014508255201017782, 0.013910076253889405, 0.007104717567890811, -0.006893146822599152, -0.01435279423407601, -0.0013900061649065709, 0.011309694121857687, 0.00907233783179511, -0.0048467813926165535, 0.006983052103312271, -0.004894238492659529, 0.004891860372660357, 0.006670948104501183, 0.005734324215989177, -0.012359170197092255, -0.012204140971103877, -0.008457649737811896, -0.007001878657169283, -0.0062085083327875525, -0.003181429892679455, -0.012898223323588157, -0.016525900354010664, -0.007252941294505832, -0.0023622928927449546, -0.007993711168285343, 0.0060464539892023375, 0.0007110575550585582, -0.01224446252131053, -0.0007157026041488884, -0.02024073006299028, 0.007753400837673441, 0.00993313869880162, -0.0008116991284664579, -0.012595438634102592, -0.03396980395806653, 0.011210137878342909, 0.008150523378613004, -0.004690899810384167, -0.009407086866642506, -0.005302153374430328, -0.00397022662012871, 0.011638585701465533, 0.01412832334143062, 0.006426277672845301, -0.0028649982341982455, 0.008264730803846732, 0.0033622973486003883, 0.001824157823944028, 0.0006131167121086984, 0.0008171921574362541, -0.002246124428743061, -0.003530302979122904, 0.0010774334626238548, 0.0216754326335414, -0.020114670335219513, -0.0016038890107993985, 0.010566220122468795, 0.005743890126593039, 0.017051865319988396, -0.002780447113638739, -0.004347889445133611, 0.001620212232230937, -0.000963324463956055, 0.013936294623403995, -0.010077143675411888, 0.008412444455191282, -0.0037133110135577395, 0.006166180483027261, -0.011883094845050693, 0.004327582860284184, 0.00889550010382436, -0.0008184003633451313, -0.008492562777658362, -0.0028332406783553553, -0.0011670208816838468, -0.009533803503310921, 0.006841857530345186, -0.003413225431471213, -0.003372400057431408], [-0.005214488922004082, -0.004481646205907819, 0.00010633388859996505, 0.00697383313191495, -0.0038188019178181905, 0.0011336497032518789, -0.0039049042588474203, 0.02207991419059586, 0.004033191266548981, 0.013257133768688853, -0.008835106149153466, -0.007371737043265393, 0.0020353236246026395, 0.00719035108105917, 0.012956342320509816, 0.002230711463706068, -0.0006733305975229921, -0.030683725789395412, 0.004634775586774694, 0.009937580081081062, -0.01128487514974764, 0.011062489048675852, -0.0056119876001991574, 0.00028366601914324853, -0.00945393402026515, 0.0035905092273293762, 0.006059379820700534, -0.0036874416013008464, -0.0032201085278748963, 0.0034055954427145312, 0.0027196789786710445, -0.006367650863416542, -0.013308235427153503, -0.01354764863307487, -0.011689554401672431, -0.00896584344750904, 0.018521048536038746, 0.005461910828741312, 0.006578550798210283, 0.0031738203887210674, 0.005937155095113725, -0.008855702703199967, 0.006159807401417131, -0.00892420613588335, -0.002847979471126212, -0.007780785112926149, -0.010602077116379702, -0.01880820602144611, -0.0012249411856608784, 0.0021727346463468566, 0.005738917372125625, -0.004505972213890275, -0.004106681736912411, 0.004550755251508495, -0.00032071262867734116, 0.01653290820621962, 0.01613760292716783, -0.01752719514146833, 0.005416325815687247, 0.009328337991803727, -0.0033519172259279285, 0.008338693032458643, -0.012198740684008199, 0.008577965130814706, 0.012156618644157782, 0.010971274716619007, 0.005225956373121445, 0.003535685521851301, -0.005875515975337994, 0.008967516163403891, -0.006165531985226516, 0.002647245684098579, 0.002673933050135681, -0.004152646979633964, 0.007807072882036945, 0.009554512924883728, 0.010006493161418724, 0.009830038828774229, 0.004697585979852444, 0.008995481993001915, 0.01151707328415227, 0.000981475628885038, -0.0033144564474154366, 0.007380526579196739, -0.007468653244827486, -0.0072048957429488225, -0.0076980888420731496, -0.004854259916033432, -0.007718158269753293, 0.0018853182095831848, -0.00010216477074623712, -0.006814933320405148, -0.001376542457570777, 0.009967438341587543, -0.0013863257243401628, -0.00668034779555922, 0.0031428280903986155, 0.0029434232015703816, -0.0019249778842081212, -0.009351250426670898, 0.0007024996843402395, -0.003282959912089627, 0.0026116650829675204, -0.01784365049468106, -0.00023718360177188893, -0.0016525736091809596, -0.03298549500621567, -0.00019598659288354889, 0.00376262892803264, 0.004115809080886344, -0.004726207813029837, 0.017076698995057905, -0.0038672135095301425, 0.0021365206735971683, -0.014707219884159645, 0.009609095666281216, -0.007115849269716435, 0.014755144860209408, 0.017131735365469757, -0.012020707896738906, 0.0066569377652320695, 0.005113039730292539, 0.0025922234153042335, -0.006075271250302144, -0.0017781427717853142, 0.02354914450140474, -0.005607861827362496, 0.01882385249608573], [-0.011103683011994546, -0.006076183365865941, 0.025698707134939797, 0.01562205633190568, 0.005233283871698786, 0.0023112801375274853, -0.0007660880502542432, 0.0028863667692433986, 0.0015942638072573238, 0.0011773099784835553, -0.006655680263914955, -0.025155550288910238, -0.007528228037807686, -0.00807028339304299, -0.002913277226934489, -0.0018347911709424287, 0.004923387978587158, 0.027827996237445547, -0.01494596051149342, -0.0003324461274268294, -0.020023661004097266, 0.0015870289733880619, 0.000319512819603476, 0.0031218926983014143, -0.0069776421278603, 0.017409588800602324, -0.002072073666807781, -0.011773244263514402, -0.022635908674374185, -0.010796361280295886, -0.0035529067035872564, 0.007498363540696939, -0.0102949657284084, -0.005056866029105445, -0.007378217136389474, 0.004570998615897131, 0.003635047930320744, 0.03057910075551702, -0.0022345722225141276, -0.005757643033821602, 0.02059402825253697, 0.0014243298911075695, 0.011394148162968748, -0.011273339200868484, -0.011516334733346845, 0.005813581030532864, 0.007948341410229893, 0.011949184784357515, -0.00648851162735429, -0.009889933801576769, 0.00463943217828388, 0.009351526124869931, 0.007972436530279568, 0.0049421520615404195, 0.014472637385661838, -0.02002848502591442, 0.014783772300445286, -0.0061011758665648974, 0.01902875529202344, -0.009145937388917027, 0.009290354847430434, -0.012783625345090945, -0.005399752100691256, -0.0017119990676069438, 0.0014190072559349546, 0.010157844290242224, -0.014446202139332738, 0.005724193655388216, -0.003391488196393052, 0.0043750066039855845, 0.00659186832673213, -0.015168947775015285, -0.015905798586766023, -0.00239898306612281, -0.004233699843377125, -0.0062209239074847, -0.0073558381739586755, 0.009593065141952292, 0.004680793542522401, -0.006608024544664063, 0.0005248517867302449, 0.0020261643593940315, -0.009177217678501482, 0.0010346020089870142, 0.00832939701813954, -0.008184755322964178, -0.004669984305877938, 0.007675967424326495, -0.0019369690293781264, 0.0032280511466110345, 0.003705004951445455, -0.0005108105021884216, 0.03786922594302892, 0.015193134630260197, -0.014289403780700722, -0.004931461581086375, -0.0024257432151460817, -0.006940547994603483, 0.00744828193282196, -0.0034732741504069015, 0.004770957599631514, 0.004260115354532234, -0.007247849613925812, 0.005105078898612193, 0.020710741001510123, 0.0062357463771537495, -0.0019483834187139532, -0.004046651547715195, 0.002793631634196866, 0.001397777313751479, 0.006461109685634511, 0.004583389729310688, -0.021738812779246434, 0.0019648700735588422, -0.013040134207556049, -0.004589458134069815, 0.004187406289862881, 0.004542579909540571, 0.007136570128152438, -0.007520421629930616, 0.013764059364742079, 0.002928118324884246, 0.0010311558023949606, -0.0016220345109748547, -0.0004935356739266054, 0.0076991898589270046, 0.013215262998330417, 0.004981474191276989], [0.007109795668364062, -0.0016056782027322543, -0.013322468529251423, 0.0009997654167521897, 0.00987875559264048, -0.0005117230605835041, 0.008281436032937295, -0.006153724585849679, 0.0009068156019057773, -0.01472190253587676, -0.010621794951423132, 0.008320803726605966, -0.02518417990822055, -0.0060390837258972475, 0.009352138521799688, -0.0009605290419512061, 0.020537245776646736, 0.006586395226904973, 0.001379777048285932, 0.027495555995897276, 0.007046756422502102, 0.004722933548954335, 0.00703033142901064, -0.0010840725308638324, -0.019323001942329922, -0.010142120067709485, 0.0026244834089328103, 0.005495321511293499, -0.001521733081064538, -0.0061160468411617, 0.005172789415790701, 0.02429832965236821, -0.0051555905442652265, 0.005250002092003962, 0.012272314290420604, 0.007420930929585671, -0.0022828741692845146, 0.0018452317537916865, -0.0009986306203128511, 0.003263089396576487, -0.01094654309396964, -0.005126832366688638, -0.0005628367915029109, 0.013484362882398394, -0.016015128225883368, 0.0077247945821309165, -0.00025621527436184847, 0.004362618387615614, -0.009777491234774763, -0.013489702264823164, 0.0012414225103694959, -0.0043635504239236305, 0.010883592400589864, 0.019423594367106105, 0.01687134681304336, 0.0003329447623037502, 0.01830717513309369, -0.0018129104540343516, 0.01667695032312567, -0.006905412871747892, -0.004249428354279414, -0.0029148859666242935, -0.003976985404807745, -0.015492048972217103, -0.0016152981111855736, -0.01441512239349144, 0.017145598445952613, -0.009123375559020357, 0.0048039039265661485, -0.006031179276807343, 0.0016583094335214878, 0.0014218439062027616, 0.0115310591883737, -8.897770116072553e-05, 0.01127155377599407, -0.003884610807316822, 0.010169217900797792, -0.006253092547415424, 0.016286329518830477, 0.010070383554267575, -0.00592685459871672, 0.011391782141639698, -0.007730828007347211, -0.0015137362585927532, -0.028150786050294484, 0.011488321342344645, -0.0064753077650233515, -0.00967558842672405, -0.0014531167475473421, 0.00971510688857863, -0.002454454758237566, 0.00949505138017241, -0.011430620127387122, 0.006188957576018513, -0.011962871015949622, -0.0019066023881747444, 0.006337129303924566, 0.021413667989752007, -0.012720241415812515, 0.025573678704829076, -0.009246345317514839, -0.004601094956449625, -0.02529076483367682, -0.0011533513582552867, -0.003458786017903048, 0.019759429489412422, -0.0008830318099521617, 0.007598981274673886, -0.007292916905974355, 0.0007781463972234039, 0.014218785041876566, 0.007876584647361705, 0.007544967107154873, 0.010166701026785562, -0.005850966684267282, -0.006999634072687102, 0.002088511001219489, -0.0054454978187076925, -0.010404402276695724, 0.008115960062981405, 0.013690167115596069, 0.012523811368705373, 0.0034235261541011868, 0.005874927113971515, 0.002826337784381976, 0.0071179535753697325, 0.02116464917219302, 0.01749894234235747], [0.03550629129610082, 0.03050310412062968, 0.008353085975609917, -0.006877842490781796, 0.009409604954417021, -0.0039779522707286685, 0.01945363292385236, -0.006753928404480642, 0.01968047707408967, 0.015123346849920125, -0.0004326552414616757, -0.01804551859702626, -0.004553911469263845, 0.004748321971035887, 0.023020126945682718, 0.014068442846732013, 0.01584510041227959, 0.03609344896399952, -0.0063149417304565495, 0.0069310185116683905, -0.002532664375121406, 0.011314120316642138, -0.008685847767756556, 0.008333981440657452, -0.004553857746528566, 0.006541989656794188, 0.03156567551572005, -0.013187201447605861, -0.0019806033351961487, 0.00445289210521655, 0.017169357392659068, 0.004696090432140967, -0.002718260611202778, 0.0034871724628415895, -0.004850863195997766, -0.008448372240577625, -0.02844693001435445, -0.0225011260986636, -0.014404008013584536, 0.017782330619608787, -0.009320911093693278, 0.008538271183765805, -0.017051095836250075, 0.0035941026732980953, -0.014933699302635078, -0.026040155586052362, 0.01428523548736316, 0.009589098439901092, 0.0008140164245789192, -0.007994927203867432, 0.000704202579428495, 0.0039340679416752415, -0.006397939864374596, 0.014677224896386119, -0.0029209866405681562, 0.02579426794609303, 0.013613282965374522, 0.00032798218102397504, 0.03933662298948474, 0.017339229260794967, 0.004845239303294666, 0.013895599392997752, -0.011090583268191538, -0.007605290588433089, -0.007922818214369727, -0.00415602815058784, 0.044332958874206775, 0.013781111191813356, -0.014731933595604192, 0.004840102769488159, 0.028384294786286995, 0.018863710612356754, 0.01262664694635509, 0.010487451273852463, 0.010923642830201577, 0.0192508470973369, -0.01013404338371029, 0.004388696937167572, 0.0027700738788236615, 0.01679396337694755, -0.027645367617176463, -0.011279520159998623, 0.013937459286474014, 0.0072839352596072, -0.01988362707763707, -0.008648775650756294, -0.026758406346582463, -0.009198251374830551, 0.0061565348713277296, 0.02011385681740777, 0.03544979024812199, 0.029862601521950256, 0.017816010970078087, -0.0006370133371944494, -0.008452261457653543, 0.011133591114486223, 0.009524032712839007, -0.005518745437414178, 3.940239646214705e-05, 0.012348568223051238, -0.016970567267304858, 0.0031111207976118878, 0.024027596835537957, -0.014048413338204316, 0.010021292896395112, 0.0039371538569091084, 0.01235164122067895, -0.021220463400653675, -0.006373027081766528, 0.012258417224841885, 0.01653459097543789, 0.013680653612539583, -0.006419071118507381, -0.007441836009702786, -0.025364480617174428, -0.004383468706604801, 0.003254196227409309, -0.01068602383850886, -0.019488145421099307, -0.021895366935551174, -0.005109873092277317, -0.01916086252690894, -0.02027912632402918, -0.010633904140535624, -0.006510797773266039, -0.009147259409716344, 0.004603219531755833, -0.0011205768833716574], [0.17214442882932704, 0.11582626537075252, 0.16836141444836603, -0.0367258867026664, 0.051202402058569296, 0.012329608373454082, 0.15088890862493687, -0.06404712523563688, 0.21011530473705398, 0.04296302953291738, 0.08086732627819297, -0.20581920175180324, -0.18557816230455162, 0.08583646496191802, 0.1202884849502171, 0.14399532285567163, 0.17599969570605842, 0.1453172457441787, -0.15560885873600463, 0.1438494930482346, -0.15933352736477946, -0.12575304084647346, -0.07247372165405401, 0.14385955177045667, -0.1150462066309803, 0.010732929215666688, 0.10605667022267067, -0.02424477027852221, 0.11381538999661896, -0.044699298886487784, 0.0938092677016196, 0.0006607694332371073, -0.11916367902358113, -0.05706705718150704, 0.19047601923193275, -0.1495443074464083, -0.1719727022747169, -0.13380117958403376, -0.1040102820818672, 0.005664483366930792, -0.09895046425477176, 0.13107756250414526, -0.1552240506625831, -0.0053083882426623345, -0.1932643366778717, -0.1727969360139522, 0.10788906488749317, -0.016791402590979904, -0.04419962657613542, -0.15409764401552586, -0.10499132728741505, -0.08987904628651558, -0.001345653979004938, 0.1641885219653965, 0.016387715220551904, 0.10008055672354675, 0.197722611946546, -0.12789253416431728, 0.13926613431065177, 0.18849940710584237, 0.11334899841876732, 0.012936958126740998, -0.1366864169140289, -0.04751564295293501, -0.09474496972071426, -0.03364916959072681, 0.18288055596460515, 0.05203295728455422, -0.02328733566660712, 0.0803175192352457, 0.11279264612884567, 0.16360433714454312, 0.025339783503280113, 0.18320924273965178, 0.07174111453853917, 0.08127912804659375, -0.1756177923333647, 0.0889974556225918, 0.11245025469385993, 0.0899369467368742, -0.13542526727174972, -0.11856809945779749, 0.11110871622602504, 