{"layer_0": {"weights": [[0.017231246051349437, -0.011939304258650934, 0.010016458705532773, -0.009148693346787922, 0.0027856078164613376, -0.015617484566517206, -0.024897959439563397, -0.012591401466186834, -0.00250740834895672, -0.0014760105036875, 0.005087179499569624, -0.019971721077276256, -0.005443431328202333, -0.0010076239995803458, -0.003917197215824622, -0.01171501321421364, 0.0026780809726299677, 0.01599677948420563, -0.0029139025276455673, 0.009359364166565328, -0.010085798660886719, -0.009220984955760642, -0.009356681527662357, -0.008914199520343806, 0.007517255134689138, 0.0035940307797901585, -0.004770337245590839, 0.002987640058722473, -0.021058381753795118, -0.005913560182813938, 0.0013947304494974437, 0.0003291700435938581, 0.00623573048270501, -0.006336207419335001, 0.010090486814094609, 0.007459653351462517, -0.002918098928545199, 0.0008342871232045397, 4.716721330639461e-05, 0.014550645595693688, -0.0041875247252500985, 0.0002917483833814026, 0.0008102321924161052, -0.005709511429863081, -0.006731211981552408, 0.0017340007009498987, -0.007161646797484658, -0.004526221139205395, -0.001862362234510444, 0.003427947520027546, 0.004974714876106463, -0.005699489803197767, -0.011691617543750053, -0.014204715130314502, -0.003804237158885283, 0.009152823425303267, 0.009852470208985517, -0.0004926388391571435, 0.006771973783915376, 0.0071570707604196315, -0.0006402997239496332, 9.203026272238328e-05, 0.023821821300718967, -0.0006742721616077713, 0.005999146423911146, -0.005078116362491918, -0.011134494764265155, -0.0009983963177774098, 0.009936661563887058, -0.008476840043419502, 0.01193888271154979, 0.0007272815314257561, 0.0034976485372997996, -0.0013738270039587903, -0.013645387555488447, -0.012930969828399688, 0.008007785653850748, 0.012041135890783441, 0.008526127538577953, 0.0013295335851797436, -0.006690571899062933, -0.009744505660069229, 0.008734165459377875, 0.0061881859384515184, -0.005124850546803763, 0.0121420198888619, -0.00043659328530663724, -0.001250681660369038, 0.007330170405086157, 0.013152371854236095, -0.0002746570771618632, 0.0008029861025962737, -0.008472151752510156, 0.01294659583850297, -0.01348103581641123, -0.005046903598700969, 0.010520877390713066, 0.0037360227164303403, 0.001608478627828054, 0.003935485034132727, -0.014971255239410834, -0.006021026466876559, -0.004208814350118786, -0.0005357819703254295, -0.0024076020935406913, 0.0006161246571883611, 0.021871007263141284, -0.0037940108185480033, -0.011158030452365296, 0.006755138589427095, 0.005929705409783215, 0.0016999772897582583, -0.0037186607539527574, -0.012282604718441127, -0.016682240546891772, 0.0001593862593920492, -0.008854389188645838, -0.0016808807318453595, 0.008802004593807434, 0.0050325205677783655, 0.006699840315593017, 0.003835484038406587, 0.002723025588701998, -0.007341986455380883, -9.254097827406053e-05, 0.0021581760901604914, -0.007077878952369505, -0.014562835942946158], [-0.0007990044981066232, -0.001512021284767656, -0.005458720894622186, 0.0013331106711004005, 0.012617185814999576, 0.01999772000870962, 0.003145615810872811, 0.0009576771574317808, 0.006878983402294212, 0.0006642502762557495, -0.010779524222588655, -0.0027712988690605732, -0.001882978081153824, 0.0026545608455642994, 0.017633322226956186, 0.011196198673646962, 0.009770301015419121, -0.004973827497223016, 0.009021145301472576, -0.003954711121926614, 0.005642292956719716, 0.000665735600756954, -0.009671781078019918, 0.011304720728836133, -0.0027540094131453356, 0.020158964071267615, -0.007035316951717267, -0.00015593760296550693, -0.0026826393942785587, 0.0037880444395378887, 0.010589717632859317, -0.006527936845834033, 0.0034101645060962828, -0.005206308830981237, 0.01528627433086452, 0.002795012317728291, 0.00525655268791276, -0.0028202416097943732, 0.0036110173734328712, -0.0061904019387985796, -0.00021057853655453884, -0.007721194726087149, -0.00540158961293538, 0.013047142362705589, -0.002779160303537148, -0.0036900026469128436, -0.0007057534630218716, -0.0068690185065995715, 0.010228594168146574, 0.0017965099739975442, 0.012487929300503431, -0.012954359115557226, -0.006663942493550805, -0.008325429833768301, -0.005292512152358613, -0.001890951626995493, -0.009939007377192345, 0.003578033151974963, 0.009844102098029757, 0.008156655011825081, 0.007307086410864895, 0.000581172114884828, 0.005449543777153137, -0.0029386190769530303, 0.0018880210041478979, 0.015425399898726176, 0.01186302197861518, 0.005716617499572283, -0.009009881299142193, 0.023695292982585995, -0.0075077098398187835, -0.017578733708488045, -0.0063831342439362275, 0.006245322556037931, 0.011242184849824047, 0.009840263595243608, -0.0017447662522755948, -0.008134866886085078, 0.022704819057476983, -0.0009877555221369388, 0.011167003298287584, -0.009257451231130694, -0.018342795464169753, -0.005904502648206467, -0.010650077673084901, -0.0005743155222720941, 0.0060445746383580344, 0.011632830473662361, -0.014185131557879907, -0.003991669310023432, -0.014480456214827702, -0.0023458586265564987, -0.012222947113122778, 0.004617845944476409, -0.00826555311024798, 0.025345505615969866, -0.009911773289813448, -0.00951790193687061, -0.00710527379678968, -0.006765648266068958, 0.004701190012752681, 0.0030811842649091188, 0.011557459894571956, -0.004051536912979162, 0.007422941871367872, -0.010131031428126125, -0.016957820078857717, 0.007046405104429807, 0.021290408801624586, 0.005159645134643548, 0.004404754573535814, -0.006705956695873986, 0.010872957782908895, -0.018585690450677265, -0.007317357278953306, -0.014861079782780902, 0.010146120452064911, 0.018029185137571214, -0.006356175489528845, -0.01748417397305259, 0.013461016322725578, 0.006360099755255021, 0.017905358534212244, 0.0027790949976073363, -0.010341527947802546, 0.006288101186171813, 0.008630272989350552, -0.00557979082688246], [-0.01006303838591206, 0.00120818612013593, -0.01845068476389529, 0.007380760117331551, 0.016597612479667175, -0.009714331669516322, -0.001336789151043608, 0.008993683002546998, -0.016329725765242158, 0.005880037895679167, 0.011478405394636135, 0.007606388064396322, 0.007330469050344832, 0.0005912157630905321, 0.005993127361330987, -0.0064059092369903705, -0.010366668763822657, -0.005979011156626183, 0.009366536545982502, 0.023345075279572962, -0.010073204822652386, -0.011246382708094914, 0.012761671144995537, 0.0011709950025470418, -0.0042957259302148845, -0.007565582858686693, 0.0059652675938955116, 0.0013245491559188487, 0.0033584416398830365, -0.0009699945891610188, -0.0019110551574193964, -0.004383675142351467, -0.0038848463691791113, -0.008599161324612496, 0.015644230879976077, -0.00236335858692579, 0.004353524115223063, -0.013452590485910463, -0.001616688772210345, -0.006801014799369298, -0.014424163276956406, -0.01192413059146586, 0.007027999500644554, -0.0019344535036215312, -0.01616853526625769, 0.0030483140911235496, 0.002568789472398682, -0.0037836178371967234, 0.013320722237654781, 0.0010538347222227198, -0.012645453604603956, -0.0018542067179117023, -0.002012658999256993, 0.005839066359442562, 0.020626464918170825, 0.001693873481885412, 0.0004261143028876109, 0.002090783853416594, 4.95315815565185e-05, 0.00634445235557997, 0.003628138781038428, 0.010822620834614317, 0.011683032531434233, -0.005601127620140779, 0.0190130800697807, 0.0011744907921273629, -0.006194252307557241, -0.002182560321075527, -0.0015288744209530766, 0.01604236080567985, 0.0031682720954793265, 0.0006402016032874604, -0.002367977377862556, -0.013035467177018104, 0.010940334672033742, -0.008072317550240609, -0.0012021265463594791, -0.0008077549000263468, 0.003391359133659535, 0.00581120482932607, -0.0007516385209976116, 0.0030153492920536973, 0.007196609648441883, -0.0006647502708307215, -0.008071844031372531, 0.007210172922942467, 0.017026708703205107, -0.0005008864230346743, -0.003252373540971958, 0.022146960360668808, 0.005278705647452912, -0.017545455590321828, -0.0016654876621783625, 0.009563112229216365, 0.005685743451766524, -0.009170336834183291, -0.019122694869979213, 0.008146566620096647, 0.0036214349490987993, 0.0002446957465874528, 0.010882717582982133, -0.007957179180241329, -0.002577265813090072, -0.023503677468981916, 0.0055804903872317445, -0.01929671073998292, 0.004581197760698972, 0.007061271192556231, -0.0044170236603528045, -0.0035486209972810713, 0.005194360362026315, 0.0054003163918878725, 0.010629239489365285, -0.0036675048866549598, -0.009565669119780879, 0.0010343123122901793, -0.010525725400965483, 0.0003723288134614162, 0.02290888786604344, -0.00546312483176657, -0.008251779374858563, 0.0014007383811032409, -0.01759097795386364, -0.0011884410336607735, 0.006724644454614792, 0.008226590148959238, 0.00859109366115339, -0.001331782851581767], [-0.0020890337955811575, 0.0071022683459636814, 0.004735169269532154, 0.004564163092069415, 0.012984694068123373, 0.0036203498656790234, -0.00629218966337344, 0.007778918720131985, 0.01441600824291045, 0.005174832853100057, -0.013989598673166506, -0.004502971547669764, 0.004640524297270079, 0.001723356000914934, 0.010171497026382743, 0.014586776959101004, 0.004935208963760982, -0.009934610193436777, -0.0020475446249599368, 0.008277162427404585, 0.011512709679129183, 0.009811914002596905, 0.004478034516533354, 0.0007940469475293829, -0.021612748803707473, 0.0028035418404379524, -0.009137681902555414, -0.0052301900248638445, 0.010049109083363837, 0.014134170275289728, -0.003384702183564002, 0.002371762463844123, 0.0073626501458544345, 0.01014510239849479, -0.00953979111769199, -0.0016399489738280761, -0.0022825015330375244, 0.015958972930160967, 0.00022516667853179597, 0.007870807210210426, 0.0021531739713910973, 0.021240770910888912, -0.009771745848519127, -0.007938755538908781, 0.007088228872521439, -0.0023559144952160684, 0.0013528867138997435, -0.0015028762890887484, -0.009002099531090275, -0.001826230717049969, -0.005814111135373938, 0.003866528046989349, -0.004464352866511327, 0.010295124134708405, 0.0007428315647396704, -0.011034275199686083, -0.00020151922149292894, -0.006438900130213472, 0.010705023199748356, 0.010106351360971263, 0.004797434205373123, 0.010215347272440294, -0.002780177876286002, 0.017109072797612306, -0.00937063657033963, 0.0017142196720327206, -0.00015894754277209395, 0.005191242848414584, 0.005789658508403905, -0.018381692493370853, 0.0010267792352883225, -0.005695493088407805, -0.005033695568967917, -0.003408615791960404, -0.006396428421590368, 0.0008295859322064486, -0.0038034615135998, 0.02146101023182364, -0.018706163433248938, 0.001997091712411042, -0.0011943677700035503, -0.001259122754464584, 0.006512232225374159, -0.0016111418936398747, -0.006384949738809343, -0.01009864777282251, -0.002351346852892462, -0.004580181681440616, 0.008581005492874934, -0.005233874493373924, 0.01809497287498473, 0.01994312533288307, -0.0010656448354358114, -0.005014853796251008, 0.008782743370505964, 0.012813395607080303, 0.021687056121841512, 0.0033126495998296807, 0.001786883906224311, 0.01188149842311543, 0.006991662384723922, -0.027884932626857352, 0.00987324871904002, -0.008940338227971514, 0.008805820332048695, 0.0009755295480409805, 0.0013285009116747342, -0.011417338590793122, 0.0032665716742473197, -0.004658707653668324, -0.004845875951617102, -0.004349347126767245, 0.017315043244325232, 0.0005306740213467551, -0.01446453172203831, -0.0011803580229573876, 0.00304840019841578, 0.003940100603963142, -0.0037728696453748394, 0.008211519652571933, 0.005823678430912975, 0.002771935269795938, 0.01128799394733048, -0.0038033193494332322, -0.0007335179904734236, 0.0034785068691131488, -0.008194952798994381, -0.0003599897677364637], [-0.00875090926200645, -0.007217677840483714, -0.00586895500099056, 0.014336698941820679, -0.016091509446955726, 0.004848252351684707, 0.008671788486277756, 0.0004524118913980187, 0.013984584108213275, 0.007217001493487688, 0.008967429844984292, -0.002439983401958874, 0.01500646415128953, 0.00014859007986526976, 0.002236613947977847, 0.015444395662480742, -0.020505891494184338, -0.0014536897171878954, -0.012180498170873341, 0.00625355253082555, -0.00976184468977281, -0.01261434428211821, -0.007167130357939533, -0.010283459166221072, 0.008679837406560083, 0.007628709949155052, -0.004355535006792066, 0.00510652589337109, -0.0038668293282767383, -0.00024442694670529766, -0.00237450093065843, -0.004492364225593046, 0.005704983079978734, -0.01201902753890726, 0.004908496331412039, -0.014640088807762, -0.005481836699545826, 2.995280729330433e-05, 0.0012857496962365503, 0.0060637876617607766, 0.007731712301279501, -0.020949274005358502, -0.005183099638891954, 0.012825313495710209, -0.004984946776208093, -0.007388432892086366, 0.006277883454892698, 0.00107348723860534, -0.015090919924890159, -6.924015195894106e-05, -0.0015367495969520841, 0.003029280090932717, -0.010736361404318382, 0.0009539456976532903, 0.00304741580269195, -0.001636667602809849, -0.0069289761322231455, 0.002457553741150316, -0.003015839798934742, -0.0002973472365521095, -0.013285848976329616, -0.0015885042095244233, 0.00910308911877001, -0.0019430987740787018, -0.02005467147700681, -0.01130923964789157, 0.00076432151082872, 0.015621955247437336, 0.004792132346275816, 0.0022267675675125597, -0.02750692990147376, 0.0039521191989067405, 0.003995221463616467, -0.009333255718040221, 0.0014569659167059813, -0.012027054501746622, -0.008272697490171638, -0.004320867797917406, 0.0004133498306179792, -0.012337904673947735, -0.0015698853812943494, -0.014850051889088875, 0.01096265240318789, -0.00318297804248737, 0.005622702999061975, 0.0019213151605322215, 0.0010991694676936374, 0.004590610577036057, 0.003824651037394724, -0.005716313203753949, -0.015259662886682861, -0.005131875775898267, 0.0006458422061089932, -0.014195917545081772, 0.016740446282695175, 0.0009906802835556456, 0.0007501403047282101, -0.00199302485030796, 0.0008946183467072712, 0.0023538212984616116, 0.0110077674760841, -0.012082031403378758, 0.012208320939918388, -0.01042572709218654, 0.004112631304959867, -0.010467733361384316, -0.01031037822098952, -0.02172100922173156, -0.0003629514015550404, 0.00453665663965563, 0.014652147376474405, -0.010384319350009169, -0.008246784431888166, -0.012275363769454466, -0.0015507467906691655, -0.010607293094447212, -0.003145988670498763, 0.004269509055436836, -0.013953185082651259, -0.007489845382457924, -0.0014077103332855326, 0.015726084429207723, 0.012143252996418654, 0.0006854681583986662, -0.0069550550842040065, -0.00926580829811728, 0.00436027777398153, 0.011957015892894109], [-0.0028607692464193537, -0.0020208531806814936, -0.013751134643527313, 0.000791120177762711, -0.009568984098828951, -0.014847274334731146, 0.0022038823471531577, -0.0010160398763860603, 0.02368698407672247, 0.0026186569234303314, 0.0040938107297247405, -0.0016030664136493678, -0.005735347050357089, -0.0025935789631861294, -0.009999665537731782, -0.007818779655014731, 0.017846221376812788, 0.014486165750974925, -0.01069645567239895, -0.0007025334273571332, -0.006738367341594977, -0.005264501674904969, -0.004713600023293495, -0.005056354677994674, 0.012738128148234074, 0.00019222175016571233, -0.003484539199344978, -0.009891149044081605, -0.006963766925656486, 0.003067184707725923, -0.009696430874101101, -0.005764038260566279, 0.004659548205134354, -0.00865493012505339, -0.011735075113962712, 0.010828790921886664, 0.009395865441200905, 0.010096513340602502, -0.02136686848867987, -0.005674783355490605, 0.005064191451784966, 0.006198987053084534, -0.011064029425330446, -0.005917795152583305, 0.00392859891906395, 0.00018689322984787987, 0.006770254990313982, -0.012200605034129253, 0.017973790988471194, -0.0035488414909834805, 0.009125349183171769, -0.0018440110635051935, -0.014573393513509399, 0.0006064932802202088, 0.00014887939788688756, 0.008472000134702173, 0.0017920533696692633, -0.01699091715033023, -0.017799054481667017, -0.016618155156972802, 0.011974868914124494, -0.0019559547994221827, 0.007876035634927888, 0.015682397230094517, 0.022010604216535806, -0.015324033088756054, 0.016012928797583148, -0.005347747244972756, 0.0037372281098182426, -0.008423873537185067, 0.00043969176507380116, -0.00012279158787877016, -0.0032568482444041225, -0.004533661893687885, 0.02329843329600648, -0.011360425018541348, 0.006667563068498579, -0.004623708427693027, 0.017636681044875983, -0.014961942430367586, 0.0028772359553377435, -0.0037830861775288876, -0.003123202813060042, 0.0019046112082159537, -0.0003556435685586544, 0.0021530051638292535, 0.01685495102513026, -0.0001618772148096159, -0.0002359382784899958, -0.0052887225004201645, 0.006516349963852371, -0.008770764000501988, 0.02112762633085841, -0.008674405788922888, 0.0009069529619111099, -0.01197726904410829, 0.00018446961461073913, -0.0006899733528272442, 0.003966988317435715, -0.008389582784563051, -0.017565989929659655, 0.01274885338566888, 0.0012743690908007222, 0.00697983511022115, 0.003279498597369065, 0.012272360595946552, -0.0029066441168941705, -0.0011520808448027367, -0.014112514961461486, 0.013625369502354321, 0.007279523640717687, 0.000250560269179616, 0.006379309783728577, -0.0033116937377862784, 0.0016484741027759902, -0.00020366001798857136, 0.0073768180696973705, -0.00045384057471572646, 0.0006419961849871647, -0.005297026742852481, 0.0013448619025547442, 0.0036719794008911173, -0.01575463176102484, 0.0037007758452926665, -0.008620010685279044, -0.014387607573455417, 0.016640295631252414, 0.0041412616073775825], [0.0011143134525317257, -0.004331800680774381, 0.00654627443042001, -0.00780857683827989, -0.0008972055116374875, 0.010955142539523503, -0.005162820143123945, 0.008276906762899919, -0.001286298163606557, 0.017672096386499234, 0.0049098518599391084, 0.011957018630963646, -0.007288126426453545, 0.01769922008867165, 0.006381946594103023, -0.009968548887094532, -0.016312915210455435, 0.002368547568501454, 0.0005014076314274793, -0.005231376455908483, -0.01064376955984994, -0.01414273085093422, -0.0036114782254604415, 0.017304248152798792, -0.014528384366686107, -0.0003524877492423037, 0.0010119633399957354, 0.006173381732089141, -0.013420218125623037, -0.0027871954100355083, 0.007858014423986015, 0.0016758037706422282, -0.002766068090766004, 0.0027937589329999485, -0.008820262771931682, 0.00824275519977624, 0.0011821608632263864, -0.01078852345291921, -0.017202981352653354, -0.0032888221637781827, 0.010750761928315063, -0.013839267586144106, 0.0043214698340172586, -0.015430647564547364, 0.01954547497133818, 0.004910945304392888, -0.012643316872427151, 0.008558214378991066, -0.005096283083844632, 0.0021109348822033265, 0.00821629694590689, 0.000398316303180612, -0.018185861061506332, -0.006550002117693519, -0.017843444000526443, 0.006389808860056772, -0.004537410684354, 0.022990769979686805, 0.003504558402564208, 0.006733274607452041, -0.0032715987503822144, 0.000769707440848318, -0.004923185061498717, 0.012486586924725221, -0.017284821317665847, -0.003253653649289662, -0.0003726779598071921, -0.0063012191509002596, -0.010848818423521934, 0.004117670448512012, 0.007970033490185774, -0.0231446759055037, -0.021332007527584258, 0.008335652843350456, -0.005503878778505175, -0.0048081170475549944, 0.006346633383498458, 0.010230383508676189, 0.007249048287713954, 0.014513356683009243, 0.02509620829728282, -0.006966873478266687, -0.007137954270894706, 0.010942324366943477, -0.0013448177110673113, -0.008366372619765998, 0.0022647001987004347, -0.00756444852727585, 1.9396053744937925e-05, 0.0036832348746978095, -0.002872084543741006, 0.00654765229497733, -0.004942502100778385, -0.01458689826313241, 0.0038903640626285012, -0.0027099755761948313, -0.004996940968909922, -0.00563342050001009, 0.02041164021468025, 0.008272002554925611, -0.0056024307500001855, 0.0008940799130963826, 0.01815693945367789, -0.004713946546630522, -0.013112781014611939, -0.008258574700477986, 0.005709181682904355, -0.0042287971702849435, 0.012861554766629087, 0.010892501095297252, -0.020840296719053294, -0.005432798540979503, 0.0015461613418380224, 0.011330833741512293, -0.0003262128921688568, 0.021411134831643537, 0.003447416039004927, 0.017744282461422435, 0.013504328685759206, 0.00334914018455205, 0.005500204021993141, -0.004447229333421821, -4.138064458170091e-05, -0.008676903958105867, 0.006974632136549483, 0.0017217611992036835, -0.005709128943735744, 0.004243335129582843], [-0.008034350409514312, 0.0025080328781373006, -0.0014104483298279908, -0.008195475347012534, -0.005042688737154232, 0.00700771984490295, 0.007220144648308296, -0.008098818241714293, -0.027305451989688888, -0.003399305074426531, 0.014618045620176157, -0.002009636151738492, 0.0011875909544663175, 0.0014855085581936898, -0.011705374745341533, -0.00014955877118462218, 0.010622783994040217, 0.0009946893034311097, 0.003704208294244762, 0.007409992752206007, -0.0035181717391932544, 0.0060243493851311475, -0.0006935003025360765, -0.015304153156120937, -0.01782918518793722, 0.012966934947899888, -0.009908777763041972, 0.006131738981072486, 0.003273129416700738, 0.006452550651188458, 0.012116495260309994, -0.011658441487057017, 0.014082500172961547, -0.0012850233608337736, -0.013539440280889062, 0.0004883865079506165, 0.0007042343641673613, -0.014639472839871121, 0.005557626548386181, -0.006456829565172677, 0.0015916682983668463, 0.003932041118016849, 0.0014043722071748446, -0.002785028796098934, -0.01584443751341966, 0.004691106051777658, -0.003360027332545491, 0.004869429775453458, 0.003870438880617886, 0.005393377679559969, -0.0017159586774481966, -0.01351912256440184, 0.0007177759019509789, -0.008363799197564182, 0.004620122735874728, -0.00021434414334776052, 0.002826463213081327, -0.010128233862614808, -0.011231665523380771, 0.02383109501221102, 0.01566127682013661, -0.009383308575941605, 0.008915078135264171, -0.0019950116685648954, -0.0033587333528726244, 0.007017231753697264, 0.0049820983755481186, -0.0027256335748547062, -0.007390790308230263, 0.0014224285596450956, 0.002819015383412435, -0.005157242553612148, 0.007317915093450323, 0.0055247714568135336, -0.00010950399197830665, -0.0017556268155325175, -0.0044485231360258, -0.017017251684174953, 0.006060145875569478, 0.000850096407604401, 0.0063209630805149694, 0.009502812097636964, -0.007131885508156553, 0.012270253113396606, 0.008607414050184453, 0.00588282773856261, 0.0007173042135982257, -0.005848415510441697, 0.0015352476312110847, -0.01694845301835775, -0.00205635012659867, -0.000755774790570128, 0.00807157886563615, -0.0007367595404784416, 0.023258331204145114, -0.015881493685860407, -0.012974917486907097, 0.0007193969364538984, -0.007417858687209509, -0.016628517481185396, -0.006717602836191671, -0.01700309304295228, 0.009379043570412835, -0.0019428465523102499, 0.01768383093362533, -0.009403612142765872, 0.014331682846258322, 0.0033249039566710776, 0.0014887154562165997, 0.029559583298259473, -0.016398866586527453, -0.004636157399583894, 0.008433436129336884, -0.016991794851679693, -0.012740273878230257, 0.007611075054489795, -0.0022871666409857053, 0.014823957992093609, -0.012900578461888246, -0.006082366535875018, -0.002795501740402908, 0.013749471722960606, -0.001680032223960394, 0.009730785194120267, 0.006634047504922529, -0.002280288048763045, 0.0038944017184487627, -0.012751344981583385], [0.007709849623875612, -0.007347952414330553, 0.005724598190071163, 0.0010799316570049657, -0.007833358127531428, -0.0003544971669701095, -0.007671854033071868, 0.012822399365813456, -0.009159778625298242, 0.005712602285412747, -0.011369083082781476, 0.02226839718407408, -0.0008980108209830474, -0.013526822537657806, -0.008291136421955872, -0.022398795310712094, 0.019899684404289523, -0.015447100638365404, -0.0008713316494181377, -0.0007955780259673487, 0.013791004234398312, 0.008152501103124514, 0.00589258090887124, -0.014617219328216302, 0.026657799850651878, 0.018730714863517985, -0.006517192469966582, 0.000470318205031375, -0.001038374370709048, -0.0031236579144038198, 0.00034774287242038, -0.0027095487782074425, -0.009199515870715168, -0.011680028805748838, -0.003958295477034967, 0.0036753655188525663, -0.005837260448467683, 0.0046317680173447815, 0.009374454308524863, -0.013413524317044755, 0.0012282592550067735, -0.0014088156881068969, 0.008280114343996505, -0.010390879552977928, 0.0008756007493960444, 0.009184975288930192, 0.01856910429290699, -0.00014340732766110744, -0.006859877049138189, 0.019326189480607527, 0.013504473319434645, 0.00093308938353019, 0.0035141079536562237, -0.009032607625954984, -0.0013219471532050786, 0.0003052016536745456, -0.002286402863845626, 0.032599117554623816, -0.0004388551415046141, 0.004265634048282981, -0.0035892683459780865, 0.003975367224612497, -0.005998920849281955, -0.009182773020368067, -0.0032555310617273167, 0.0022946037153081635, 0.01481923060882699, -0.003746264947487141, -0.004133752773210521, -0.007582416101126004, -0.005153552610027154, -0.0029510227677561384, -0.021677213865759905, 0.006594521527508969, 0.0014059469107686091, 0.004939504178464392, 0.005708044315048927, -0.000928074174982438, -0.008820137523861684, -0.015736195268125024, -0.011709378268308899, -0.01107348050658742, -0.0027348264714250016, 0.005287396074260782, -0.0076201247471725285, -0.009518109112756247, -0.004889300264866609, 0.005929281107298408, 0.00062775129445741, -0.011425066432887055, 0.006989370462785371, 0.009382305178438709, 0.02547155088708111, -0.014583240779649327, -0.00013684126125636795, -0.0032778164933354925, 0.012576424103018949, 0.000802529466895279, -0.001410178083245135, 0.012050071060992845, 0.0026285363594656715, -0.008912558470984823, 0.00416548269923374, 0.02770782045139666, -0.02022744722227418, 0.01317895073688456, 0.0060234495665080256, 0.017196898717277812, 0.011288776462360655, -0.0010838535825588764, 0.005505374154852907, 0.008915808746820457, -0.005339240876938537, 0.008456142951061087, 0.001873637855154283, -0.0028885558346707363, -0.02422651403769748, 0.0014254701318934912, -0.004467754416332684, -0.0045723513316176115, -0.0010360677165676814, -0.001440735873583703, -0.015402457020132536, -0.007756508394007322, -0.004870485145016886, 0.014807643812460245, -0.010540077562646466, -0.022679737098035137], [-0.007828325276458655, -0.01926525906552919, 0.010458825157870789, 0.015250365900251599, -0.015634379965365083, -0.016604685260347782, 0.0020028602041274575, 0.011695748946351949, -0.0005873666280178406, -0.005758884602387061, 0.0012001545500362194, 0.018724925674864293, 0.012266286337538247, -0.0018831253242111905, -0.006793010137262062, 0.006053502825991294, -0.00903418721776935, -0.004094666994090765, -0.008790007753954415, -0.005731601219221268, -0.007504610994177438, -0.0021899166974671184, -0.017685888608114885, 0.020399009802787443, -0.0021708331676957935, -0.012706368291478054, 0.0018473474018581258, -0.01833226093398915, 0.005705227139499879, 0.01500805556110495, 0.005094059756330203, -0.004553658982507681, -0.026036730178065168, 0.00574527131824689, 0.020465238482947803, 0.005533319633338456, -0.0015306297566290694, 0.025401789374935514, -0.006762093851559794, 0.027529643650020707, 0.01056252927393087, -0.01170263478664409, -0.005283745270390061, 0.001979993432982021, 0.0026151077047828638, -0.009668456308296412, -0.007354667633655189, 0.002401326330565614, 0.014224622251570814, -0.0030611443928649884, -0.00694725204392764, -0.010362694157612862, -0.01648687294589673, 0.011685930505143107, 0.0015734939986106714, -0.001484874835314208, -0.007729038960385354, 0.01151020308202477, -0.0036171570851145484, 0.001269658712603417, -0.002553043297146141, -0.0018818354856140172, -0.015409417686000654, -0.00952820506173725, -0.015518111253758635, -0.013004465431437408, 0.00905513390236507, -0.005951889522224647, -0.004985801017206017, -0.012256196261683226, -0.005724613782517392, -0.010324159897121397, -0.002383869613327305, 0.005975618168816128, -0.004197753460288774, 0.0022055114633572686, -0.001008248388880712, -0.0028702556132025425, 0.016731652131685117, -0.004877028022661698, -0.0002271285273401149, -0.005085932042715885, 0.011739843576134966, 0.019276775088431314, 0.0115657921069519, 0.008300236896206958, -0.003844444562195358, -0.011925640493024277, -0.001491932900615783, -0.001450337677096356, 0.0013299662072596915, -0.001018701034168776, 0.010911631638414427, -0.004450010614576694, -0.004187272090666048, -0.009073079227626244, -0.0013410187445633062, 0.001829942455043124, -0.00500916436433221, 0.005014505738492749, 0.007201995459334224, -0.013607277534270384, 0.00013000001567276806, 0.002692300711326785, 0.017098228404977586, -0.01742164426329917, 0.016278171258619686, -0.007989721116354888, -0.006228373407889609, 0.012469051369054702, -0.013270319775701376, 0.0016341789506162047, 0.0004145089616456407, 0.0030541887585705386, -0.006897143180954139, -0.0038261176864645536, -0.0015078557540899548, 0.009127668830827636, 0.0021479886445364194, 0.0015620515549750157, -0.0018214988323731777, 0.0053299868627801955, 0.011394944338562734, 0.004007249933778073, 0.010013800672693926, -0.029706409103259262, -0.01894750543619591, 0.009332727317307946], [-0.007526043595107623, 0.005553259092926163, 0.004437031862408576, -0.01424810370480909, 0.004868212714954378, 0.0058974746105875985, 0.008777124237163978, 0.0034574867205246686, -0.008280435812785963, -0.0030887302149245743, -0.00797942648110805, 0.0005795982543805429, -0.0068184227323836956, 0.00030706801586775836, -0.0003586129223386609, -0.012413427756427132, -0.008030966023531047, 0.0051102598779770225, 0.011182127981676136, 0.0131992923146132, 0.006496017323103103, -0.0029066961579811766, 0.0023806957674888155, 0.012338223839878043, 0.0026181890917734295, -0.01002019993618122, -0.008614550781096977, -0.01576106187842587, -0.007428339283038102, 0.005961044886775297, -0.0027460964840551783, -0.008196336174472475, 0.010124223773565196, -0.00961123221978288, -0.014962446940477242, 0.005726402840013772, -0.021839616444315587, 0.01902201016340923, 0.00887818712008245, 0.0012638285065685174, 0.006192132027905531, 0.013216136524333866, 0.0013921044374030952, 0.0066792177229310955, -0.008960920276195059, -0.0017071989129732188, 0.005078998339002122, 0.013001936850062394, 0.0033923533478586215, 0.0037386624758083565, 0.0025879061173227453, 0.01676353355096543, 0.007480276644413656, 0.005734476296736037, 8.388672340849607e-05, 0.0076881752654543055, -0.00440097221508148, -0.007468073201867275, -0.01741406821807075, -0.01081452650024662, 0.005521164639911373, 0.003934843005543937, -0.006084650320084813, 0.0021336154230419823, -0.010179770511644958, 0.013135671108133178, 0.015112527626786951, 0.005283415007129663, -0.007385384010102132, -0.022257387428929784, -6.226559783414185e-05, 0.006314044090990467, -0.01095099978705544, -0.015485570481504576, -0.0014468750856712908, -0.007354047558149008, 0.011636839144576203, -0.002052948259051837, 0.018400496572838845, -0.00889880289908297, -0.0004866904766044794, 0.007564178242315592, 0.01784477876564141, -0.002966159479840744, -0.0025075984663249745, 0.0032158170330160384, -0.0022368666421072607, -0.0044433148502159734, 0.010060806847313315, -0.008501088344461144, 0.005484542045406779, -0.009117224290766739, 1.2958602204192083e-05, 0.001640204176033587, 0.0009594242942314048, -0.00581165440377429, 0.005174099547326112, 0.0014568124677412008, 0.009046411053277222, 0.0011920648220412322, -0.002646959833492531, -0.018738237105783647, 0.010972349788228876, -0.0032562436036509736, 0.007154955416291855, -0.0036288221780578405, -0.0023895944259775662, -0.006706227032618396, -0.011620027392069757, -0.011629060083783291, 0.0035416605722917004, -0.010129008479801468, 0.016797383007708618, -0.0023524539374029808, -0.013781104986549185, -0.01457307967509284, 0.010819960456328374, 0.02331669487487537, -0.016060522283448873, 0.0029052056321512577, 0.0014712422494247924, -0.013974930227608229, -0.008249811280300567, 0.003840155608198181, -0.0030514010342385057, 0.0011698211546732316, 0.0009903709995355769, 0.0052056243900153835], [0.0008640999519673688, 0.0012101213094805874, -0.0003980005402355632, -0.019729342456270508, -0.011200156471601169, -0.007606533121932636, 0.00426298384278062, 0.004966214122498602, -0.010914500984538108, 0.0018940713491018583, 0.004815208478609515, 0.015765792691438296, -0.014944853951360502, 0.01286402226865164, 0.007500617823229585, 0.013753990918356523, -0.015120206572383733, -0.004127235888638959, -0.002578882906395435, -0.002894216120853112, -0.008406440120960213, -0.005616673127016394, 0.006733233495330717, 0.019067502819324587, 0.0055700348794564015, 0.006071425067977072, -0.017705470959293923, 0.006064156013428811, -0.014147267862220378, -0.005555426254283498, -0.0014868960607544537, -0.0049807775093773585, 0.021003161207748176, 0.005482995086843605, -0.0004715853458576055, 0.010699373001096088, -0.009368498374948646, 0.009028534360894016, -0.004695072623996294, -0.0006661464779294776, -0.0025900962321100734, -0.004135622083440041, 0.0061189820536756215, -5.807594074920269e-05, 0.0006875039509966822, 0.014715940669974543, -0.0071329115500577125, 0.004554191050398158, 0.003938434707878758, 0.0029967523241156177, 0.0068207013302826235, 0.009835598933133167, 0.013391363056899048, -0.005349733851173126, -0.00791876468111381, -0.0026950762848040374, -0.0013327371618815334, -0.023565076888293852, 0.0047739618282384684, 0.0004940950620510757, -0.0029436761752802882, 0.0068191122740736765, 0.0008687021142869242, -0.0014972253301100977, 0.014342266515653665, 6.710076006566899e-05, -0.008327104027976385, 0.020613878561237208, -0.021627253558057162, 0.0010054776959031188, -0.008977038343309552, 0.002371833838139823, -0.019315152857301652, -0.009106758688793837, 0.014959240152176888, 0.00926226241484519, -0.011295131637793682, 0.005022618974227305, -0.015104551012372574, 0.012442411430991965, 0.0029188977637714924, -0.006168911779001587, 0.011717289934642657, -0.0064105043628007044, 0.0005470219991972166, -0.0065947631911672955, -0.011770751366784285, -0.015934908535653814, -0.0029093684665978587, 0.005683429767163528, 0.01805780129848429, 0.014446073694831639, 0.01229574492024057, 0.010884524368782608, -0.013636144891122396, 0.0009241177811465218, -0.0005514472156970402, -0.0037136001947379337, -0.0035594328057394244, -0.005109725195652654, -0.00482708551095114, 0.0020139608600011016, -0.014988136844731602, -0.001654302279539041, -0.013330971836695349, 0.019358401085666575, -0.005507408375410503, 0.014765671406476165, -0.013437247956704368, 0.00889409129709874, -0.005103071583866011, -0.0031860148592502465, 0.0010005403386774254, -0.008433259434304298, -0.00027571359277060286, 0.002213596431607456, -0.004634798910501682, -9.360638896131906e-05, -0.00958436928176775, -0.009562015387999152, 0.005030201329625879, 0.020993277189588384, -0.013339264444791707, 0.02277227549350244, 0.0020670028247462453, -0.006179297374632839, -0.01325867169246004, 0.0006451293380555573], [-0.02642283862086875, 0.09911707183486525, -0.03371871875685955, 0.03399632269276284, -0.005182099925538254, 0.02660866030157548, -0.008452469773335495, -0.012410425640465227, -0.05473562948296995, 0.006328471323104629, -0.0481650475874729, 0.019969883422843417, -0.04595442831358651, 0.01911972349464979, -0.01820688000252492, -0.01312620490197006, -0.02091780756309994, 0.08096990070685961, -0.0010664506843490371, 0.01969928117725424, -0.007167395946973968, -0.04097355120772277, 0.0025342694608811297, -0.06671702579253555, -0.007027734281708337, 0.045131551742335164, -0.01269090172188674, 0.05464186964073557, 0.00495684576683155, 0.013364176958752432, -0.0013207923399154676, 0.01516571121951696, 0.003880975777129885, 0.05058451850442549, 0.05843264653604778, 0.024172148709538148, -0.001113287271584035, 0.029986800858302413, 0.002910039710436187, -0.03442551951017967, -0.0704511094223221, -0.030741701816972253, -0.003995304534800877, 0.038803294681547175, -0.008335650415099637, 0.04315446141822918, 0.01065814774019225, 0.05283017796411086, 0.007391761474937097, -0.0472295439862378, -0.05471978048957368, -0.04355196755603962, 0.08221234897083567, 0.04313376351056928, -0.045286726375862056, 0.050343093689842265, 0.08304271411333979, -0.047197363302963626, 0.044388670016204494, -0.08203162569358519, -0.029374770854542546, 0.04076559873864633, -0.0280788426198851, 0.011145079953112858, -0.08866545929263533, 0.05659206524100898, -0.04677897572158748, -0.014913440597951577, 0.047179721933653655, 0.0012611980020081474, 0.07474636895251603, 0.0042472030759558976, -0.010269437236460099, 0.04172860679570897, -0.017795652636361785, 0.004942748501630046, 0.011449061528644318, 0.07387172572024957, -0.01705809310010058, 0.04262906841456596, 0.04101738258772805, 0.010194056873612096, -0.03215147956392309, 0.003452042352770466, 0.013652196644732524, 0.0005643699774295145, 0.0531498044550821, -0.037642739613635276, 0.022842996656108942, 0.004531249991190131, 0.0656091433756786, 0.053004507650714815, -0.013531523277927454, 0.05618281719898429, 0.08051457335474384, 0.05061745634588385, -0.06016345254679803, 0.02069621590394996, -0.05414894507917195, 0.000828737876720953, -0.044206677423483144, 0.008218055033946119, 0.06716231256572155, 0.028886143309533006, -0.026896618318486706, 0.036090659114510995, 0.008523308360819935, 0.05507151773569413, -0.01015589132535717, -0.0018169961852514671, 0.04464972498226433, 0.0733936949062495, 0.05536481436919611, -0.034016495661107725, -0.001395730476706679, -0.016847528415088946, 0.08558087189086257, 0.006315961454224867, -0.0589002463595462, 0.06524469308973271, 0.00179663518500674, -0.011736519717358514, -0.07067427410158644, -0.0089006175755694, 0.013561690228073006, -0.03138238336927439, -0.005878019849754244, 0.03540399986880871], [0.020783492305083726, 0.06171652370027437, -0.011582882513022523, -0.027847780103959857, 0.048490327970982884, 0.08069705325871034, -0.015864344242992216, -0.06944469121423719, -0.049448933796441, 0.07434705661810279, -0.06155418021865519, -0.060559426551467614, -0.000990235978299976, -0.038705769222288, 0.047382667952322606, 0.011044854920926241, -0.022141994912251946, 0.07388827635566518, -0.0684786473745462, 0.0011316407236163929, -0.00029746356059599566, -0.017100564874296818, -0.03886818364505845, 0.04124215180842555, -0.03718795595618262, 0.0690300838416356, -0.011077589046657201, 0.09317953046686436, -0.01921295600533152, 0.07126647782479462, 0.030420872377403565, 0.06739776985209016, 0.06026857027861937, 0.06052629604747513, 0.0904630133235065, 0.05488303491575761, -0.007413587846504071, 0.04673087368401935, 0.05589200101252073, -0.06941564112957728, -0.019635454211303128, 0.028792840942945517, 0.008351979750465414, 0.07676697099234613, -0.009595219606635142, 0.056952474655325526, 0.08422145037957382, 0.09068709361675555, 0.054897949427310556, 0.011002889653845417, -0.09072241643613646, -0.005202074974762608, 0.12431179081604629, 0.03318805807150218, -0.09193902137567142, 0.0871904569934976, 0.09052803578022045, -0.07344313192748995, -0.052533514533351325, -0.034253066956117115, -0.08186879467101249, 0.006607537701789125, 0.02546999721140048, 0.004194006883154329, -0.01724786677579682, 0.10268154946926981, 0.035933101297834856, 0.04641340694479246, 0.07277059298582127, -0.07353974172792586, 0.06444759833734433, -0.02408648389890432, -0.07285088459866443, 0.09318981212441531, -0.025456925866283984, -0.049639196832361066, 0.0060883821818336755, 0.06916071716367489, -0.009809726206602247, 0.03125345278124625, -0.021561526691799778, 0.06549467878237897, -0.07995869204016884, -0.05722378410911867, -0.047820929228567566, 0.015423616029228942, 0.05066551514198844, -0.07822830385139605, 0.03663812651433694, -0.014668892790368713, 0.07102477269333869, 0.04336227820914526, 0.008522543765571426, 0.00048313417820269097, 0.05881271322355267, 0.09172536211034164, -0.0863015921308017, -0.016698145586860783, -0.0630124733948173, 0.02587061570421528, -0.07365471140868546, 0.04565065945986728, 0.0741555031928757, -0.037297529370770945, -0.041954879984274246, 0.040379287427121824, -0.05917508398439047, 0.073829038064544, -0.03458023521814916, 0.01255765722354886, 0.07623084279257619, 0.07861684320118754, 0.0281171265042933, -0.06989218073285638, -0.06057261111574257, -0.059052425572914624, 0.09084077784222445, 0.011432561376061677, -0.06523078648996639, 0.10394040460553497, 0.0755580351583939, -0.024791506019147726, -0.08091724270810484, -0.019716938069750795, -0.03508484070916682, -0.056789332947629265, -0.040765359480299156, 0.05408285172839903], [0.055552067697039596, -0.03981006956258008, 0.013981969900247287, -0.05018463336097965, 0.07776031684893762, -0.0033534538950390665, 0.008475068194578803, -0.010320488222331309, 0.051410061004478466, 0.061586136427229196, -0.025265932223473335, -0.07400856146611559, 0.06442946141618938, -0.06419384320033121, 0.05794697553054602, 0.008701174156721265, 0.027938715649919958, -0.01786464970927698, -0.06598741339689072, -0.03248132169749647, 0.011937497036576298, 0.036720022501032526, -0.05669239364403062, 0.059427021572759156, -0.024546754755300017, 0.07953683209449189, 0.0007358215831659937, 0.03132060600018651, 0.001254490534218358, 0.06855631127268412, 0.04858965244698019, 0.07848703929809671, 0.032907451114893925, -0.05366758020934763, 0.07196699881473237, 0.07000251168038085, 0.006315674383748596, 0.002218673574805583, 0.06169495666143365, -0.0329316743625029, 0.0730855922665787, 0.04325367639800151, -0.005571241152081657, 0.029443117533220976, -0.009595291384983625, 0.0288485404658806, 0.07239949498470549, -0.0012807898633371202, 0.054515373408594185, 0.04594846008617354, -0.017563140019487614, 0.07005607927577721, 0.03434076445727368, -0.02691376677497891, -0.018257475950919883, 0.047750284662593734, -0.01801327194411399, -0.0633202682667817, -0.07365523642098762, 0.039029382785688155, -0.07748786712344556, 0.01594627411575242, 0.05412609897402324, -0.008094398489026341, 0.06880796891012787, 0.0523981533150501, 0.08490264889940811, 0.06796881205869595, 0.024580203922557248, -0.05379265850403, -0.015403380193192071, 0.00855522195759901, -0.040661140249257675, 0.05913551095056863, -0.010488120788400272, -0.04258996733191598, 0.009630232604495985, 0.019716772320977925, 0.030245142288590657, -0.016604290285584113, -0.04753922638180336, 0.06645169690142615, -0.01742808421351065, -0.07649135221998972, -0.07051529912849619, -0.01686382725539707, -0.009426530818148954, 0.00882973410138068, 0.04006756901333095, -0.01593550546543748, -0.007433115524030797, -0.03417883114205737, 0.02763382011680273, -0.04061106929858233, -0.04120766733013829, 0.0788247585331344, -0.043895265120083786, 0.0040429028766167645, 0.005174093173165522, -0.002440027559793711, -0.045491165345320723, 0.05067573589436983, 0.022370344330069448, -0.06120439590127326, -0.01223595331333879, -0.014122675524085486, -0.07232156748559429, 0.04824568515235684, -0.06377993376016979, 0.03573595091668229, 0.05170072567848002, -0.03635034110673687, -0.027200876354107634, -0.0534321932827462, -0.05369500835351844, -0.018107870284846814, 0.002465966325241034, 0.052805441944892124, -0.03253297850896433, 0.04315171401533124, 0.08781556239666648, -0.00963746975068818, -0.03426286570006674, -0.007367649731974909, -0.030567340423761625, -0.020206568520617654, -0.05825098569183515, -0.025683418346891942], [-0.008292483906299159, -0.004490637993407624, 0.006744787556021245, -0.007500809069518646, -0.0013369138102469992, -0.004138239173036463, 0.00461528239160115, 0.016482126885751854, 0.01692653111579555, 0.008228255988645848, 0.003834867672072902, -0.00251498354927184, 0.0007695353483977801, -0.004785080075254155, 0.01734358433543263, 0.009430405994993157, 0.014590464471263153, 0.01892991300863509, -0.021328320449149268, 0.010933625421335408, 0.0027008265940981916, 0.004146342498186094, 0.004453846930489773, 0.013995722579747924, -0.008238288445305542, 0.011005553449760015, 0.0006407254357301774, -0.011523750885018716, -0.0028250512864782455, 0.0056928477011069815, 0.005112508634322575, 0.016455851794625585, 0.02689451450076287, -0.0014533179282445376, 0.0019426333897735112, 0.00847191102058324, 0.014124328711333844, 0.007213343426561133, 0.01266874845833906, -0.018392538614622624, -0.009206727358456377, 0.0027776566989709288, -0.0010090257064951972, 0.0016771407564593508, -0.005908794573348661, 0.012063820212393368, 0.0070696826217494756, -0.010611156263202547, 0.025261190823184863, -0.001845314563454142, 0.004392984780799971, 0.004596791067548083, 0.005925989305644675, 0.0005037718616335071, 0.006023095612655377, -0.004142620264673511, 0.015416486952872706, 0.008507708917918905, -0.01290588822284254, 0.0066738241754695634, 0.0021737041247176896, 0.015940644854546503, 0.014324911610852671, 0.0044108559206593465, 0.013368303537861552, 0.008417023134299121, 0.017615574792594554, 0.0012143329631455818, 0.0018573045868826076, 0.006991132711403067, 0.0027705396483789224, -0.009829897391493632, -0.0018641494502917983, 0.006668737432247106, 0.024773183674249476, 0.006790270095784384, 0.010307585279053295, 0.0036244137809464025, 0.006791995838994196, 0.010401109483991847, -0.02692465265305236, 0.0075342899854662125, -0.013925120907948509, -0.005452047569292706, -0.019035529306312946, 0.004059840950118025, -0.0051451839697187005, -0.011097753114424357, 0.0007157634737396148, -0.009115335217869294, 0.0022898684521566928, -0.004333737753931735, -0.005664606536247031, -0.00311226156564383, -0.0167808333518734, 0.01145735612205011, -0.01070106709965916, 0.011873123863771378, -0.003145985835317373, 0.013796415425703683, 0.0017178999758526413, -0.016992464383770486, 0.0044893653186968375, -0.02718060989127752, -0.0010848162704370883, 0.0021824635879872023, -0.01517974112639563, 0.003684409613968482, -0.0015645957537019548, 0.00689233416244953, 0.020664937098198707, -0.01624707530284024, -0.010985179554715108, -0.0052761009728162145, -0.004967596229787678, 0.0016285553028914618, 0.007263026157878806, -0.005986950830893189, -0.00727768248964491, 0.02578643057963114, 0.0002454192946282916, 0.0013996467588596516, -0.0004243989216346634, -0.0026167812999590674, -0.0285819119742109, 0.010501833608346046, 0.0019267915650942073, -0.00941020434167695], [-0.001056069653583118, -0.0003329250143826863, -0.010489774760276656, -0.00021260364756154967, -0.0018979510368385868, 0.021368614688876884, 0.003954727018835489, 0.0017237317810163163, -0.013879237873767937, 0.00034624515235700664, -0.009340940340152887, -0.003526572592622095, -0.001853454002198666, 0.004181680491825602, 0.00956981097376018, -0.010683298558130409, -0.004613240389896812, -0.007253690340175672, 0.003574319956593707, 0.0015671049909081257, -0.0014564149080337626, -0.025790655971766427, 0.01215910615119626, 0.004134306138236019, 0.0004589420025209111, 0.0024180265799168387, -0.009049542061063637, 7.749012649541498e-05, 0.0006391748276579302, 0.0021557602698822403, -0.009532244303018028, -0.0005560753640422003, 0.0009830652077851827, 0.011358213680269322, 0.0006932716200227443, 0.0029028049238401027, -0.00442912176409213, 0.011154131848348712, -0.008620315000968435, -0.0013030468598633571, -0.0066328939916546524, 0.013747815521809816, -0.011263390164963328, -0.0016136684543497756, 0.0006200360029559629, 0.005507283899753011, 0.021214972818880816, -0.0015868696417224767, 0.01121514144520378, -0.00889697956228311, -0.013580944425311742, 0.020013798103073594, 0.011771205960084472, -0.004732911531182481, 0.017956495809120718, -0.02242392883367855, 0.01626462461145936, 0.010710571898991364, 0.005452966940467511, 0.015764539817754993, -0.0042833569856084355, 0.01633259849631383, 0.00835761611876769, -0.027247130044679144, -0.009047215369556131, -0.004994099021328025, 0.013959098580748787, 0.0025458505002439818, -0.0042898598052814214, -0.021699724654214828, 0.01792341285280381, 0.004793617337713781, 0.0028632457416777825, 0.004306364454614922, 0.0031109496901198757, -0.012047385555214365, -0.00019778492360080752, 0.004738132070055816, 0.013448310813612654, 0.0010344506534254898, -0.002956951657182871, -0.01680859640047112, 0.005667574502638571, -0.005824000304651522, 0.012992947703286812, -0.006043493737999577, 0.007740417159219267, 0.004288024119733116, 0.006639452202627794, 0.009759787284060167, -0.0007977452754403221, 0.014177245053876984, -0.007352545334080851, 0.0005936535756975131, 0.012543641736079771, -0.0004700942928540481, 0.0004401089340348153, -0.0024356170443324584, -0.0011894897243034214, -0.003786253862439853, -0.002847364941046072, 0.009246330418838954, -0.010327344326127273, -0.01453595495307011, 0.008286773910703574, -0.004736369694186721, 8.376490021350032e-05, 0.004683775827009565, 0.0039633133097523605, -0.017882369097240846, 0.00028387349688335203, 0.00943359266543625, 0.015291804196213588, -0.01960475053717308, 0.0042248394067253454, 0.00521846991565988, -0.010500140020020272, 0.006337835343871374, 0.005537776265765281, 0.032859788624316905, -0.0037217973793417375, -0.020569664859275073, 0.0070930130140279945, 0.010520699914878815, -0.004530138613272248, 0.00031854293717624156, 0.00033599567855866326, -0.00668526503106054], [-0.011348135330594191, -0.006784491851948808, 0.010617983291635925, 0.014686833768970514, 0.004695770877578818, 0.006154793929262096, -0.005511952390772253, -0.003807857294288734, 0.004581532011981272, -0.006609305154066741, 0.010573219310952014, -0.01168500779998341, 0.003271239943036552, -0.010086704915345508, 0.003795406568430986, 0.0007253602911444952, -0.010264086344430164, 0.004117766347058754, -0.016045723042066855, -0.011890234234114288, -0.005869356894153988, -0.00576220828860618, -0.00024497015837931293, 0.0019244762628537388, 0.01918221789938707, 0.006449909811990609, 0.007530735446832999, -0.006421595471561227, 0.008803418591566407, 0.008559141051722806, -0.005799918887869803, 0.018482411272199236, -0.0023577839401115286, -0.0056410041024976725, 0.0030821463662992665, 0.003798419195063851, -0.008716768777376092, -0.00028200909818753764, 0.002278482357513438, -0.0032638641377430123, 0.004622365940418559, 0.0017269751847093654, -0.010950538159511204, -0.011086650363468863, 0.015098613675636113, -0.00202185565800033, 0.00024195505100083116, -0.002763500296501819, 0.017074980889625686, 0.009511198487872108, -0.006868994364298675, -0.00409660517921211, -0.011157267687343325, 0.012390268972410417, 0.0033281167882560293, 0.013558180283213948, 0.014725367216125383, 0.012793297252189929, -0.01469005741481095, 0.013844715073149345, -0.012504370760928364, 0.015407926333769929, 0.01748064254916245, 0.018594225029659805, -0.010027764234914962, 0.014449769569276927, -0.0031788569398635324, -0.0057553537034927115, -0.006678965408472317, 0.002152579810849938, -0.004644866477057955, -0.00815837193980026, 0.0013299578990267657, -0.015611070046550147, -0.007216005843780655, 0.0041293695332560235, 0.0017166123543341197, 0.010492345040670545, 0.0047179608852198586, -0.009507812601180603, -0.014277814147982723, 0.002315418422967168, -0.015344505008817911, 0.011272370823291362, -0.011340488177428363, -0.005120216654770161, -0.003919589111238707, -0.016826077649018018, -0.0007144051519888306, -0.009329364762903277, -0.01303962161156985, 0.008976607059397908, -0.014385299409625534, -0.002803515668848189, -0.018199807689451255, 0.019431986956937364, 0.004067110883239414, -0.00011306183080912121, 0.013400012369441302, 0.0002798816725399162, 0.01178264028355526, -0.01482067718777852, 0.0023326246390595155, 0.0010052480657126964, 0.006892391708175716, 0.0007061577338786513, -0.00367949491077262, 7.063141584242173e-06, 0.0005095489545837086, 0.0031023793203711542, -0.003489111129085557, 0.009479598125706952, 0.016860931366764875, 0.00038760617056904487, -0.015216730696466705, -0.012091926083204672, -0.0005171646979034594, 0.0029998730454534536, 0.0007542865110348283, -0.012247280239430709, 0.011168790703234207, 0.0034789366148465207, 0.010551869552705961, 0.01108518175120266, -0.004792843380632534, 0.0107756744346499, -0.012083998391290481, -0.008830748612818002], [0.004935058787201696, 0.011097238562499707, -0.0225698331951297, -0.006407582821130661, -0.00043833470576774044, 0.013513876880848673, -0.013819792299629739, 0.0026316787662534103, -0.0047543163138160155, -0.00663675708348133, 0.0043578280646685025, -0.004090043228943199, 0.004621911673441119, -0.0042366872665136725, 0.005622272287848439, -0.0070740551188580615, -0.002521998519737324, -0.01427613408450902, 0.0040433829910088296, -0.009159645332544963, 0.0020770771106028768, 0.0016547606622366587, 0.003144171037847644, 0.0005139854437148279, -0.0003649858018766238, 0.007258188990365131, -0.005297677405565452, 0.009139965694659562, 0.006098985381970551, -0.007386707822583986, -0.0012988021946387716, 0.0009229252889108308, 0.00224362261314869, 0.00820040263335047, 0.004868921081678015, 0.010951586862424024, -0.002784836513947336, -0.017815482669533474, 0.0021288534802762537, -0.004945082104631071, 0.01499273295486187, -0.0009235437658136639, -0.010295027154882841, 0.006294128152484343, -0.0053363478933137224, 0.006264239547743263, -0.019361410994469096, 0.00415034853744219, 0.010190559386322065, -0.007532436718245704, 0.014269756485009697, -0.005318562606956211, 0.0014512605227980358, 0.007626290361036064, -0.00016020664666810375, -0.01214597029337035, 0.013247969288079508, -0.004184694245071363, -0.006381213165724015, 0.014609053797073277, -0.007182795420790179, -0.006669438224416266, -0.00020466960692160687, 0.015327297567404703, 0.0006137397630751302, -0.010506065871403458, -0.004245878325880594, 0.013348398180915422, -0.004131115294813616, 0.0009832387763717215, -0.026348108185703437, 0.01677619488986905, 0.007932170845099515, 0.00784473842348151, 0.007787226111914668, -0.0028475887155682235, 0.016893370740769176, 0.005248753784538245, 0.012957453956133172, 0.025242694551343793, -0.01217005633394711, 0.007842627403480719, 2.4620759088407957e-05, 0.001972017700288183, -0.011557657099457053, -0.002707622337558059, 0.008045307849917626, -0.005560049325465962, -0.0005696743550233175, -0.018370951011884604, -0.0053897828184157745, -0.006638903986622734, -0.00017731768937491083, -0.021637235428512255, 0.00983907024042285, 0.02095008894571119, 0.001850226642854163, -0.015362677989028522, 0.0036251263541055147, 0.008787141562356172, -0.002526166323727606, -0.0028984910636692153, 0.00546621159245521, -0.01686401885823397, 0.007392289446513965, 0.0029438769345097636, -0.00014898810002568957, -0.024867561321187275, 0.010129595219570822, 0.03273372635239583, -0.00031579020619222403, 0.012999186575570379, 0.003845175993327542, 0.0018918127998004048, 0.003732857139246882, 0.004403430378400023, 0.012213508110338363, -0.0013239572008510762, -0.0034718408882143106, 0.006828854745860515, 0.00042144808183851605, 0.00013969118014461085, -0.006179542454799732, -0.003706258638905918, -0.007744375402204815, 0.0116584025711994, -0.005586383920792296, -0.0038284812349308386], [0.0019895322574280962, -0.008323702901001139, -0.0015856015663324894, 0.008723597827088704, -0.004380164964765669, 0.005583843265258459, 0.003153563767802447, -0.02294249606407128, 0.005469755446928253, -0.002170275129021012, -0.0013648955235381491, -0.006358336374563759, -0.015133048200081529, -0.010730251981526762, 0.00189586861009828, -0.010621480630804368, -0.024163345730255806, 0.0016172170503857056, -0.01739171358242201, 0.006150919492310419, 0.005869253664418502, -0.016535889600003732, 0.0019628838662645413, -0.019435794468843668, 0.012936276301160645, 0.0003932060898042133, -0.005803144612027904, 0.021030433131625545, -0.009294705411127173, -0.016879642600296722, -0.011794062501562728, -0.002490178642721317, 0.007506920637864644, 0.004145484056015191, 0.012039893448630951, -0.013394820532132716, -0.013545734172009756, 0.00556638361161186, 0.012285094603299138, 0.0066611239400825905, 0.009600961471835602, -0.026117855032321433, -0.02311184587213149, 0.00037844249883662136, -0.01070178814824741, 0.005977673007009812, 0.011345907231891288, 0.007418461820448998, -0.011366261897597991, -0.009490982147974211, -0.014008441239567697, 0.019309052128048978, -0.013861367407255448, 0.009576287099090013, 0.002811056406049515, -0.0007638346902959246, -0.0016385461295146987, 0.0065997248787101675, -0.006281361950120139, -0.007485845372523265, 0.0006768503652120446, -0.012919485325059241, -0.004087856595687616, -0.005404645625079153, -0.001678292093422579, 0.000624640958943538, -0.02127349172875418, 0.0008086541419680585, 0.009716301448036382, 0.0164144231831376, -0.004829210369828108, 0.006198303346380858, 0.003914572506644034, -0.004271567182456552, 0.007822321965797008, -0.011001107807968511, 0.0055896793704164685, 0.007984414486207257, 0.0010075271673783961, -0.005272242329150327, -0.009516414981913045, 0.019784115825305152, 0.004986660720839795, -0.008688811034704978, 0.0026863418840390872, 0.0074881829673342434, 0.005885622356846293, 0.012412977436519174, 0.007475342527537981, 0.0034559115359109817, 0.014111701412470874, 0.007816863851110014, 0.007081715458666957, 0.0163467894600321, 0.006136651732873275, -0.027046605154541003, -0.01350033532815657, -0.0047783511097342565, -0.013541662541214524, -0.020326033892543692, 0.01659471568165477, 0.007765594533946347, -0.003544002556695457, -0.009564397797071156, -0.010032430876579124, -0.016338271150697307, 0.0025399784270399325, 0.007530091856055626, -0.005161754581697978, 0.00012171092582224352, -0.0033426194408869366, -0.005723798839161168, -0.0031220226859962584, 0.012216859992943835, -0.001050594158070836, -0.00561367789010402, -0.015166497410335671, 0.005218033072036359, -7.47426143225228e-05, -0.011110130481337308, 0.010608033019755474, -0.0003974561195698714, 0.011983565978706657, 0.01000752346015872, 0.017408047287243468, -0.006431256906629299, 0.0002965260364349803, 0.010260744269712853], [0.004357836129882453, 0.011205212366923255, -0.0012024142550240149, -0.006136498783163263, -0.017957372752248187, -0.004470614084755842, 0.020726530785221783, 0.013862970253342934, -0.0011174854524805347, -0.004492877743543946, -0.003928669522974527, -0.01345615680163081, 0.0017787812670258041, -0.006173494704564082, -0.007378720629740672, -0.012666229967310769, -0.010035368641418794, -0.000752387597021241, 0.018804626057618262, -0.007033675312332316, -0.010007489865170164, -0.0005196851608015378, 0.004850469723477321, 0.006422566443573069, 2.4863375768574215e-05, 0.0009072423973304323, 0.015403015631286201, 0.007024372007864871, 0.006047317859090454, -0.0009243152235209698, -0.007162671917388211, -0.008897944998159931, -0.02516247917015766, -0.0005471524658095761, -0.002129856792980557, -0.0012931717153912242, -0.005255134977666268, 0.004146701100289225, 0.009624761111508147, -0.0002887668119063623, -0.013871651238114027, 0.019340122864678535, 0.008522535281689675, -0.015726908314019336, -0.019641165093483504, 0.0007537396019431878, 0.012819087441907628, -0.008611588825739402, -0.01311785802353432, 0.01426904370613133, 0.004283329490239156, -0.004937538569203708, -0.002825221007170981, -0.0186060590300332, -0.00334159398304732, 0.005803802579398815, 0.0011426045296694454, -0.004187538730706915, 9.688033955551292e-05, 0.004148278408453713, 0.005942369569873115, 0.022486348764469543, 0.018487242424872402, -0.004179966291868546, 0.004971079616817329, -0.01242274445322759, 0.010738425902177658, 0.006941274330647115, -0.0032049814064621968, -0.004923330417582565, -0.014790509614180483, 0.004911393882335629, 0.006234297090548168, 0.005198673609246683, -0.005867680885201795, -0.007615152158256395, 0.006194246694790458, -0.01911901238503515, 0.011874434925052057, 0.011190010860628642, 0.008025473993734716, 0.005785453737590344, 0.011362354654814031, 0.0029719626528470974, -0.011941997272985918, -0.011070042542804817, -0.004146563571582475, 0.016862770582859433, 0.00636195023528855, -0.010579138074328951, -0.006045131798540466, -0.01546942624368691, -0.0217196982772091, -0.016471965422922695, -0.002449505945602772, -0.00529421133606222, -0.019144178628133574, -0.010167578203681372, -0.008527924300740354, -0.004215059684057979, -0.015154826029375288, -0.0011640860164027927, 0.0026074028675797905, -0.0009207618285169695, 0.006153246879337031, 0.0027577497402002447, 0.01820010326185351, 0.014810900726075977, -0.002851909597998607, -0.015195695515964945, -0.0039280967891694805, -0.017434965561478884, -0.0031224132078592226, -0.013148763533845037, -0.004864504100243476, -0.0070350447747010575, -0.011553235489605344, 0.003866197676302516, 0.008472680041188898, 0.0038887446990800035, -0.008370719402524256, 0.0082779225888576, 0.0005162738940377226, -0.002286804268684138, 0.005551520862861531, -0.01625975960234367, 0.0021252673439410906, -0.002084112118642303], [0.011091775466125425, 0.005258918914091307, 0.010111369323736722, -0.002437451079420896, 0.0019862823099213735, 0.006288083349161136, -0.007800831529050666, -0.0035956337559078146, -0.006560009481642866, 0.0019186504372021966, -0.008223416428883799, 0.01879118137795448, 0.01951502039373937, 0.017119000388017197, 0.0012155581194812524, 0.004174833266527532, 0.0204489796830384, -0.007663192049983527, 0.016320865788004603, 0.005442347329881538, -0.006511722207688345, 0.003007125204422315, 0.0018223702259674082, -2.5759745920854006e-05, 0.008522444903252385, 0.0013105307430669889, 0.001991693143045652, -0.00928156450765532, -0.012916711404261441, -0.018659482493902327, 0.012672089902113465, -0.011255967158353083, 0.014459368085658168, 0.0015551025142966962, -0.0037549356361884457, -0.008857921986032804, 0.013081936256507927, 0.012619545675873832, -0.019541762390423573, -0.005068441697910929, 0.011999950254120671, 0.004366038567618143, -0.0032066409815742444, 0.0016544657237679867, -0.003247598304316067, -0.014255032254850888, -0.0036110154248248246, -7.788925833047259e-05, -0.010604865215909613, 0.014213170259640546, 0.002009470629146911, 0.004963706129910093, -0.006895951421133603, -0.011543817964117183, -0.0013487062586633738, 0.0033066919376145156, 0.006238772452267685, -0.007304363514295387, 0.003584616850455271, 0.011997941158969301, 0.0076677436982359485, -0.013042426405719043, 0.01292604009173276, 0.006460817412163766, 0.011153289495616453, 0.016668531553901064, -0.008009961604393202, 0.011144563806284152, 0.006124541273775886, -0.004595475465759575, -0.002534851076158271, 0.002309930935519612, -0.008589470767532388, 0.008983497440407811, 0.02656424538385569, 0.017604932600237704, 0.014647332479457575, 0.0012889848930717502, -0.002001828522126614, -0.00441585401335199, 0.014622645962732368, -0.006017467017440964, -0.0016945091762238238, 0.01550184646249662, 0.0022346132316257714, 0.002677403423966618, -0.0007446589844923378, 0.010094275151838883, 0.009199248561776261, 0.0015514107287375265, -0.005009168542857185, -0.012860557956294146, -0.010227542560207118, -0.008725780635905211, -0.015755122785340487, 0.0024651366570790237, 0.007790766731372289, 0.00033078958535169545, -0.013072766622638208, -0.0005091389075824483, -0.002415853111961118, 0.001220894771878957, 0.002913351007181981, -0.022870202042130847, 0.01605211136686811, 0.004027155649180313, 0.003908290353875028, 0.001998771036709914, -0.009754185778593796, -0.006005812938987684, 0.008339161256958567, -0.010682084151183255, 0.0074398128934470495, -0.008169742355614, 0.0018121467731121643, -0.0028937548965079535, 0.002953191253497425, -0.009924562287622382, 0.01271889958919472, 0.008478609615357914, -0.001958679018595323, -0.01136664436867441, 0.02445060290835921, 0.013102603548052278, -0.0023517911494230414, -0.010211430373965262, -0.011238922956198678, 0.012391940444428996], [-0.0031795963022117728, 0.007952342629840353, 0.007966792993282073, 0.0004504739776320923, 0.008728277948994589, -0.029773293610655394, -0.010832221710707017, 0.010311063831641081, 0.00410252465345605, 0.013385239960986641, 0.0011812100033966302, -0.0036579312082858696, -0.005934672997708017, -0.003101487876378841, -0.00036375928699831613, 0.005608655585928236, -0.006157042779317702, 0.015524504570931132, 0.0007461858509506164, -0.005477478751292326, 0.015116655645209235, -0.000152075807131373, 0.0007324790129025629, -0.004469312004655185, -0.019904610131261772, -0.0020261188474727694, -0.007817088582861523, -0.005146485141123199, 0.004147863107873836, 0.0006330344331798736, 0.010953843631869093, -0.0031404750505155212, -0.008277263298448578, -0.010836325191126732, -0.001421873975292037, -0.0100876121246116, -0.003856964170631484, -0.006006995631836253, -0.004322466213545198, -0.011930262381922269, -0.009740815909570556, -0.010852168383098182, -0.000602094449325599, 0.0014279852975705865, -0.008899942575748429, -0.004971845508799262, 0.0054174762246300325, 0.005054524894115925, 0.003799436046048785, 0.0118996349906052, -0.008366607741382658, 0.010749656361765423, 0.009287792085108777, 0.0008170602408405015, 0.008742499777212588, -0.016039190108183454, -0.004214562613585893, 0.008651613116816465, 0.0053982748071908105, 0.002329796908117216, 0.004443947709160045, 0.007854117820075507, -0.0016531251990602738, -0.013542054171134035, -0.013185192976809677, -0.0008364789510128198, 0.004827094291021234, -0.000834042152263654, 0.006940038641722521, 0.006646503544195298, 0.0011056442513315305, -0.0037942921402218405, 0.020943857398941855, 0.017115362566772156, 0.02154179336129859, 0.0025526558045586493, -0.015463510367918336, 0.012702473291894053, 0.011425491437107867, 0.003104460695108076, -0.0003205164881593168, 0.01900500638152057, 0.00438639928098286, -0.008995718242865176, -0.002224963056449387, 0.0065547828908316345, 0.0029219024515013577, 0.01467709723623066, 0.01979168914011324, 0.003655692397552156, 0.014147329934968074, -0.004878787253078834, -0.0009235058596467168, -0.005498968993210827, 0.002522331966362318, 0.008717225170031742, 0.0027629410335398385, 0.018205148255662686, -0.018591139625789635, -0.0006011617552721801, -0.004711175933609791, 0.0008929074547323726, 0.009795171581639842, -0.000995042531446795, 0.008321928799941418, 0.008789174252708629, -0.0052596020380785095, -0.003111997132868526, 0.00026336184452338535, 0.012281078518373336, -0.0009293297044600686, -0.011451506703965355, 0.0006658200278117029, 0.008314457447755948, -0.0036478132460566817, -0.004724661750190471, 0.005325436012143538, 0.010356130720524917, 0.014545118459196947, 0.006556303982723372, -0.0141220141828786, 0.008914800425194595, -0.0020448469209163305, -0.007364007684187661, 0.0072593125908589585, 0.00495353836697631, -0.005264293040067295, -0.025355431378398356], [0.0003099406865849613, 0.006847675858414919, 0.0019532021418309296, 0.0016107601688440973, 0.006922524380700394, -0.01573655789911618, 0.00567151720282968, 0.004013359521604297, 0.0017564146354924917, 0.0025078636231667902, 0.00719995537136629, 0.01595692700355149, 0.01298010090458367, -0.010083960705501296, 0.006365142170877496, 0.012106191105599153, 0.003985864531578515, -0.014836935421567488, -0.0003589744669922668, 0.011914082025247762, -0.00013090144801736192, -0.008185425500073545, -0.010008052289341684, -0.00591248803532508, -0.006696778322350617, 0.013626034703539975, 0.023911265555146177, 0.004206884902686436, 0.001315047230959641, 0.006868847065630888, 0.007328944134706988, 0.0047746312978494835, 0.0020793155296389377, -0.0008010515243263868, -0.002966538594364943, 0.011375332432751115, 0.004595835143342093, 0.014159125146212608, -0.014888156473208455, 0.011384106896387376, -0.0054148166902414545, 0.021598189733599886, -0.007716656569186813, 0.006032837374297884, 0.002904285574445364, -0.016652836320421645, -0.005104415162642968, -0.006504172216918596, -0.0007067085720029904, -0.008706733229646576, 0.0022031240003480865, 0.007353611548250236, -0.00988224308932809, 0.006470794900183719, 0.007332271254788144, 0.009074327654266431, 0.005134254820600203, 0.00020650013520447528, -0.004152401605181408, 0.006389723948528873, 0.006033607606134551, -0.011697994303414122, 0.012557390133075509, -0.00914734527696395, -0.016219511775093502, 0.003403418863752356, 0.007468306203029379, -0.011550478018133527, -0.0002567488170694751, 0.015603722161779297, -0.015179885930202591, -0.0063582986748562135, 0.022637422713670974, 0.009026160138081295, 0.0006061924583886542, 0.010646018410538978, -0.009074200081925898, -0.015304784457391203, -0.005086489588228214, 0.00037223665999820514, -0.0026256263985914717, -0.012276625999733821, -0.007340673152756909, 0.009329931923917088, -0.012787573711895045, -0.0015473970396662812, 0.0058300318829077715, 0.013365599833304105, 0.014012740032701528, -0.0029510650268478756, -0.00165612992460838, 0.0034405978794195095, 0.002328350278631472, -0.007485585834693798, -0.01818574927944199, -0.01175448304441862, 0.010413991156413522, 0.005606303556975376, -0.01992005656256726, -0.004336289676007353, -0.0017325283346642326, -0.010741841276915144, -0.014346786743461487, 0.009726285682742482, 0.00528009199680146, 0.009334874768558505, -0.010559351318900912, -0.0038598877467586968, -0.017718563844283837, -0.026521436173925567, -0.012423290458583529, 0.004478985507826247, 0.0028166366581791986, 0.012753874981159706, 0.007018158524256694, 0.007056266424615975, 0.003073926327164785, -0.005519450122499191, 0.014891933201217405, 0.005922854859779786, 0.005263342285059619, 0.0054772356732138965, -0.00574602009855186, -0.00693955016577893, -0.011309952206664699, -0.009915218118451662, -0.0060688542209572805, -0.006370799918537893], [-0.0017458442135177105, 0.009609757814913546, -0.013560550042140239, 0.016750848292798614, 0.0013518761774015385, -0.006939162064119625, 0.004161798201881004, -0.014221430950076617, -0.010849693714127664, 0.006473895156568026, -0.0015669651063044915, 0.009231901027208375, -0.001524878263236442, -0.0026590722217943864, 0.0030296307062402175, 0.011195959091114125, 0.00308384002372119, -0.0009003760583141721, 0.005474837828721808, 0.006982723178529759, -0.003832230449325196, 0.0007481993443859358, 0.0013480191657002413, -0.0074276254263555, -0.0037728166032708023, -0.022939846358686206, -0.0029393835555055472, -0.010158599332556197, -0.004679616185751614, 0.017134220395758796, 0.0022285246213867545, 0.009903778201431988, -0.009425346137649058, -0.0037143417020282198, -0.006999218178393661, -0.003309039254704281, -0.0002264081501617845, -0.015049453082912478, -0.004348416521296952, -0.008816546931555517, -0.0006330750003862568, -0.013443037461399994, -0.0074041859560808115, -0.011528841217381321, 0.007395665606716915, -0.0009931058972630603, 0.00547678128707534, 0.00411616317090579, -0.0085001115367819, -0.00027009319216340314, -0.01615271098622523, -0.014372714972598594, -0.0017348785822123391, -0.011309254338104948, -0.003589298374326077, -0.013556388853414512, 0.0024022128079084623, 0.011373557758530913, 0.0026934979392969067, -0.0014731648062334638, 0.0025619486102860557, -0.013806638409226205, -0.0018552754970117505, -0.008326358211218403, 0.0043970462094440384, 0.0040263338923220374, 0.005658827055626385, -0.0069765885609941545, -0.014285923992344716, 0.012816361582772027, 0.0014613706853123926, -0.008934736897872145, 0.012931625239517, 0.0003699234912075864, 0.013982494817287194, 0.0013687404861058934, -0.005986671280779331, -0.016509739233887637, 0.0011180590878260848, -0.0035341353025530554, -0.006101939873652607, 0.007891099429426457, 0.0017307504042433296, 0.013186382418257012, 0.00440894582552343, 0.004887199667544509, -5.583491605730467e-05, -0.001742701171676824, -0.019224202721351346, 0.0009234874591506982, 0.007143672889176972, 0.0015889136452134423, -0.0035534273097571904, 0.002490296678024431, 0.007433299550660465, 0.007011998624466397, -0.015812732444419452, 0.011093285068645889, 0.016392498105799024, -0.005744155784607402, -0.005941270822413083, 0.014244250115619635, -0.0112995272410047, -0.0001581579882977712, -0.009396991108813285, -0.007712216671034935, 0.003994660816951768, 0.008001035865375759, -0.013984230135223161, -0.01685252799243591, 0.0010671371101906885, -0.0061767231787044465, 0.00678395100464887, 0.008010485400005356, 0.008281729444534574, -0.0021847692085859077, 0.008329226562548918, -0.013323628624323862, 0.013707591005333988, 0.00026565483461763617, 0.003816472490623963, -0.00718368699758041, 0.007356820079629511, -0.0071210564214309, -0.016170474039588746, -0.0037423016214483172, -0.00016446007780484054, -0.014888287870471986], [0.03234599937197569, -0.0035747527424390404, 2.1938631429612284e-05, 0.0009908467510022646, -0.0030558892740217562, -0.0073696892072854, 0.006929526594243254, -0.0009621494613378573, 0.009356150738979021, 0.004575735759878626, 0.0022340588905349853, 0.0018167182525993034, 0.019282439548620967, -0.010630018987537071, 0.009605809772022517, -0.010662904646361474, -0.009380230659577335, -0.0004758267647796228, 0.015037554379675582, 0.0010737464496337035, 0.002843120324857928, -0.004722586461691147, 0.009628511908112154, 0.013359154976546583, 0.0045478755552791055, 0.006152419283262999, -0.0012129685801080855, 0.007248665856511748, 0.00011993245024375359, -0.016926290514167205, 0.009167215927425185, 0.007640582140634455, 0.0016586858561791552, 0.006699523729874908, -0.01608468514919162, -0.00035910386340143964, 0.011877435462674288, 0.011165461532945549, 0.012508157383200805, 0.00941956369754711, -0.004393783925621875, 0.007148172469875, 0.003374955242110419, 0.013494679474717709, 0.014532443047989936, 0.006943692800324014, -0.006957046606845567, 0.012192918377949963, 0.0038226750336846677, 9.044979201637242e-05, 0.0040303735213611455, -0.00728507048412111, -0.013310796946342622, 0.011529141409067047, -0.0007881592215256813, 0.0038810603929007106, 0.002441247681277751, 0.026574825571295833, 0.004627965765954956, -0.00786963889917077, -0.007419656683113014, -0.010003096120302559, 0.013074090495283176, 0.008724922160896023, 0.0029614104411777955, -0.0004434749940570369, 0.014602080861679774, -0.020471774945486777, 0.01668825963629124, 0.008326448132716052, -0.00521395018966677, 0.006330050836828792, -0.010613067931851738, -0.004338469773355823, -0.005290272664890104, 0.005689894169130269, -0.013817858933740724, 0.00947551806933551, -0.014792789506158656, 0.016805287266308828, -0.007750952230590176, -0.008583558812053636, 0.002006018083539315, 0.0025631306277150772, 0.013385716176012433, 0.0016503767919621923, 0.00964399504562911, -0.004598626145806975, 0.0023026934600507525, 0.005851106772880588, -0.00763315689274202, -0.00561393476513384, -0.002342356710188106, -0.013883228032451287, 0.002575977033401542, -0.006028796945148335, -0.011592813318163806, -0.006180364640808117, 0.0048083121330314, 0.0008226020042404192, -2.080882245606171e-05, 0.003055050109928573, -0.01063416565626719, 0.0030523363504748645, -0.011809448133346513, 0.002594370721430238, 0.003655901525708286, -0.0020194315110466485, -0.0179099304270784, -0.011096415421198587, -0.00019792557901372745, -0.002892111764895094, 0.004389742032864031, 0.0029784144692062437, 0.00564786960707937, 0.01627191997657722, -0.014489518487249527, -0.01876427189665743, -0.0019066661819468697, -0.019272174148591434, -0.01932108747177608, 0.003145126680180739, 0.005514007303646122, -0.016649085550203897, -0.009740057163393377, 0.00046389399046289714, 0.006660510529807756, 0.0006637847535555404], [0.012304595647388046, 0.020428182729519902, 0.0012125045070514966, 0.007210960301259374, 0.013598154227911528, 0.0044477918493898965, -0.009825113856474303, -0.010664264599206831, -0.020010150461782877, -0.009503258626704966, 0.013702007533476265, -0.0029636760347058074, 0.00880515742750337, 0.005419718573427096, -0.01660172919065284, 0.013543088711515707, -0.005751192243460257, -0.011696989797437093, -0.010870508589487005, -0.01145448298652847, -0.008616153505853444, -0.0007495236195957726, -0.0010230093031347786, 0.0005640084753686208, 0.010769253404656847, -0.00803765538658322, 0.01874744714439431, 0.0008337138090368116, -0.0003038412518807545, 0.014502990784046418, -0.00034252456804908144, -0.003930912774712952, -0.009081001734364763, -0.008664217693472382, 0.0007821849621546548, 0.004166139763610764, 0.004480979354061594, 0.019080973379297966, 0.0044292348038468, -0.003914157669829168, -0.009647128522247443, 0.0017066282030347383, 0.010444911648370343, -0.01161043929972355, -0.003365246621013488, 0.007640175410918232, 0.00363622485215296, 0.013488843621677411, 0.008555744036591968, -0.0013638641118140869, 0.0003598712983403726, -0.01334881643204359, 0.003771691393717033, 0.018816832935440026, 0.0002895845137274602, 0.01543797654584484, -0.006788631678028846, -0.008963905919506396, 0.00667239895793467, 0.005459902889577222, 0.01644631013739439, 0.012053398399754917, -0.00047242405387817405, 0.015578894452159785, -0.016169178253779556, -0.014307924981171699, -0.008232918898983997, 0.006864095458978856, -0.002701548475805305, 0.004749426023338747, -0.006676092924939888, 0.023991799760287022, -0.0016257587714961707, 0.00577871255012821, -0.00044266292092458087, 0.009767501322191448, -0.011705249905108982, 0.007529471392966749, -0.001313495236284122, -0.005613040918493814, 0.010114996395766716, -0.0014782677064335715, -0.003039194192963536, -0.0016602869323917775, -0.0259808997713732, -0.0007210596543092304, 0.003725831646590822, 0.013653866497598414, -0.006201769299534102, 0.01700797139286513, 0.005414059508879842, -0.0025634528680770386, -0.014891683665929818, 0.0250189621199033, -0.01648064103220373, 0.013695763494508241, 0.011128012328848793, 0.010538547378727812, 0.009666379776314151, 0.010970781127643315, -0.005874308689451086, 0.014375403087115237, 0.006932823612928678, 0.01078615977698497, 0.003299095189110406, 0.0012748756122730237, 0.002861886403183185, 0.0030373649218981076, -0.00043626135665251803, -0.006189872105489859, 0.006418764861736314, 0.009837284106267675, -0.0013779133604590967, -0.0006590784987198679, 0.012147845376220916, 0.007429671661871766, 0.006872989658325746, 0.00483237706075196, 0.005914932205283289, 0.0016016710032393953, 0.02026800501834028, 0.029916208746216193, 0.010071558603124378, -0.007259943322774529, 0.000991969627599741, 0.007738464505774676, 0.01768871368810877, 0.01205048638090699], [0.009407817066230032, -0.004558428214861329, 0.016440216833884073, -0.0005488163762099709, 0.011310669188959, -0.0023038533426192123, -0.0025947325102497966, -0.008752369008149696, 0.011245012787332538, 0.0010685860713267664, 0.0030435438626262154, -0.008745622573762553, 0.011021986718765527, -0.0031841142890672264, -0.00927655601868892, -0.009748585076636894, -0.005795795604497015, 0.01816217312544088, 0.004543270689734615, -0.007230640608863446, 0.0033098515658060625, 0.008028565845463284, 0.011260933803037259, 0.011344287335559089, 0.0019644756789673145, 0.0015340646053614276, -0.0164935195631865, -0.0025929712825420006, -0.009870165968958297, 0.0037807189842676827, -0.004250953399435335, 0.011255748441846932, 0.023219969232626564, 0.0030207216639322964, -0.008485322202250033, 0.004086003513516307, 0.012520608424899516, 0.011233206762343849, 0.008372927092843709, -0.005506208084108243, -0.01334239427288656, -0.004944153597384463, 0.023621064812051857, -0.004347338958580058, -4.4516783822493766e-05, 0.017537465601588444, 0.005078689668443963, -0.009687645949136802, 0.0010683204977265722, -0.012423029328697639, 0.01355092697148465, 0.005414712252343817, 0.02027861111112322, -0.0224666322765743, 0.007571694513186577, 0.0049286076675515, 0.009478796213675708, 0.0056545663736721615, 0.018416423784220034, -0.004995074994069014, -0.004705237509347255, 0.0157238411439025, 0.0017482615807515745, 0.017604373101552603, -0.009699951192111193, 0.007325496942311957, -0.016605735069864836, 0.004278474316918112, -0.0073060919544768775, 0.018882408264820377, 0.017056084953463634, 0.0036132274473262773, 0.01751811215172785, -0.009245966367703695, 0.006723830057209184, 0.003479238065114609, 0.0036993308534374043, -0.0004476737269733305, -0.004586827610163762, 0.000885797724091174, 0.005735164606135812, -0.0010031542647980455, 0.002376353250452505, 0.015042274276301707, -0.00966271387640979, -0.0005519834418495323, -0.003454332066661951, -0.007379375382063062, 0.018547669080082773, -0.003535747514762721, -0.000693929643208856, 0.012364374773572107, -0.01101549600107272, 0.005603529086238763, 0.01967523942487634, -0.005193131736255663, -0.0071645885820034285, 0.005002380985619455, -0.0002890144457684248, 0.013932079518804432, 0.01856029585749381, -0.0030429549369309873, -0.02583317347114243, 0.0038851100831399604, 0.004719062229682761, 0.0037355193896613315, 0.009758584510826904, -0.006322354871001146, -0.0061785659333300595, 0.011251236416394908, 0.015454727174556608, -0.00502830228041363, -0.008386268167779428, -0.002056311927752607, -0.008286228854930298, -0.01759830949044748, 0.008834082140408048, -0.003902461655737075, 0.016964321112534677, -0.003443485688739143, 0.009048642923624143, 0.004203126675423796, -0.002452047593219817, 0.002134972548906921, 0.0012199614470193053, -0.00972193525189578, -0.007561571437370229, 0.00043649188735972054], [-0.006667556226932054, -0.007824958298332203, 0.0026688923278252964, -0.004641378715745106, -0.005784975888216469, 0.02102911107734955, -0.004418643542970589, -0.0003150731399763557, 0.0007520293774470627, 0.02089335608521974, -0.014273815163387946, -0.007669457551544607, 0.004060204529233882, -0.011750728218702782, -0.00856540659281806, 0.005224474232396485, 0.00376261650038988, 0.014116292517886408, -0.0003577960886830493, 0.00023333173359082234, 0.011809152538511733, -0.00885577021634471, 0.0064696766947134245, 0.0068413543117421425, 0.022729995055388606, 0.006818484310640024, 0.009643714712129254, 0.003398351515325863, 0.006451750346155872, -0.003141491347458108, 0.0015358990946651872, -0.007344708148747523, -0.00919832291273447, 0.0003217794875946313, 0.003026028461411354, -0.0029804886743675825, -0.01034189400189287, 0.0005951630604757222, -0.0074703033193841955, 0.00761469542771053, -0.011776015305589489, -0.012600849704603073, 0.0167038885430117, -0.002358742063024308, -0.030707042112948738, -0.008623605742216538, 0.021593735395020585, -0.018960564523647867, -0.00934350366186606, 0.006001899411475027, 0.011053308422352538, 0.01021928978198995, -0.005644983495613249, 0.01032941097046523, 0.0026032280859506064, -0.0052533556638447035, 0.010399902858227162, 0.017008934129961902, 0.015341673887742777, -0.003361726574371757, -0.02074288658847063, -0.011117543454946715, 0.006883051205989872, -0.008758148787866921, 0.0039943216955651865, 0.001815135258923362, 0.006012011753199823, -0.006275242909562399, -0.00088867490654935, -0.00481422500323715, 0.008241043352441588, 0.011273173205470671, 0.005324451509108774, -0.008874681372547159, -0.007361599965661598, -0.0004554031760465033, 0.018988758067297086, -0.002781535360034082, 0.007132742163009885, 0.006929930829536687, 0.011569916679387858, -0.00655958795312447, 0.007069903993835309, -0.0041875033362902304, -0.000581302794252961, -0.012127196479526314, -0.006749472141719399, 0.010823301933261498, -0.005343937578654344, 0.005740051060671877, 0.0022185133063337163, 0.005894958869594199, -0.0023502761862376218, 0.008648332794592534, 0.0007679028834406928, -0.005330909577640589, -0.00590122507710357, 0.009474983965782037, -0.0052674756919932385, -0.0004152604044478552, -0.010345998228200431, -0.004853057508264653, 0.008109323429867593, 0.013485018513349597, -0.007144268531016086, -0.0021411557642223734, -0.0008678249487489236, -0.009217825808990375, -0.022349836448335176, 0.01887216138806849, 0.0020866694976970695, 0.0054027099426771676, -0.012536272929040436, 0.0026802605859075385, 0.005624246808498942, 0.0026982376200246506, -0.0062040348221720784, -0.00908940900873649, 0.00023244309265244446, 0.005311080331211975, 0.000827038305636179, 0.0032003904914287805, -0.005395172487758431, 0.001140960931515948, 0.013288181580519141, -0.0016570234793716605, 0.011825190372379269, 0.003221871571920327], [0.0049195588682462415, -0.0011689077043535061, 0.009877880678288617, 0.014031291183665367, -0.006142142861254865, 0.011600309641293112, 0.001922050993334209, 0.004909857462164492, 0.011819317048914105, 0.008931358252317102, -0.0025936795178710488, 0.0020484047743393055, -0.016577834886869806, 0.0076878561186683545, 0.006614373713089194, -0.00951199355482457, 0.009451081328644046, -0.0021546176327974457, -0.002882699912949177, 0.006991479768859775, -0.002128653253835773, -0.012204342117922339, 0.015451349887394352, 5.6396502486528664e-05, -0.011168599672198552, -0.01291368227910653, 0.011101237505790805, 0.006679134787587535, 0.014894721147044777, -0.004002110176060945, 0.021969762930393592, 0.026161686057602742, 0.011247129606509858, 0.0028048759204249486, 0.0021363561642016287, 0.0132474549679595, -0.0036021283703377544, -0.009712220730942732, 0.019777278762485237, 0.004860798985150763, -0.005779212605158136, 0.017145029327200103, -0.011767861369040893, 0.014856052860415398, -0.007259979494656128, 0.023744980968913088, -0.007791043872445196, -0.0015851427696889529, 0.009543115072541925, -0.017721213719545343, 0.00354185029297874, -0.000605644753918643, 0.006343056834256592, 0.005830652578768286, 0.0065694192971280495, 0.00961159748492409, -0.005332668763589713, 0.004256573929564892, 9.187127969636256e-05, 0.011292031226518796, -0.00010848652738523324, 0.014094044195370697, -0.0037434006590154572, 0.01378880462720005, -0.015124008197184697, -0.002130764625880712, -0.008742564112618142, 0.0011492237196201601, -0.01302817914303775, -0.009708638298649649, -0.019368329093830804, 0.006132060748984915, 0.0037229119056449746, 0.0032130780595386738, -0.009194165752540185, 0.0006651258866238111, 0.013187457091582982, 0.008168344988678492, 0.0038827527450627525, 0.002466974943664587, -0.0047024019347092025, 0.0042336005181537635, 0.016059529043707232, 0.004547022888374651, -0.0006756716442660167, 0.006465024154264809, 0.009776584257257819, 0.00622972182343191, 0.010017011862829401, -0.014281025779790686, 0.011820829379597211, -0.0016841593281402942, -0.006055020345207308, 0.003965931523061436, -0.0032397705390495714, 0.012196844995768976, 0.010936087891362287, 0.009270361766766804, -0.005519873144395929, 0.0028786842113134657, -0.007296304016003443, 0.005989933417828802, 0.009653352625097115, -0.003927648710167854, 0.0023239909764042783, 0.006936785429573599, -0.0026680514793793715, 0.0007920942792384423, 0.0048518111826126335, 0.012189930139467129, -0.012880300712903954, 0.005704300572685405, -0.007661031930624658, 0.02594233735109831, 0.00417874536156537, -0.002955949379828502, 0.006135455040915702, -0.013382989672931195, -0.00040076850819622113, -0.0005588744352117364, -0.003530213771637072, -0.033520936233228, 0.003885336643674031, 0.00631236741368891, 0.006257236689522881, 0.007401261263385657, 0.0008137161026184326, -0.008321264353226757], [0.011486961173176961, 0.006914248265544965, 0.012695518134132671, 0.0032721628533856468, -0.0017065719760929105, -0.0014526182776096585, -0.005330984928096368, -0.0010918377935056685, 0.0024466140152273504, -0.023027012875350535, -0.004445329752819677, -0.0035717915314131044, -0.020228624650620666, 0.0043462968003188844, 0.0056123720437154115, 0.007841352528847066, 0.0025475633406410562, 0.010099138801167917, -0.008815022195990016, 0.009496719386463603, -0.003420455817426087, -0.004166311919379586, 0.004836579772080321, 0.007112683276831182, -0.0014000861390192822, 0.005930443253785151, -0.009395816528109524, 0.004038615162300091, 0.010075912809888779, 0.0024189814501901063, -0.006386682558641249, 0.021261471192727407, -0.023107293517092804, 0.009958967728975214, 0.004650116684034286, 0.013768206604282622, 0.0007956607660328528, -0.0019088773965583036, -0.0050414145188585726, -0.010989020061351518, 0.014173164120783803, -0.009064315092483318, -0.010250163749761978, -0.01636150915919591, -0.003984748163733306, -0.005055658249930415, 0.0019884472933067716, -0.014815176456684839, 0.0025494553674032827, 0.005044948622480775, -0.015483417696122458, -0.00039854264711203854, -0.00020108962697720035, 0.008447755401692214, -0.01564170154528676, -0.005817609141022519, -0.008238961525865006, -0.008602882907981044, -0.0005214031043858773, -0.0008850469336557221, -0.008364495748852277, 0.016353495559306916, -0.0027236353989212553, 0.007882619535112352, 0.017675723477473645, 0.00969190114126634, 0.0028454447179660446, -0.014485319636286327, 0.0020572330727369166, 0.01173502717066862, 0.007743690955833416, 0.006856150911737861, -0.017802452137194207, 0.001445395255040222, -0.002361326212215027, 0.007174592969664539, 0.0036681194957870547, -0.0004857036985401769, -0.0010125574846633276, 0.002900448999763329, -0.005470267569654393, 0.00539543691808339, 0.0006555896836229431, 0.001168214710974893, 0.017266286131264536, 0.003082406115196109, 0.002807473584731768, -0.005762669797916083, 0.006593629841763623, -0.002202830827642648, -0.002282498642789117, 0.01205190283258023, 0.015276404845146899, -0.018971870119885298, -0.011642865869349815, -0.008994036113613591, 0.00799170124733586, -0.009305762327483326, 0.01800378422382009, -0.0026924715851057417, 0.014246182190935137, 0.003553289261665178, -0.011172644833839824, -0.008984377391097968, -0.0013011258521030695, 0.001409775278580969, -0.004001720898598683, -0.018714918061864955, 0.021164877133880086, -0.002452930354194462, 0.005811268021569026, -0.014652257442900387, 0.0041480331480267625, -0.011284123437980445, -0.012467838478210898, 0.008496972463359738, 0.0090046096097458, -0.0003615306041752715, 0.006865987580198382, 0.017331502501802796, -0.009019099044476267, -0.0032733951809528388, 0.01200012113000593, -0.022025834420923065, 0.010853804466013974, 0.011327282125865824, -0.013922833102153854, -0.002160006786089109], [0.007455379494951491, -0.003656606732445722, -0.006890093697176396, -0.003971257507319478, 0.015159944664103685, 0.0074539919311308826, -0.014293767193035819, 0.017307896810373084, -0.0009661358831655191, 0.009070594776211966, 0.023268586034644562, -0.007443835719832386, -0.014915150396758184, -0.0021333418575289957, 0.0050980225030709935, -0.0020785446674244394, 0.01841978628059424, 0.027004486671401606, 0.011759015626489962, -0.0005281542138302679, -0.004132706898002209, 3.263431902572891e-05, -0.020733380927083874, 0.01174128042392689, 0.010332228108474364, 0.000494568725355807, 0.007905171131441456, 0.0010459175116424775, -0.003802165980493365, 0.00230936122145409, 0.0032822011625260267, 0.006793206647111725, 0.0029438892787328487, -0.002448005564066039, -0.003239189917594853, 0.009814508173204554, -0.026689006595133524, -0.011651276363711554, -0.00036792858768963356, 0.004502999050772808, -0.004805092969114192, 0.00822355473958912, -0.006583598210436027, 0.007973532824080422, 0.025276842806494504, -0.003611651364576856, 0.018302685106399347, 0.003989362457076277, -0.022327934412087896, 0.006763987181906717, 0.010824081512391696, 0.0019609409913637983, -0.00019345250922193102, -0.002310515641458118, -0.008759168111785433, -0.016545770415692773, -0.019082605224521248, 0.0025540936505286764, -0.0018571685326673182, -0.0216078634648403, -0.0004404894521610227, -0.000995592004065423, -0.013816171575445528, -0.0004245149454325144, 0.011427623712389097, -0.00028484287615718955, 0.00039740525900501663, -0.011116829808547784, -0.008986711755863977, -0.0009178953129966032, 0.002633993284139846, -0.002936604027061547, -0.0024331645411571077, 0.003982903727191454, 0.006292950701652696, 0.0062746198425552525, -0.007522404538037258, -0.0009987864310096297, 0.00328282132813343, 0.00420128656118454, -0.014533201617655674, -0.008878158003314787, 0.005265686877196572, -0.017754001907292805, -0.015432550543690882, -0.01094451040419963, -0.0013714700812543083, -0.014288737096102422, -0.01083575901259086, 0.000129646258204142, 0.002439266713644015, 0.007706157131091956, 0.012530627835898039, 0.005476465012766269, 0.013421145143657949, 0.0003118369388035212, 0.00037163730586464087, 0.008713412906498392, 0.0032895140169571227, -0.0006037234630886174, -0.01136111266295718, 0.005413272049332195, -0.0019611710543557064, 0.012657379417163923, -0.006262942167238038, -0.008056910099847473, -0.009728536599689946, -0.0012453814534235702, 0.01177592735201334, -0.006090613824903395, 0.01637947581674545, 0.01841243751866593, 0.007509463237863813, -0.0045163148820188395, -0.001856966742924705, 0.011361289575409146, -0.013019186809482138, -0.007141325545566273, 0.011082930288010877, -0.01602873894563946, -0.001802967729290394, -0.0026998383275183514, 0.00251480271749847, -0.00515215306378453, -0.013736548554831756, -0.01433816488151981, -0.004879599223848944, -0.00884619174195082], [0.0093647663953404, -0.0068855592767481585, -0.0103134145918471, -0.0003296828456464032, -0.007959696647306303, 0.005169635332579623, -0.016243687348905293, -0.010124285021553252, 0.0013430917823399006, 0.0003847467879028446, -0.008348512177110313, 0.0030549215372693552, -0.009517245924106254, -0.013028977983093182, 0.000644216783126807, -0.008821814183560346, -0.0025173369445451333, -0.008385237809691862, -0.006774590948175803, -0.020469448240394122, -0.008083571087627922, -0.008092968117376894, 0.008344704385606814, 0.00405356984575049, -0.0037346122806116923, 0.011012237020593766, -0.026929381301824953, -0.007278122958130805, -0.0027669797061638302, 0.013669644114613447, -0.012483665404475784, -0.0022554916121493686, 0.0033014220712964, 0.004255966806986667, -0.004192063715523814, 0.002533090790337341, -0.005546627249711057, 0.0012485805078790092, 0.002863409907799854, 0.01118783753692846, -0.02795983850985194, -0.00655613485382123, -0.006162650469276463, 0.016113916890892893, -0.006444401958397545, -0.006963850512247709, 0.004990879422864627, 0.007884061844266326, 0.003612309589426943, 0.002642245250718554, -0.022639251586439767, -0.0017638736227649906, 0.0027106320977357615, -0.0030969127403469004, -0.007075908687576254, 0.006396940895695274, 0.00241468793019027, -0.0011981661126626666, -0.00436221375272972, -0.00028676890408418617, 0.0005288749796025612, 0.02355646306490409, 0.011055680368854987, 0.003689955171124878, 0.003951699445512604, 0.020293115500668358, 0.012969045458568366, 0.01731714258111221, 0.0017119584952038113, -0.0076713459365476125, -0.0164949251924111, -0.01137720666877871, 0.01247250763622829, 0.0018435636316159706, -0.005376058616312293, 0.007652499735445701, -0.007524571602668995, -0.015417270449579742, -0.003172038854065045, 0.017406883190110786, 0.0024066219780425223, 0.0023159894162500232, 0.009061813929087285, -0.0005121368845485096, 0.005067746057383455, -0.007664604077485566, 0.009187766521138667, -0.007323248895506387, 0.0009274795551511126, 0.0036310592900639506, 0.0006248673161636289, 0.02435073745526037, 0.020434811230386717, -0.016321684009206937, 0.005095428255942013, -0.009176580613072131, 0.004611801199714085, -0.0067945652430069945, 0.011131164099479058, 0.014929014270401235, -0.00570946928737013, -0.00341645499493924, -0.003374926410299225, -0.0006326517083663911, 0.004186909093625083, 0.007639172202649183, -0.0029677681837081402, -0.006579305498804514, -0.007544569964387133, 0.009588172624028883, 0.016943205359555832, 0.009445762669389722, -0.006251556522276818, -0.0010421090692772782, -0.012177575036229647, -0.0025894161883677253, -0.0050927551992406275, 0.0011245246221790201, 0.00992562575178205, 0.018049391604374142, -0.0024242375876535843, -0.01133189990331608, -0.01158717621777987, -0.009307788898721787, -0.009467307134372396, -0.0019245992149764723, 0.0005081910897589207, -0.009172559602829453], [0.008188226521135655, 0.013302501049353493, -0.012599674025184705, -0.01234640724595059, -0.019051339689668864, 0.0035113631569046564, -0.013481618135138887, 0.0005846785727300971, 0.0019384773175058591, 0.024588954390147452, 0.004139704049400716, -0.017870944919827436, -0.009591519360864033, 0.003146314317474105, -7.131196122319388e-05, 0.013600391749702217, -0.010681682233784717, 0.021156918929763045, 0.0038732240783982356, 0.0026174817329176828, -0.016954814009611355, -0.0028351369973807178, -0.002263694415799522, -0.01492278006377399, -0.009842411502691259, 0.017289919867792734, -0.006078599299250699, 0.03355797362999336, 0.00258000804428208, 0.01740735278733633, 0.007978490472591694, -0.004237845667443514, -0.004881012231142198, 0.020721669928590154, 0.021984206383523292, 0.01223880313745945, 0.008108163658307126, 0.005635512232109715, 0.00023662594697094737, -0.013271450937490112, -0.02131187962446786, 0.004453870071403592, 0.0033928579318449905, 0.010140303995838932, 0.0030603126040896988, 0.017291006721383367, -0.011697861718824093, 0.01597240263933167, 0.001753573192805679, -0.0033722927933328884, -0.012709287727079355, -0.006380712751757824, 0.023631804025250544, -0.004628929785620265, -0.02367082617112683, 0.027978006671413324, 0.006761001447291554, -0.017320828992385896, -0.004536315943582975, -0.022966916842582782, -0.00616588024737813, -0.0016466222710253998, -0.002773046117216577, 0.01042005805625215, 0.0006413013582553083, 0.019104981758105065, -0.009272723041525098, 0.015415256043572193, 0.0159281808693819, 0.009226608639905856, 0.02850818396044873, 0.0019083701778139864, -0.01345244310467742, 0.010803108271258414, -0.006308419149532089, -0.011691403236526966, 0.025274878757005795, 0.02093565762124253, -0.004031863213276383, 0.016868100444116983, 0.0025651956755204895, 0.013889798226859153, -0.007499752017491143, -0.0025920998438277655, 0.01003784427053507, -0.011939738626479934, 0.03266099449094601, -0.009418860472845243, 0.020190295012675566, -0.008589184534975163, 0.03902050023766121, 0.01124458322287351, 0.003588773157193103, 0.015205962258809528, 0.019997130382811153, 0.012381270749214694, -0.01670114898270691, -0.009284493883783594, -0.0060863754816181115, -0.002246716005026561, -0.0024979817040741686, 0.025505962929243058, 0.034974732158597546, 0.004773640124820354, 0.0038906751907752217, 0.01074787658984364, -0.013904864581293246, 0.014989777890859188, -0.010755191405932693, 0.003855214878264306, 0.019874490149081107, 0.0061981659184756335, 0.01146659251182762, -0.010495312419254856, -0.0018484577363377542, -0.03086656494180957, 0.028785317155609353, 0.024683364554204126, -0.021622505165212597, 0.02611155411396158, 0.013471819558235574, -0.010635183061240101, 0.0021339757471271663, 0.01151588911780335, -0.002700009617675636, -0.001955614230665593, 0.010079369895790136, 0.009287942569794289], [-0.017528033788771345, 0.23504450860733578, -0.12288720657300695, -0.0747918193900777, -0.009439680153106976, 0.0026759564613269473, -0.022883778640043644, -0.14670415042384263, -0.19486570724248725, 0.12212036209498321, -0.0040434369594198475, -0.15736941034422633, -0.1449513968746141, 0.014502104949984178, 0.09801720677749487, -0.003397820618499969, -0.058945469916545506, 0.20453657715939647, -0.16820641174815273, 0.0061248229663051846, -0.015543920851302614, -0.07169225663752617, -0.10056050721305732, -0.16584837693905022, -0.14992668193884545, 0.1767666150710347, -0.10346287694430785, 0.2006566913043834, -0.03160416050433945, 0.1516629144698591, 0.007324440186079999, 0.050638934028955536, 0.019378658478441172, 0.10405864060879373, 0.1935112849304181, 0.09348409996988946, 0.00937815061780908, 0.06943296901030759, 0.10465805378317886, -0.1936431209341981, -0.18227108474621578, 0.10492359678721458, 0.0008143714252824912, 0.14222266437403946, -0.11017075432646684, 0.1697050219584576, 0.1596925493822257, 0.0815678141134463, 0.18814756489289344, -0.0795693907081203, -0.18787523363991537, -0.008577316440274424, 0.21883322603264982, 0.09374183834755147, -0.17878180750441658, 0.20368125005600746, 0.18787011859519748, -0.16724684762468528, -0.12197917076276299, -0.17643399844246793, -0.16741054227657098, 0.11879904573859572, 0.010609036834416373, 0.02979718019114274, -0.18430613979491406, 0.1887716618835135, -0.05233990682182771, 0.0984371187399083, 0.1842242314121604, -0.1059131848119636, 0.17426727962332858, -0.07516277179339036, -0.15345046126445902, 0.2029004834815147, -0.17721714074954945, -0.15203753687264526, -0.012666471933784012, 0.17326716870756967, 0.011747745820628597, 0.07717935834576192, 