{"layer_0": {"weights": [[-0.0004288589001392582, 0.0024732559581814723, -0.008966680988093103, 0.018385592845973825, 0.0028191722853265796, 0.0019312907446899692, -0.023953411474985566, -0.020472838496180295, 0.00037782322779630504, 0.0045221617827058596, 0.004326204610807286, 0.000766235221850009, 2.2257651917873604e-05, 0.0019906394898249573, 0.0018877737947870148, 0.014023908992323586, -0.020218576764879412, -0.008790522939401193, -0.013155114412590652, -0.0036905951832411615, -0.011768304677640997, -0.011443793691654167, -0.005070463867470141, -0.0066224476272846175, 0.00218873782843001, -0.0006241168686472995, -0.004447031204788605, -0.007876712816554398, 0.00508506185923101, -0.020319387912611425, -0.007538867856137253, -0.016072500033750957, -0.0072641265273094505, 0.002368093191952937, 0.009154821566180865, 0.01027526570408374, 0.0057083731119395385, -0.0018818865958398318, -0.0232376987169041, -0.005839310333257457, 0.005029238702428931, 0.007939784561295946, -0.0011453917485724043, 0.010641302406435507, -0.004815553329568747, 0.004893683236275972, 0.00025863735920603784, 0.007295755142084257, -0.006719534902578548, 0.025393049139056, 0.011485083410191234, -0.0215179429690361, -0.006971926197871986, 0.0025956265251845883, -0.022233673500965282, -0.007072639470734256, 0.0020097549244342443, 0.010192371815306222, -0.008980533722169502, 0.014033029265094227, -0.015673775718886694, -0.005582198150320401, -0.005015399589239414, 0.010060987782266976, 0.0038423379068496873, -0.007533750915656138, -0.003519690607615111, 0.007144084700931089, 0.005025707888677653, -0.0006410092397088177, 0.01545762586476602, -0.004849920584712024, 0.008563198313590467, 0.0027883079620359993, 0.01310281303889208, -0.01071636185709873, 0.004635401860384591, -0.0025578175052002705, 0.021632812501006994, 0.012210492849051577, -0.005518747021466762, -0.008879578763733423, 0.025684906555845783, -0.004478693939249242, 0.0006772456325403264, -0.002925608676918454, 0.004992609026476755, -0.007924556628223113, 0.008189894698670978, -0.0010868252655016862, -0.005071357918700833, 0.006767738979943308, 0.005847002548968332, 0.02255937060169438, 0.009134149917513563, -0.014883759763995634, 0.017950327770215685, 0.009779563960157552, 0.001904248205146128, -0.012547603002392698, -0.004802674635162521, -0.0036425280096053455, -0.015299921599749015, -0.0026555246037121994, 0.0037162375983071892, -0.004185812370844924, 0.007605706582048769, -0.002280122798830751, 0.001938045591116281, 0.006655061900330161, 0.010889719671528365, -0.014322247875123617, 0.007823780320640605, 0.016787905246924546, 0.0015241975446043526, 0.0021732838841036456, 0.008593710325232533, 0.012750261122774161, 0.006798125494944715, 0.006899627923594948, 0.002880193043466287, -0.009236554713483986, 0.006807865561021398, 0.002449673481678363, 0.0006934960235186636, -0.012179065298623521, -0.00934260801913406, -0.005488994495015319], [0.015338158589907985, -0.0006028601315747939, 0.004315372839680223, 0.008066600462712044, -0.020964941398048765, 0.007996426353529184, -0.013263593358386118, -0.01394016821431587, -0.008106526304758301, 0.013619348141206973, -0.009048582495641472, -0.009930557869470167, -0.0034416075818929554, 0.0028848737276505327, -0.008446362917202733, 0.003283872029856325, -0.03127121486431837, 0.003795418038994442, -0.004721533106282273, 0.009389903246208626, -0.000399969312202859, -0.0029481007145771543, 0.0066965908755952566, -0.0032373063464314488, 0.02789294849615032, -0.0013095777861610145, -0.013935642369386953, 0.015003220492287018, -0.015057070625349335, -0.015041878701520791, -0.009519892428272511, 0.01294357491397686, -0.00397299749049045, -0.000702669157625991, -0.019328928575237787, 0.002296551306468331, 0.009567079788189096, -0.0019175410258018691, 0.006480190848679291, -0.0002872293950713359, -0.002218473216759045, -0.0046998875913303794, 0.0004501525675747409, -0.0034229011088801214, -0.007203702830262099, -0.004180338164303024, -0.013442028012711953, -0.027533039574530044, 0.006001749402546032, 0.018420883648765655, -0.012087880104685257, -0.005539437648476681, -0.003495675591639137, 0.0036957244804356167, 0.014855444578722194, 0.006992618866810751, -0.0032216890510262087, 0.001427483514485624, -0.006237204703374757, -0.014571519578519923, -0.0009100317146790808, -9.331045414430646e-05, -0.0009657687222328302, 0.005578086761771367, 0.004896396200768071, 0.01702449859804047, -0.00296484381750817, -0.008623583801986362, -0.017654009491597136, -0.013335909884516804, 0.009742523242942547, -0.00012420597117549818, 0.01403912968165394, 0.009048944570728804, 0.0068371618928497226, 0.010635061517548791, 0.02136709641238167, 0.0029378099874956616, 0.001906278402322112, -0.0002904512636496175, -0.005231018380372995, 0.0042751583442836695, -0.0024539253744271174, 0.015737199578382165, -0.001359459101049319, 0.006636931820163306, -1.479783863979588e-05, 0.009912002308844231, -0.018167503577248945, -0.008265550568105594, -0.009539489760125782, -0.0037633720264049963, -0.01362644338860057, 0.02036838313481699, 0.02664779116584902, -0.017131937174491713, -0.0009279048862751337, -0.002448034697085542, 0.004923666060620199, 0.014323740849242293, -0.018587304549988092, -0.0019679379843167595, -0.0026084909672926568, 0.0006524986692963931, 0.002903886715077268, -0.007515554816006883, -0.0053838957729243275, -0.007508203580595952, 0.005146495924669741, 0.0017301803358127196, 0.0032880956169848035, 0.016468276651494175, -0.0034081843458027036, -0.010932396228219869, 0.013515711165715259, 0.001900552815083456, 0.011232650549949982, 0.008429991179775687, -0.0028512211658611236, -0.009944186280275573, -0.004589530671697494, -0.005421457680300778, -0.0013586801809690404, 0.005778388128850504, 0.01440714356326957, -0.008385226766663893, -0.006461331728780248, -0.007421268635018198], [0.010825362184378245, -0.002941671029143006, -0.010436829669356858, -0.0027253810244517325, -0.0013931560444968994, 0.014057699559710708, -0.00704680859341898, 0.01398597228885071, 0.0012894115138502257, -0.0021450176054568816, -0.012844004211887566, -0.023511161622892334, 0.009074892833302442, 0.0014270626683892081, 0.0008370799900494488, 0.012063165115281983, 0.0016466944933153337, 0.002409892082889348, -0.007666330928336957, -0.0024990664109408502, 0.003962108887964268, 0.002704890587127507, -0.004980588551139031, -0.01299486434409328, 0.00045811528153728425, 0.014827446512542211, 0.0004474284877698619, -0.01120410088491223, 0.020593686891588386, -0.007859417439365388, 0.004748431834160887, 0.00463469130456894, 0.007954332830778768, -0.00188647546986317, 0.0083865184438663, -0.005714780610157117, -0.015063216951031244, -0.0020650878869443233, -0.0234483418730586, 0.009854994200031478, -0.018263542574735028, 0.006131002509824507, 0.000351336245565595, 0.00970042814579711, -0.01710145559150707, 0.02590256217666157, 0.006889090517024318, 0.005203405490922967, -9.222823544592146e-06, -0.013599632834835798, 0.024144073211134806, -0.027713745699009983, -0.0005818909522616975, -0.007806531923366924, -0.01279473326713002, 0.011425218267551242, -0.004267268193396534, 0.0066789813968147465, 0.0010956137328964454, -0.016738609428283896, -0.013600661948652002, -0.0035003764978498576, -0.002097437737254079, 0.014529854023800744, 0.004156697343865608, 0.016842219709689032, -0.014992618088535537, 0.0016909954692498153, 0.00644036144177126, 0.00594046258992705, 0.017410989751686545, 0.002319509345779478, -0.004215008015805632, 0.010490506349134702, 0.0123342630732919, 0.0005548757897968468, -0.006006023971686312, -0.011701343122084998, -0.011327894522360351, -0.008646448804094771, 0.02781868177887899, 0.020420323537737765, 0.006027371409022794, 0.010484767351936215, -0.005172085172545253, -0.003251654354163727, -0.0037893285246684296, -0.0065513314339198225, 0.0019511253632935898, -0.010687557164888492, -0.005638979668894868, 0.001352584229007579, 0.01166828511436749, -0.005155590522477858, 0.011807040397110629, 0.020170517976363208, 0.022947200015141563, 4.536608894175269e-05, -0.0028224557911559513, -0.009385640927560775, -0.0024531549635705067, -0.005855855669610115, -0.011772745785767653, -0.0036254169960388593, -0.009844846063720204, -0.000941689447342354, -0.0042403909994640655, 0.005942765325524011, 0.0064056931552016454, 0.00403381004376372, -1.754906429727611e-05, 0.011579995318199065, 0.0039544036056571455, -0.012411222129993616, 0.001739116363202474, 0.008592181057904992, 0.00464660716904541, -0.015378069357727902, 0.008129748314708394, 0.0014012022894399163, -0.005704618406792885, 0.011259458709744112, 0.015214464856050665, -0.00792351545177273, -0.011520941838749011, 0.01168521898792542, -0.014137034386617914, -0.012273528339574102], [-0.0019004394335365587, 0.006223562157566621, 0.010459503209146508, 0.011515208514676786, 0.0020823980635425415, -0.0038139057177203673, 0.009140259824190014, -0.005273686499290434, 0.009050820168953798, 0.0014794641774654109, 0.010909746418540197, -0.003986915086359838, 0.008022738586940801, -0.0046707315097963675, -0.005042647939587255, -0.003888439207949544, -0.0030313504929726067, -0.007619527714861709, 0.004355662773835323, 0.0022897351077394977, 0.00045073721192708893, 0.0018839000894355527, -0.008274274672781112, 0.012886168028251469, 0.0007240536086769249, 0.0172878800721825, -0.0059942455826042405, -0.011325749348770548, 0.0032676090079947835, 0.0040700905569512275, 0.024852566992105737, 0.002276597114023784, -0.011786183139335054, -0.012196362936736484, -0.00031127465519686324, -0.0020046527916579224, 0.0028997405256369047, 0.0009465873030906845, -0.007171097582637825, -0.018633268118821905, -0.014160893523687412, -0.01988663184394179, -0.012712180633516186, -0.015659397078015634, 0.007187300802298294, -0.009488386105294868, -0.006883141490794949, 0.012890143316561607, -0.008561400474223642, 0.014487484872953035, 0.0039974187619463255, -0.014690293885653755, -0.0029401339337789966, 0.0018586105936219365, 0.01679714145555017, 0.008394048645197083, -0.0009144487328266236, -0.006143422105243204, -0.017014947619620698, -0.004826954024493386, -0.002432779480229796, 0.005207677603787922, 0.017970324716614382, -0.002794335020516482, -0.008058278450644604, 0.0014991868468692516, -0.012061937676977857, -0.0018604691385036374, 0.008838478170362438, -0.010245901975397828, 0.01082162765787951, 0.007892020795001375, 0.0029377633970287514, -0.009545820601209324, 0.009969087817224371, 0.01958592796173044, -0.0008692685052765699, 0.0010054308559210446, 0.004620892362756722, -0.0286509923695453, 0.010024220178657364, -0.0054936665153665415, -0.009892678477770433, 0.0036509336220938732, -0.015038419971075702, 0.0028623110892921975, 0.026744134657543408, 0.001153612855788325, 0.002711213568833317, 0.004557793340008089, -0.003642641968043151, 0.004680222569600692, -0.012129924436355317, 0.0017917671339092605, -0.0010161976749837004, -0.00015631582008588323, -0.008524177383266648, -0.007498037329655799, -0.010466177139773856, -0.020981128535096132, -0.011003023175695657, -0.004735361806057832, 0.0031440590824178493, 0.0017602156085757574, 0.011682934303070307, 0.01605235513511498, 0.015808702103518514, 0.006613972853685252, -0.0031886500641742934, -0.004377501804417811, -0.012164127268976177, -0.023692517553945327, 0.0035935799778335806, 0.000514820561873198, 0.0017260013883367382, 0.0025655849432252432, 0.012964994919866489, 0.001868887914892827, -0.011186176032078823, 0.005711696365830742, 0.009416165844962212, -0.006001448342235086, -0.007721610759969193, 0.0002514700660954397, 0.01708498738139727, 0.004350755988457429, 0.010294696267623402, 0.017353061818514013], [0.000649982045787133, 0.004795071409316605, -0.021663860952103483, 0.0015138893029744216, 0.001572349512482224, -0.012513513672854054, 0.009624004029037157, -0.006195261393995038, -0.027693468758110216, 0.0009486126972311562, -0.00351206117025245, -0.012346398503979035, -0.0032606843403955787, -0.013596568137265322, -0.016938035415269878, -0.00446134275740587, 0.0005338301070729321, -0.007110354621624122, 0.002301704676574931, 0.01616550916675076, 0.00025730012527210017, 0.00398179548135654, -0.01919598623623193, -0.0023507594006071716, -0.0013308356011123724, -0.008454979566627874, 0.01622967971296159, -0.0007633111509087529, -0.014286517032714144, 0.01493871804093389, -0.016100392455273917, 0.002312478760003452, -0.014614521796832937, 0.006772943887432285, 0.008996405216433946, -0.0033175256811804957, 0.0033420244613414974, 0.014734180230888074, 0.003949078831738241, -0.0032573521845789865, 0.014362754817482046, -0.0013467786204802658, 0.011190731744317955, -0.0034718247894482733, 0.006073820488750025, -0.008152931520754317, 0.010711437017703638, 0.018187340860763623, 0.004345681448930722, -0.02459726624606991, -0.018883681855568327, -0.01752470216012751, 0.004990840308874497, 0.0019524551247046909, 0.013389160760850805, -0.00903446317120987, 0.013746648660560868, 0.014716856340120266, 0.013825358224512627, 0.017421638518824695, -0.01027481681585595, -0.003290431868721785, -0.007801484352107455, -0.001162349590359338, 1.4873188741500237e-05, 0.012338091848139792, -0.005676580289460715, -0.0034551689650636802, 0.009586261676718917, -0.014462413278925144, 0.012890632819565458, 0.004192947795496568, -0.006115498632299995, -0.013417730206306116, -0.0005867434904945545, 0.004938216468579219, -0.00872774840475559, 0.004099300466066859, 0.0029130126769193465, 0.0001793754782930593, 0.01170437593310075, -0.002257898260242921, -0.0010414788818006847, -0.014317762797682182, -0.0007407362419041027, -0.017971061963752345, -0.0008087796393513333, 0.02225366688508367, -0.015534187300541853, -0.0017729423240926661, 0.005760681165657814, 0.004232026282857736, 0.00028026523684677437, 0.00654108892345214, -0.0025098613153963947, 0.02058930034843578, 0.0032536288202196857, 0.006114615206005813, -0.012759217158728756, 0.006438044239999191, -0.010811217042797739, 0.007459072522592411, 0.0025191374638667834, -0.006717403545350812, 0.01042669904039451, 0.0005376396234547552, -0.007402321520027038, 0.0027622441772965282, 0.013392094914611154, 0.008690118163671844, 0.0031522598100599177, 0.011290952885842432, 0.0029007327224605467, -0.009379237223899347, 0.0054799212715348515, -0.0133763104582416, -0.0041404957976093745, 0.012138941954588213, -0.001992501207743278, 0.0034471539313239382, 0.002739103666044739, 0.0009783102982074002, -0.004518134611532095, -0.0010896794203148743, 0.001350559314449267, -0.008403812473536276, 0.005430591969558052, -0.0019689831417830967], [0.010427735318012967, 0.005478875918331123, -0.0010784609868242432, -0.007989849000709785, 0.01171239076407836, -0.015395008267916023, 0.0010924450034644592, 0.008314663738504922, 0.009203019009764465, 0.010243571530600739, 0.005329712209814032, -0.0014099658952518416, -0.0051820399516351225, 0.0051019667477088726, -0.01097817252457314, -0.0029206373502497587, -0.010332884249631783, 0.0036941575191029386, -0.004519110843252495, 0.009425420874888898, -0.0022634754067108014, 0.00243381779776873, -0.0053281160596544575, 0.0015945286948619744, 0.001314239980760555, -0.003959357711377868, 0.009515011592053722, 0.003642316016774253, 0.004244237716961535, -0.004151922401951408, -0.007658712111206957, 0.01245384717940713, 0.009927722227961516, -0.0050751916504389195, 0.007498918435085865, 0.009567447254116086, -0.005974159490389048, 0.004891006085591126, 0.008279955562823741, 0.019213560145058702, -0.00107826469154232, 0.012330798396697332, -0.021047377204739617, 0.004773236080962659, 0.021552318610029292, 0.008617890691504475, 0.001876577618232029, -0.0031606549329360975, -0.000521306174424654, 0.0012433666589908433, 0.006307927306228481, -0.007392302960527469, -0.0029671187133311055, 0.024210220108428115, -0.003757691836167754, 0.011621876501918071, -0.006500860982902423, 0.00026530634232742155, -0.00682718880446285, 0.019037522306765295, -0.020511451325698572, -0.005693003262863162, 0.008087679702588118, -0.010216102806599812, 0.006331427950976993, 0.005481858655925998, -0.020694156419203625, -0.009764022201007123, 0.004862157952728684, 0.006951031344226636, 0.006633020797551229, -0.013545514926277319, 0.007314174702630037, -0.0032294227990464675, 0.007314703994369766, 0.010891338238380876, -0.006519081498274158, 0.014060575116928334, -0.011068492892760245, -0.02042689152158515, -0.00744875592842786, -0.016996263429431013, -0.010601080593662581, -0.0029939107616533413, -0.0010535108354253636, 0.0038346002385458403, 0.0037780327244001546, -0.007223355566709909, 0.012302801377279564, -0.01128488176279659, 0.014856502996536737, 0.0027526688059355147, 0.012726199098726701, 0.0002753120813632612, -0.001236009701033507, 0.005704579000582776, 0.016875831241375646, -0.007610594850353714, 0.015053412454074986, -0.011536588726479492, -0.009505973528278486, -0.0001815348396757025, -0.009562315158999335, -0.018804966687898036, -0.004584327828234968, 0.007137468979457222, -0.007487861408269009, -0.0022488987550792045, 0.0022352225786954247, 0.001582959089462584, 0.008834142235608194, 0.006269618407259519, -0.005952830180774328, 0.017285259109117115, 0.0011895644847065197, -0.0019446515461139806, 0.0015680703409604521, 0.017252061710403187, 0.0072435683719684245, 0.006973366801978623, 0.0006696123275232767, -0.00831389043489406, -0.01515447717127927, 0.011362835329085606, 0.0062823180529187495, -0.011288137252691429, 0.00558439631808175, 0.002058081651741537], [0.0008402418801362441, 0.00039286297053789875, 0.0002634883487949735, -0.002204334159362843, -0.014811178252572083, -0.005942563628289784, 0.003303071184282111, 0.00012836152427118374, 0.017597275905520113, -0.008203430778376397, 0.005276641687823282, 0.01607075994347787, -0.00019325551610929994, -0.016564814774743416, 0.03169402136000795, 0.014643671351943013, -0.008595807636124194, -0.008231506397242514, -0.011389289185197753, 0.007896635159183187, -0.001737256822790468, -0.0024705234089092906, -0.003764214801582439, -0.005455782817594081, 0.01928288683995276, -0.011459586637748261, 0.003085144010882456, 0.004543889674390731, -0.0029480557695570307, 0.00541513332861844, -0.007400335953318859, -0.0016309993290871138, 0.0028888429352605504, -0.011971601415001568, 0.008591165616863903, 0.004536420087561526, -0.018260998676049123, 0.0035685402428333804, 0.0038240154364790175, 0.0192154058077604, 0.00016647531585153665, 0.007314798527403865, -0.004760849604432989, -0.004328646242145918, 0.003021571511423126, 0.005114778192700017, -0.009269852794840855, 0.0017115956403570371, 0.0040571608703111085, 0.0022587056171965267, 0.01489111493287444, 0.00553278027660513, 0.004648305396811043, -0.0055455284603410536, 0.003889870797807274, -0.0022830571532033712, 0.0061667432113436576, -0.008275118976979396, 0.005470276231427314, -0.015576816515923304, -0.01562722279987691, 0.015281418708072234, -0.009268669119639254, 0.017763439289624188, -0.012718095175692537, 0.00671837803579238, 0.014179835172900118, 0.00199813141991655, 0.00550596546904095, 0.006414073244641362, -0.012619920421961273, -0.02306085185257211, -0.0029137616320060867, 0.006487298829839523, -0.0028509446242098147, -0.004534721273494877, -0.015811505332313677, -0.0003048408311361618, 0.01823074666018957, 0.0024694491742667164, -0.008036223146059574, 0.004333235426803382, 0.0037519838851472237, 0.022487616854517323, -0.002562739677911919, 0.0048482235022352365, 0.0034442903937958996, 0.018320823156523815, -0.008654935749902769, 0.009494327785697238, -0.009440845516605966, 0.01626384057180855, -0.008142470931190823, -0.00017449182750411008, 0.003851762540450107, -0.015405898021598521, 7.683367421114454e-05, 0.006861249125363369, 0.011231853562575046, 0.0007854087446710917, -0.010479499076838738, 0.028093578143144282, 0.007093959646305865, 0.0053958839560066035, 0.003778395625442565, -0.002464053454143363, 0.00028390738902279387, 0.0012326993265399419, -0.007629015960361862, -0.0005287590972465788, -0.003817685082178479, 0.001254191475311722, 0.0017029689070406431, 0.017841774383807737, 0.0005575466335301005, 0.003806983471073467, -0.007838684082781655, 0.009509412039555009, 0.006011314342762281, 0.008256470394004917, -0.0016756492015984907, -0.002713419723955218, 0.007444285019197324, -0.0027259628313130013, 0.009653393292307627, 0.00044398122907045995, 0.002794847396349528, 0.010603237094977963], [-0.01902489492158128, -0.0062342220869984815, 0.0134971552054837, -0.01039341170225483, -0.002349887160077719, -0.008272756655557274, 0.006517088491009089, -0.001549788306711592, 0.0007520963141880919, -0.013333402841962773, -0.007729149999777344, -0.00585994961415791, 0.006269154396632286, 0.0048078420810815006, 0.00039096460092497546, 0.012064460583820377, 0.003856717033695192, -0.0074425049141922115, -0.005871076831015788, -0.0052470758556755715, -0.0030797014778832822, -0.0022842101842332845, -0.0009135995547979285, 0.009691028925816447, 0.0004103014295915945, 0.009015514724995616, -0.004352832568169295, 0.008798283411418004, -0.012051016958525706, -0.011552519101252734, -0.007136401888293141, 0.005920572890152155, -0.023778284485552935, -0.00277611068486772, 0.009868437540014461, 0.014515661836590095, -0.014846994828245658, -0.018098916847604857, 0.0003041197599816434, -0.00018867611678928257, -0.0049522279567108165, 0.000910989790635678, -0.013041666295775599, -0.0068600366341316586, 0.013596930153755104, -0.006126866049404167, 0.00949020723535663, 0.012930835114999147, 0.006318519830633382, -0.002911011029421965, 0.016591509023502198, 2.205884848756886e-05, 0.00251127389440603, -0.004687964431411989, -0.0004422354306400856, -0.011892018681116386, -0.005497201470753176, -0.010353952822236159, -0.017027054463460672, 0.023896859226465342, 0.00827834705658231, 0.0076616246335976705, 0.00620918514975837, -0.0024654815829806198, -0.0008260889946088847, 0.004670460106299837, -0.0047758718831788565, -6.883039332081303e-05, 0.012141061825178141, 0.001843625250805923, 0.00017486521259189454, -0.01611834412854255, 0.002502309988630224, -0.005878723190234498, -0.0032229147453532226, 0.013634545390992013, 0.01703810752366544, -0.005156095968385328, -0.0017338149487728025, 0.009192506873484687, -0.0027398394336894706, 0.006145257132247906, -0.006406403108468841, 0.0023730899075795676, -0.01007772027365336, -0.004461380060411559, 0.0046621529966984826, -0.01313559571561111, 0.005993805374905033, -0.0034986601598777467, 0.0013697470854255463, 0.00799705202981032, 0.001642245831584042, -0.002393271299027503, -0.0023898373916343475, -0.0025029898795170336, 0.005093211197160449, -0.0010772733818823267, -0.015667101283022372, -0.016992332108316823, 0.0032429193540423756, 0.00657792385794482, 0.006336069147443605, -0.00531485304493167, -0.017308208969313107, -0.026852977785072105, 0.010241551837913775, -8.359024910411043e-05, -0.02317532150046856, -0.0020328837782309507, -0.005199047281626711, 0.009407924135036633, -0.013294893661295585, -0.007551786535355261, -0.008007493179893134, 0.017115982035275087, 0.0010040769077158224, 0.030826824989385646, 0.004928494692535581, 0.0018907700218876466, -0.009918338077976088, -0.012289853164402738, 0.01899675135528016, -0.001048711989686369, 0.003172246199823577, 0.005705595616636559, -0.0019125402558165436, 0.004462196993434139], [-0.010420909878282225, 0.0008530916436360501, 0.004424582208688646, 0.024499590593574604, -0.0012346399622411605, -0.00039589670101561976, 0.0008178087788963308, 0.004688164944602929, 0.008388881558215676, 0.010133465987591872, -0.0008513518022412537, -0.009490333742294878, -0.009111030340222948, -0.002579196535349053, 0.0030700559045625064, 0.007479302729546891, -0.012296589118131475, -0.010275366855033208, -0.0038386338191103314, -0.01614815135804439, -0.01591759640801046, 0.012970951536920695, 0.016900998053795045, 0.00663755378756611, -0.013038715637833532, 0.003924118850655761, 0.017060573341405916, 0.011136769829258113, -0.00202028115057933, 0.008535046136513066, 0.004128267479258016, 0.0021339244283625908, 0.0013100647713160047, 0.003527693989509522, -0.006829809738740724, 0.01495399091720413, 0.0015102865342287144, 0.002735765712131686, -0.013293186231385612, 0.007558758689247744, 0.00993173475771171, 0.005577285785278705, -0.011030338667956089, 0.009325187700457828, 0.0015549574726644799, 0.011351075565968384, 0.02341518467380266, 0.005317037940064733, -0.0033124945559493313, 0.008819876442460609, 0.00541600518873127, 0.002630271167349715, -0.006129934164307281, -0.00676059238960582, 0.0035106603499361435, -0.014535711202685249, 0.008152765876380174, -0.005164481822865507, 0.013029790458072526, 0.011762222529389557, -0.0017512689164783104, -0.0010948095484710244, -0.007031775843969531, -0.009509264560520328, -0.025109883742576763, 0.005240722560846224, -0.007036640153406977, -0.0018695978746670434, -0.004544839168665932, 0.007103797483565444, -0.005184689583223282, -0.0020408993588764152, 0.002760890631170505, 0.008767233211015203, -0.025108079746211123, 0.0007617621347263845, 0.00835609246899062, 0.007695969698763897, 0.011579005142431023, -0.0164403841776062, 0.01218554498007601, -0.003037707875334962, -0.0038124178979093287, -0.002828042324988513, -0.0026742956209905373, 0.00043842999233650176, 0.013850821022315765, -0.015438707234065534, 0.002299405709007152, 0.016685860322944418, 0.009968454119240435, -0.012367945783740253, 0.0038516283481342295, 0.0037501923709558262, -0.007691302530732311, 0.0003831494704570568, 0.00676942666711004, 0.01007369105647795, 0.008175680353988597, 0.013681918843911274, -0.0017209960946138094, -0.015255865471376763, 0.010643486969974764, 0.012752831996508592, -0.016251035789402277, 0.01106435188279491, -0.00453494482718398, 0.005497063029011858, -0.0008047956972907365, -0.004839888440524643, -0.0013527670201934495, 0.03020184535226471, 0.007704550591682417, -0.004387854656795681, -0.006830607190317555, -0.01299061481449854, -0.0007748088004059709, 0.006973098633387199, -0.007187251670650722, -0.02007417057343248, -0.0006535056748209238, 0.005768025883069457, 0.011104663018715814, -0.004778437412049118, 0.008859723689252296, -0.01589213053559414, -0.012091385740094033, 0.003516615267243783], [0.009852449683367487, -0.009630892092159343, 0.018932952323548868, 0.01601169537021387, 0.013778906175040706, 0.008369154263832, -0.01110830562277178, 0.013814033574545224, 0.01153956249891224, -0.007538879448389771, 0.011428905494405131, -0.0074379627747054675, 0.005061065360962608, 0.00447188325988695, -0.018803854191206365, -0.0111552448194993, -0.007493319011148878, 0.04500433587672217, -0.009505903653997538, -0.031209148328725764, 0.0107531339687507, 0.007181225168882496, 0.0055056483250141754, -0.0022032478560689395, -0.004840022951935323, 0.017634266271925842, -0.004660283350668774, 0.0030088538615503954, -0.006131745238480877, -0.008105466725442245, -0.0019903107631872043, 0.007363922035430689, -0.00667744385906535, -0.00844636442466396, -0.006828383399822142, 0.003487575708699619, 0.005800344766230216, 0.0011388579154952764, -0.0003911482360613947, -0.008248650613579123, -0.0168165155694651, -0.008206354365529994, -0.003545020348028148, 0.015502568553120377, 0.00619634360362483, -0.008439390629969295, 0.0028449864848385897, 0.011533248896778994, -0.005347258789150961, -0.01787012482051114, 0.016870256094567725, -0.011894465173330789, 0.007394381272574505, -0.006546493217900644, -0.005451183189615414, -0.0050139297946271335, 0.00014498143796867942, -0.0008639588843730091, 0.0033062179642790795, -0.014736762543742352, 0.017305037238385154, 0.009676161192901168, -0.006204815948922043, -0.007656186622876453, 0.028525912504011677, 0.004049598354188085, -0.011723887140363381, -0.012087037116017961, -0.011303086370774224, -0.026609874673832534, -0.0009116895372465966, -0.00526089231299187, -0.01238419768031508, -0.005513313726803215, 0.004429303977503684, 0.0010418091979354947, 0.0032569414288646102, -0.0011762601035202594, -0.006875612247663809, -0.007265789278845334, 0.006273910301684651, 0.009932363203589475, -0.01588110456750011, 0.004717541555994574, 0.009396408192519776, 0.009443983296513346, -0.000361419390535875, 0.00547049556211937, -0.01341408539725247, -0.005747808382181894, -0.016886189051428, -0.0030997901814480496, -0.00368042326324519, 0.021064177161589367, -0.004041677783465259, -0.013781274146916963, 0.0073523274881638545, -0.004248529085377645, 1.9382477703648213e-05, -0.003740397709442319, 0.004343321853262581, -0.01165031890959833, -0.0031634799503344056, 0.008139614324330843, -0.0016001495595243922, 0.007766274817493745, 0.013233642340955457, -0.008444063173742607, 0.011761612983389416, -0.004870455123779007, -0.0004431189763466876, 0.004159291716282354, 0.001517981159038059, -6.75462741422645e-05, -0.004975433182127575, 0.007107031897202574, 0.014123110916781978, 0.004352597618725567, -0.02426650849582427, -0.002359660106812568, -0.0015206445601005836, -0.009841510212791078, 0.01167734170839691, 0.012259728966782162, 0.007446572555115966, -0.010085769034387551, 0.0067146447174920255, -0.023429566838304976], [-0.004310583400245897, 0.000715378671870994, -0.007999628090309834, -0.0016904578173358117, -0.012205680933837698, 0.00039645358787173296, -0.00838850000971853, -0.01196219216471802, -0.027738528629324483, 0.0017470775474868413, 0.001473996936737935, -0.018052105673710347, 0.021980053318640416, -0.018385801696413427, 0.005795991093953711, -0.0008338188401210248, -0.011926969113197341, -0.007961222430940806, 0.01563462666422893, -0.002285664610662496, -0.0003106864636155011, 0.015034398996837638, 0.013935716421047479, 0.012028223559019717, 0.0025468017277630716, -0.0020210206324641046, 0.010940678525739626, 0.008055469613613517, 0.006286256112585723, 0.0005564018887425764, 0.013090671134929524, -0.0035787754160378207, -0.011471087783964603, 0.0037896329651567434, -0.002223008235755206, -0.02416761669530014, 0.024983899177762198, -0.014244850636731327, -0.001368921983038127, 0.005115124981850557, -0.004439250727584188, 0.020214739517511852, -0.004216933986719056, -0.012265043932953282, 0.016664466677552274, 0.013399545998276368, 0.0053592604827834515, 0.00027615377885271833, -0.002923375201720379, -0.00843593247541414, 0.004228748166257664, 0.008251423088476402, 0.00944467706063223, -0.007228559623173452, -0.028762296476522127, -0.005326197612887054, 0.008570987702946363, -0.006065097566023016, -0.0034146547321437307, -0.0004903231156373503, -0.012988783561618976, -0.003930068815857793, -0.006429879061581579, 0.01695416168260985, 0.007174563258618831, -0.010304449725728448, 0.0022745188200308636, 0.017649235819356943, -0.002324431102427814, 0.0024749785109787164, -0.0115873407868332, 0.007661056687479659, -0.003780252154182844, 0.0077239665221549535, -0.0024510564563851953, -0.005968610756947486, 0.0010795236292588935, 0.018515741289930897, -0.012227649833814419, 0.010134373693381502, 0.01212636265439206, 0.0033405308332115375, 0.02513370395473278, -0.00048643036747553556, 0.004409731446835143, -0.0015416810475463896, 0.002590162737228028, -0.007185608257370313, -0.0009126732301138587, -0.0033993688014409378, 0.0002235904775305241, -0.015553526480651008, -0.0022837588757386494, 0.00560843436942076, 0.00900710858368491, -0.0035008825610347715, 0.002410840779819372, -0.0015885572255066262, 0.011898251171954338, 0.0015155534449620121, 0.005187118676734326, 0.0017671296096328363, 0.00012550191846972766, 0.005851198993416421, -0.005547432903995377, 0.0012116044224072667, 0.002424104413950268, 0.0022604603636000647, -0.005167342846938057, -0.0023862719675899055, 0.016681587972093168, -0.011149898600092321, 0.005216057517617441, 0.001512270632591616, -0.0064809102632362595, -0.0007985193281312394, 0.01098601246582432, -0.0074519298333924275, 0.0009700849440983892, 0.004478989994877511, -0.004053443412978593, -0.0012960782336646926, -0.01395240493335906, 0.012772842353406387, -0.006232559610837935, 0.0009183390660441499, -0.011896783749130843, 0.010468490539699667], [-0.003063966265105225, -0.010914909984929026, 0.009323358783579578, -0.005732199363494946, -0.007425001024576644, 0.01386114789305686, -0.0039707176649637545, -0.005986674106187948, -0.005962632313307711, 0.004612219861613322, 0.0051703484849265425, -0.013715547598612373, 0.0044676588929256, 0.021239081733803317, 0.008732718009281331, -0.017745906259883062, 0.004797529841460914, 0.008141472217195918, -0.003211849442032909, 0.005645065316566117, -0.004017704713133348, -0.018410382143991023, -0.022221312191746133, 0.0016367515095863285, -0.02595270994890188, -0.008327554291534488, 0.006844237958670099, 0.0026059307696016352, 0.01339373542085222, -0.007668311417197927, -0.003581414609313803, -0.006608106519479756, 0.0114915500632777, -0.003445821115420654, 0.008548240083254091, 0.0017555076299610706, -0.011677386544065313, -0.020877053495310577, 0.008014583093389817, -0.01192338362739041, 0.011679421850739063, -0.0034717940475983496, 0.0038756095138287178, 0.006069096552556578, 0.01356684430769778, -0.002505442777899038, -0.010256810124368082, -0.01269878915229002, 0.0029073686527872405, -0.010895492630994373, 0.011598507341773269, 0.009474929669745119, -0.00039363045920115096, -0.007550220377351429, -0.015824601722515503, -0.004247190177189718, -0.010175433294555312, 0.016494325875995013, 0.005583779140147084, 0.004510662586471476, 0.0011080093545123106, -0.0076435980787294055, 0.015658965758090126, 0.009729789714189245, 0.0013912628578942486, -0.004591106737469941, 0.0022044756850995973, 0.017085207530136755, 0.008011146806156342, 0.0048377315274553915, -0.004976292172036997, 0.00018457309871081987, 0.012931061033123081, -0.005786080608751991, -0.0062723178081186895, -0.0021569400869251936, -0.00746281974706785, 0.004816156605358171, 0.010352217854407984, 0.02038108691590665, -0.005293512044078111, 0.015120669313058513, -0.007102184037942684, -0.010317649853195075, -0.02667522252852432, -0.01804585767100711, 0.003329802408781922, 0.0007745574637524629, 0.008853868876382122, 0.0031195263370040944, 0.0014368760530640361, 0.022765352263015612, -0.018591028734765477, -0.004350026829488609, -0.014233837641835998, 0.006416147443913064, 0.006973689835187876, 0.007321866571714555, 0.01319164151187309, 0.0072617157800612155, -0.0033612972591512257, -0.013475026394012992, 0.017571198035696428, 0.012467181448175364, 0.0003367806040325229, 0.009165476834887143, -0.017055246112407187, 0.002868786246482204, -0.008996020884499155, -0.011812434398460997, 0.0015056004977198668, -0.015789418601405227, 0.007623048955642656, 0.0015930702260635629, -0.0011875408861558264, -0.028976266765664744, 0.011795705661630136, -0.004126449244002446, 0.007624966430574072, 0.003437137406879054, 0.008429744402004611, -0.01277568628130517, -0.0015154405738277991, -0.009026814085975722, 0.02129948243293406, -0.011709840186415237, 0.000360616575187484, 0.009693187996530924], [0.11439594373392784, -0.045697525413710506, 0.004402905943906906, -0.08170713282475657, -0.026544881534551278, 0.07585979145356701, -0.07699075464468412, 0.10761913018671918, -0.003354514296398915, -0.06310517521695348, -0.02229552973902217, 0.04414524137658031, -0.043497951153559325, 0.010676029946802303, -0.005506192869324618, 0.052162168554736446, 0.04409817158287052, -0.033099712665023935, -0.01438390556114126, -0.040986889797023036, 0.027761662544860635, 0.0735843890945447, 0.04552741205979624, 0.05052598149095882, 0.01633804813578644, 0.0783068128591029, -0.004415648027878994, 0.014352178593674962, 0.005353810954002033, -0.08402483828839241, -0.1495763544572067, 0.08013690030528008, -0.03383697307153757, -0.0703267334151925, -0.11873684447686786, -0.03235429118913402, -0.002409947205483428, -0.06226705994954093, 0.002687619858238003, 0.06153130977025344, -0.010882013070970196, -0.053638137572850984, -0.030342117228208274, 0.039570564305016376, 0.06984909760129177, 0.010851258367089714, 0.0489441126762022, 0.013577569915609235, -0.038257706546534334, 0.00970978209195271, -0.01272849553530459, -0.06246391809601281, 0.05363489720739347, -0.04300767987747779, -0.03006914770743209, -0.042688683306807945, -0.06877700619323433, 0.10220058346749382, 0.06916807096552978, -0.021078016573762685, -0.03948409026459743, 0.03272027568062132, 0.0286047066267893, -0.027255101849961584, 0.030460463603104785, 0.023611882566847105, 0.04473530214291496, -0.014606381416670788, -0.10316809355314635, 0.10915698553974729, 0.015503100171335594, 0.12517791230830566, -0.008520316840940277, -0.03325388366773254, -0.013555977948180479, 0.021545862706123256, 0.024817631330533628, -0.00527021252077981, 0.006347061206680447, 0.027973468041457162, 0.022543521887796566, 0.010519111499906877, -0.043629291026277627, 0.007009784412569394, -0.059502630178350405, 0.017906331018882154, -0.04896809517624367, 0.03810362880809227, -0.005192625684396718, 0.027882917642611263, 0.09554575762077466, 0.11351611370945723, 0.012216770925885492, 0.05181681703480699, 0.1161048298124181, -0.011757008012794426, 0.07537224765987474, 0.005962643055997279, 0.12864474697346798, -0.11312166613406524, -0.016482553062563163, -0.025920605623004495, 0.0980458855927045, 0.04031643746735291, 0.008278310118383687, -0.0357265160731575, 0.053932235033188745, -0.057672545870702904, -0.03895276218111536, -0.0010459678971848074, 0.059316402961986404, 0.022888090028790106, 0.031548363771718865, 0.010253157549837796, -0.06265792934938509, 0.03395844892509528, -0.07296661584317501, -0.023997423984119092, 0.011694550629550583, -0.04295960912229504, -0.07849632019724184, 0.01734572726111853, -0.06826599412973809, 0.030371458911544517, 0.009539240394220957, 0.06228808995224169, 0.12738895804738018, 0.01218444849438992], [0.07585820696889356, -0.047051959086109374, 5.139443942205044e-05, -0.10734614423724323, 0.04296055568448917, 0.014040503222888407, -0.013541532889154505, 0.09249169703350808, -0.005837199503405761, -0.08359869454577355, -0.04221413453042789, -0.03316511271502474, -0.08146273885675169, 0.0423548903421319, -0.01725964376038652, 0.04016396831986335, 0.03598223462074016, -0.03519929575885521, 0.01939913326871541, -0.05250771434800216, 0.08071852810016515, 0.08448644888672754, 0.03310310081760173, 0.04841509531833525, 0.01121975852465072, 0.094380305152452, 0.055173670324901954, 0.043064830216334615, 0.026584867480419445, -0.08096920684311457, -0.17685882456313884, 0.09447350995625911, 0.022610058826719823, -0.013459534956560095, -0.1580654280549177, -0.052621553783433105, 0.021477498463657152, -0.08399668284334004, -0.04803682964125001, 0.07092722194230254, -0.032072190953477554, -0.08123955455229302, -0.024775047830417184, 0.09729429815490398, 0.09028823758956328, 0.04417173594004576, 0.1002237225623322, 0.04541022510568562, -0.012429465562623112, -0.017798238121518446, 0.02450017608173263, -0.10279472574368478, 0.0786497975861585, 0.024099105314800844, -0.06404512988402337, 0.025961577724426352, -0.09679129426454931, 0.1293219044930967, 0.10367998210946738, 0.03978325249473545, -0.0813345952327592, 0.07504454137127228, 0.0728230359603085, 0.0036100217278428317, 0.07062639347430912, 0.00914396768379384, 0.05694651117276558, 0.03665438273626212, -0.13552363588476146, 0.11189805819065558, -0.021254060571118977, 0.0763336712384771, -0.00836280384266763, -0.05015959263996065, -0.0031008785432321048, 0.0736215528285584, -0.015599670189527178, 0.030973465878509784, 0.07296191119365278, 0.014066856838754142, 0.048702867199924824, 0.046448617285664566, -0.056101007884842645, -0.03772921060292052, -0.048990578769701074, 0.02186813115492117, -0.0676114813862628, -0.04631273313086035, 0.004914124870521425, 0.06396554405722597, 0.13064260292984897, 0.13553643716289138, 0.018214022749806297, 0.08919051308883258, 0.08791888688137302, -0.02053890513989189, 0.0009800495227241185, -0.04487933439295922, 0.05219027782601918, -0.13469119434888807, -0.016652358128685082, -0.001746366948540003, 0.10477824143755572, 0.05368812022654601, 0.00439370978153251, -0.05424625847937897, 0.08209851026346175, 0.02646715583501037, -0.07547236521674264, 0.006448616777941125, 0.0978085979776727, -0.030513151016058396, 0.029645123773863583, 0.035278849228431275, -0.09222597463309434, 0.07578750937028031, -0.13537610029970404, -0.07792573535477089, 0.04786263932928803, 0.025698331651396945, 0.021962058071655476, -0.017557214829944785, -0.12145552881840031, 0.07006384450809329, 0.042080915342380544, 0.0851884867273459, 0.06950892207551207, 0.044996792737595104], [-0.08371515741546402, 0.019166457379428823, -0.010353069787850768, -0.04221757010366155, 0.06067852918275763, -0.08243499269542999, 0.0504058891536703, -0.02570901687038983, -0.0034703893105714994, -0.011076932456309219, -0.053675103744091616, -0.059978195748777836, -0.03704530848476372, 0.041101784992057494, -0.013081483814123884, -0.03554925892768428, -0.04088341541303544, 0.004246200081660298, 0.05914307295867551, -0.06485204302152546, 0.03993204587666574, -0.03972796899354949, -0.010707932593764718, -0.02473213496441029, 0.004199793814845502, -0.015197696044508803, 0.05060811822448957, -0.02313146223314917, 0.005569147363779471, 0.04719778461125047, -0.00765001814034445, -0.014746191274396508, 0.05156935112367775, 0.05088335183824043, -0.03958238245304994, 0.00875437819498058, -0.005917045621903303, -0.0571001479792442, -0.03504711652562289, -0.010211280315417874, -0.07003560518300374, -0.0017299090911878391, -0.019676499488964792, 0.016110522622819517, 0.0025298812575669624, 0.018723417453303696, 0.04891655942744675, 0.03715696673893772, 0.04838459191023756, -0.011055766162285713, 0.06992820012773587, -0.048244198323783245, 0.01261298698467645, 0.0752708579038852, -0.0660757283696175, 0.06005226458107547, -0.009219413402445168, 0.05495678412898607, 0.07282640737416114, 0.051009381417636585, -0.03765519362307126, 0.054541935648813857, 0.07563189018268188, 0.0562687160592853, 0.06043148359976167, -0.03256338098668704, 0.04071234550807095, 0.034561893130357076, -0.0021692425176461586, -0.04603549013060256, -0.03315528843956914, -0.025601926310246315, 0.01933780125598795, -0.005736101018445082, 0.014858028151044818, 0.05301231059240256, -0.007755684787231187, 0.03889946027315443, 0.0562123424352198, -0.031445379212854625, 0.05841785451798238, 0.06668535343376811, -0.05924420107417989, 0.03265114223266654, 0.013095268224979903, 0.020539247192792875, 0.022682825287331676, -0.056568873566717186, -0.015008768334081804, 0.07481051864117297, 0.02922272335790329, -0.04926696599254917, 0.025333537844196355, 0.035097357207334846, -0.05079525340608495, -0.013876546996962436, -0.06057325357690528, -0.05502132147291634, -0.06362693047107595, 0.02539826385809225, -0.011338106608768427, 0.047716780642089514, -0.03552351076887865, 0.027017703092629596, 0.019676904025123475, -0.030192341458153315, 0.0257073005035526, 0.050570430955456026, -0.016730780465000285, 0.0356237029752316, 0.057330006579723654, -0.05358642199366926, -0.03926223938629074, 0.042844423008716895, -0.017613349513939055, 0.057882549307577455, 0.002346692248229809, -0.06531243745901424, 0.07399524738009385, 0.07223449405820687, 0.06990458419333226, -0.003093982017819575, -0.013283985791537249, 0.049326863255372395, 0.0497965940456754, 0.04135961607535549, -0.049542119758306885, 0.035064565688215456], [-0.0030835351963501385, 0.009272294628265213, -0.0022484087144257624, 0.0026866078603424827, 0.010573785741789202, 0.0034003685428397514, 0.012256675594018964, 0.004502229283426308, 0.013407076176141262, -0.0008657879073231158, -0.012413197602749523, -0.018717162085915885, -0.006028237995650133, 0.01815938240385702, 0.003945803621480702, -0.0004562565913529214, 0.0065304354737519285, 0.002502295622150693, 0.019931584461853148, -0.0015799795543826158, 0.005794043783384193, -0.004909773692111935, 0.004271888993729349, -0.0017544353863639481, -0.0013936479823641354, -0.0011256179385995247, 0.006566911111369522, -0.00361558290258121, -0.007383836658283669, 0.024509520549150364, 0.0042729420428029245, -0.008682569714878734, -0.0003294696106104664, -0.006088732459637638, -0.008872126993923372, -0.009936580808794141, -0.011643250034486208, -0.026457543281498422, -0.007259195297807399, 0.011206638212474335, -0.010450653219239495, -0.013831200900594786, -0.004360936179998075, 0.003216977524838043, -0.005161234615393687, -0.005016729695802747, -0.003412642917237844, 0.006952542024297074, 0.006733124098269718, -0.0012957708206215069, -0.005013311092229648, 0.010476233956798716, -0.002251217901026996, 0.003565493627608944, 0.0028885402695571433, 0.00039446480656660135, -0.00040933680122297094, 0.005086100628257141, 0.018272147165069894, -0.002353418604171842, -0.0011131955839512764, -0.0056283314291317174, -0.002435113967207311, 0.009285465062269828, 0.000994292561661816, -0.015965215045995608, 0.006939777306413805, 0.013349739211958036, -0.004236953012983038, 0.010462974119894617, 0.005961758239850447, -0.014999181124717964, -0.0008950894584232881, -0.006458531670964709, 0.003409372510342907, 0.011787770455843045, 0.012988904321918245, -0.013805189963838718, 0.024008744961040013, -0.0160296950837243, 0.011859070741858237, 0.009539128613601556, -0.027857176737621676, -0.004735719174280725, 0.0006524932330311688, -0.010954689555741965, -0.012727888567284698, 0.0013744786864134577, -0.0012818139725399432, 0.022491480500352958, 0.003191713262937788, 0.001057195624886816, -0.003919881895702208, 0.023396397036562565, 0.0007297890950362861, -0.008498841285919337, -0.011884577474193019, 0.0034807493815853926, -0.012078917022807653, -0.010077722757686305, 0.004006083077226227, 0.012361630679435702, -0.0013823396748413618, 0.025649175188304438, -0.0025247328501610553, -0.005506934098441514, -0.004461494383752402, 0.001211208213798064, 0.0016325953992534616, 0.0025602151797179886, 0.014090889542467795, -0.0013092670370805674, 0.007343337538095071, 0.016653136198397294, -0.003417449214114079, -0.013222364085509778, 0.008436523836505101, -0.004267310193890454, 0.011576146296243784, 0.015327492377060267, 0.030421104339554084, -0.0025494455508277966, 0.011217913763493839, 0.004837199211153381, 0.013701006052146511, 0.01872953918430913, -0.010929261305189236, 0.007686866611801453], [-0.004454212187549527, -0.01183423422939503, 0.014083758426570933, 0.01071209240100139, -0.012531944988604764, 0.00803686500110345, -0.00033640567502682064, 0.0051000581029830225, 0.00205347930218313, -0.00317485329535431, 0.003941202583917473, -0.0077508944848539854, -0.0009116859457472999, -0.009706577518898061, -0.0009180621522279858, 0.014709516090327154, 0.011027628568763019, 0.007361221992714089, -0.0010526603337149556, 0.002824831876882453, 0.010712671857187122, -0.001035007776584143, 0.013992542360295498, -0.012651611221878334, -0.010344987934721703, 0.024505203938119266, -0.006887544324709598, 0.006938349103581556, 0.002700747916032804, -0.014511443760274053, 0.00933487454022053, 0.006031883876275489, -0.012051984513936164, -0.0009517237153649046, 0.009577820694556564, -0.008421253175503678, 0.0008595308723267166, 0.021383819284924502, -0.0034036621472927314, 0.013378195372186007, -0.017963300334933454, 0.004663756366031586, 0.007163186320852115, -0.0167076800249901, -0.011616931245715521, 0.008513546683094697, 0.0014882609909624765, -0.01784128807994461, -0.0016239755598332173, 0.011270160536522975, 0.00223576861961168, 0.009532832223161458, 0.009642141857269427, -0.020680630804365725, 0.014272606411665157, 0.0023005541939678095, 0.014231639928536438, 0.015721789644893177, -0.0050368032307336694, 0.007960070875639314, -0.00843967907112028, -0.011944691405692733, -0.0004395323534344253, 0.002245421099017281, -0.001923467233059681, 0.014002949506578632, -0.0010595593082510441, 0.000978946708194502, -0.012360184308574424, 0.016081158697763297, -0.010818614963976146, 0.012347469941548523, -0.01442932057811675, 0.0007106902446045215, 0.002033365036394926, 0.00027532220819166203, 0.0032928703350016677, 0.0072325416322721395, -0.0200371694753925, 0.008663749154062275, 0.001573001754385748, 3.22323319796846e-05, 0.013806123880013746, -0.0006078497898323513, -0.007050284384157841, 0.0047534560291989944, 0.009904058495610171, 0.012337081974359737, -0.007484118902642068, 0.019861930759496868, 0.004315601565755617, 0.019962946116733073, -0.003947598322166091, 0.0008261899232587169, -0.008922224546109947, -0.025870402051870058, -0.0022832006815920016, 0.020047434186880392, -0.014003824334859622, 0.011686879141027218, -0.005743687693042558, 0.001687181091814906, 0.006246668652885577, 0.0027771907470742108, 0.007022111660087588, 0.010927431980655633, 0.00980371652402334, 0.00013497918636800758, -0.003121100085581985, 0.0015228686707372343, -0.012041208214159717, -0.008893009620429364, -0.005260256705295262, -0.019742727679040405, 0.0024946821996792777, 0.009740675034698677, -0.0033553644625994752, -0.009001413423246781, 0.018070603565475237, -0.009240634481593955, 0.002007601538822783, 0.00010608761744590003, -0.004302665260224581, 0.016400627135546686, -0.005461301754592406, 0.004350666501113736, 0.0037861670471481318, 0.0005595889963043846], [0.010597142735528524, 0.009482672553213018, -0.0020665246794889076, 0.024233832134650937, 0.010951803953475035, 0.009190029161079924, 0.003030901026354137, -0.005293922442628054, -0.0033817095793535067, 0.0014438873101870239, 0.005106446069592359, 0.017566489052992115, 0.00017787806938953315, -0.0034931993066595855, -0.0007050800473451592, -0.006557360927066797, 0.004532999558252327, -0.008919438529828502, 0.006654422940803464, 0.0028527189579311486, -0.009261860771215248, -0.003625421256244089, -0.001674044825856407, -0.0103594916017488, -0.008878798700196255, 0.005052200460275731, -0.01309247980504625, 0.007680675941373055, -0.011284798338783437, -0.020180137961113995, 0.0067645835828693815, 0.006085652463346372, -0.015355777090166556, 0.0014111141837424982, -0.01492518918667551, 0.014445430356531555, 0.011593135170538995, -0.010006243591956659, 0.016841652143821873, 0.004798865194843978, -0.006481344323993925, 0.005092044382215757, -0.017831996510064087, 0.02227881450997052, -0.0002455200646458007, -0.0019308196090595101, 0.0017467974750115228, -0.0020323315801157806, 0.015344086984682755, -0.001386554041370736, -0.00897303537016786, 0.007400036745811947, -0.0013077790419098799, 0.0030975667013475334, -0.0062604567231649925, -0.0032149137456003603, 0.010524234102420036, -0.020120009610726023, -0.00841797560178336, -0.004020434275333484, 0.013975648534491226, 0.012122721258829357, -0.0006563950047201955, 0.006659659878698549, -0.002446381857406093, -0.003375630082644975, -0.0005990371983696014, -0.012209800997099627, 0.009090958891242468, -0.001978476333115331, 0.007887528920589398, -0.028425750264176774, -0.006640903966749572, -0.011839154794519465, -0.0003571943454860085, -0.0058427336276795664, 0.013296684390412386, -0.01781653773130051, 0.01687503011882867, -0.005777399756625377, -0.009373326990591839, 0.013494422548925387, -0.009780967161662683, -0.008377782750235423, -0.0011816004162472301, -0.021491361904707382, 0.009607121149037844, 0.017254766870725798, 0.019286408751413565, 0.00391914409459103, 0.0039536370933648144, -0.0017482405598482468, 0.010634292371485046, 0.0071677066723100135, 0.012614259660609202, -0.0031338460009590918, 0.006550010605768534, -7.397636026878655e-05, 0.012192909112396226, 3.937831629078393e-06, 0.0176255330117771, -0.00010226268516990328, 0.008075075110392916, 0.000348417620227285, 0.003198685101727328, -0.002982948711720945, 0.015473460271798294, -0.01275092098072071, 0.00036722884135275135, 0.00870572956104707, 0.004877967984047853, -0.017815472221801087, -0.009552561364723789, 0.0026580992016621086, -0.006103977886087792, 0.02091899578734925, -0.02241878562967944, -0.009314271751502734, -0.007018793415477105, 0.0025281790939667027, 0.014443257676650815, -0.011732269294989795, 0.005418071828905616, 0.005523060179358995, 0.006325291567313191, 0.0016387009692375143, -0.00620697849056991, 0.021652804799755395], [-0.007970848085160968, 0.0023790786849679484, -0.008223021844950839, -0.0021999093263735136, 0.011597321250630462, 0.007060553416134314, 0.014226306504872496, -0.0035498784744212608, 0.010395691070035781, 0.01385404562473221, -0.013470444230039806, 0.006715591599115706, 0.013959872958112197, 0.022988920918063222, -0.008825104113028344, 0.0077988413794315035, -0.008097613010786445, -0.002206523328386769, 0.007706953973924826, -0.01251216304120792, -0.0077025566383474185, -0.0076635679767318035, 0.00024250714273869466, 0.0005004274185604467, -0.004106890208239108, -0.0027496795213280056, 0.0074047287043441015, 0.022324726529856762, -6.955751397318339e-05, 0.012154324277619748, -0.015970350594527522, 0.013564661496585466, 0.007227537626033055, 0.012609203675899024, 0.0063036359781134975, 0.011920236984752228, -0.0013766670035818035, -0.016646345350027906, 0.01326366003627603, 0.011144118944370587, 0.012913618870269702, -0.0050304801873066905, -0.003967072676849819, 0.006583822832128493, -0.009296207601590271, -0.013927250962311637, 0.003965608194373065, -0.00016243961856085047, 0.0071237566721405856, -0.00905166807728612, 0.006026897564362373, -0.012385666003150475, 0.0005662630775021646, -0.001838412708942404, 0.014990892800983953, 0.006552348246998015, 0.00021897996591378966, -0.015600280289558262, -0.0029832133752663395, 0.004679474659930138, 0.010543942449490343, -0.013611263010716117, -0.003865527037848412, 0.027157527626572035, -0.01359246977479748, 0.005921894277556115, 0.007021831683634151, 0.011548641168947238, 0.010520733354532621, -0.006692377581120163, 0.011602772444449839, -0.006880364528718262, 0.0034978875254660056, 0.005201008903754607, 0.013227953376940086, -0.016545011388292827, 0.016276576532936658, 0.0023215584393252294, -0.0015821540462588673, 0.009850930692266524, 0.020479202707314733, 0.000651050360634661, -0.007094960292961399, 0.0075817181461834025, 0.01994004320545998, -0.0006170327212087304, -0.00929600068918371, -0.0037801363831236347, -0.021811140739168646, -0.019090480834800548, 0.0027864537354226203, -0.006309205602340369, 0.002556870834627221, 0.014847186109448492, -0.007709966229269093, -0.0014381093355195554, 0.007545949280111596, -0.0033883422840616396, 0.00918743333977681, 0.001079378692100131, 0.006933746433285869, 0.02798829709861529, 0.018972806927459965, -0.0009991414895385265, 0.020822317579738705, 0.0029474985235387586, 0.007524668045923595, -0.00870653015149106, 0.007209728885576836, -0.014741700693750462, 0.00544119193112249, -0.019482492685132455, 0.0017635565299346846, -0.0020800203045894805, 0.016816493814889033, -0.0014713296500586646, -0.0029278232646961205, 0.004814867115992301, 0.007553205734036829, -0.001666806765267567, 0.001867530849528195, -0.033676613448037004, -0.00046471929233911125, 0.0006151234498514836, -0.013108285269286127, -0.01660694782857647, -0.007201729195647016, -0.003382488465659985], [0.002803870781436164, -0.00010417481926884264, -0.00019042987242359147, -0.0009003568787040173, -0.00323072856999359, 0.003398855802160128, -0.004560773393051177, -0.00789682845889331, 0.010801693359959025, 0.0053312180479377505, 0.026554977966610188, 0.004965174759947983, -0.009777365195433976, -0.013357777979962505, 0.015394279607124183, 0.0014296747307063, 0.006432283933736487, -0.010068237661048791, -0.0005374852690960478, -0.0012934738156768911, -0.014372926684799154, 0.010792194161853235, -0.007548637167732153, -0.0024136768466433154, -0.011781452124453121, 0.01049802363567671, 0.0006430765407952947, -0.005468424986286792, -0.019228885876315608, 0.004682375272089845, -0.0029614239304354348, 0.00321890913828449, -0.019899839102089416, -0.00662742756903794, 0.01562573919871668, -0.0015357130946858774, -0.001838710805956506, -0.002903868465357413, -0.0010683483782740189, -0.00419920823611318, -0.017852374324615877, 0.00011355965472572893, 0.002118660309474507, 0.015659202814854688, 0.009206096451145741, -0.002385731344770723, -0.006731199457794886, 0.0033848102458430493, -0.01585768593167848, 0.005790688852115545, -0.018916403398193445, -0.008121493697314353, -0.010365333081869843, 0.0052745738098436195, -0.0016884260263916428, 0.006879155715818719, 0.0014277652941644611, -0.007595223916033922, -0.005682505864591536, -0.004645147324664291, -0.0030061891115391597, -0.00015685459210505005, -0.007735740002200047, 0.003551834610753402, 0.007730665127135712, 0.0024703172895456475, -0.010387066555911366, 0.017346620573316356, -0.0014699856514340862, 0.0032256953088719733, 0.0018642050000456842, 0.018125945787301243, -0.01794026501861035, 0.0013738556872494947, -0.006546991771455587, -0.008573044934325154, -0.004013004843388857, 0.007687570508468548, 0.0017509587306558869, -0.0021597891580779887, 0.0029455705165062646, -0.009709716638715534, -0.01678585080618163, 0.00721949124813358, -8.146979424900241e-05, -0.008213630999459662, -0.009615856288031847, -0.003940146070644688, -0.002434335347247961, -0.00671605482008222, -0.006184699153622183, -0.011140055676029652, 0.018185882575660346, 7.576559663168488e-05, 0.0017055189485143442, -0.01420332206424793, 0.005835244139795971, -0.005138339041664711, -0.014633080820514491, 0.0030765619544574456, -0.0023134305208670942, -0.017281882032765948, 0.001682371875295888, -0.015787071380103695, -0.0023417946939394137, 0.00169213335498417, 0.011348320926501535, 0.004628759031319567, 0.011595257916643143, -0.006839964462560347, 0.011506529270991576, -1.9721206582440054e-05, 0.00038465150581666087, 0.01909118661654478, -0.004364463370475109, -0.011116526252461807, 0.0006938069049703443, -0.001551292153620009, -0.0001358834907367916, -0.024022808887896416, -0.005115684402546121, -0.00010609659392196904, -0.009771277812295585, -0.0074078545635272545, 0.008669606898309281, -0.009403001413622016, -0.009271563783675626, 0.006005801956149814], [-0.004447211848695123, 0.004257357449135118, 0.006697862306829048, -0.010146641029809056, 0.0019197013139206113, 0.0049900548864765994, 0.002035446576661921, 0.014916118395801604, 0.000871840348810706, 0.007842355983221985, -0.006915136449033623, 0.006169934594802315, 0.006989027298688903, -0.005279323436143511, -0.0013998226775512146, -0.012113335079407067, -0.009060876217858843, -0.008363361622993165, 0.005758403064917202, -0.018398315035265525, -0.015682316174364715, 0.006965313241988444, -0.002776459120720097, 0.01678707181629469, 0.001739793218616783, 0.012995303931945095, -0.005112482481634576, 0.007309012393463658, 0.011265367569870923, -0.005204279363755416, -0.00645179362069051, 0.00602519642457634, -0.004865076692763235, -0.006044612377590835, -0.008019980097806223, -0.00046429480534015174, 0.0013053404893814782, -0.0017358057015878436, 0.006795284440164638, -0.01585180025707649, 0.007407811224671516, -0.005349557750527945, 0.01127399883838142, 0.007254584509869237, 0.0013258636119588435, -0.0100433333033541, 0.000420242556758575, 0.0009663863796728027, -0.006982573842809795, -0.006854335195333053, 0.004353180189241068, 0.016327324303487104, 0.022065181776197523, -0.011164491438816202, 0.028423829655789615, -0.0024722114993161533, 0.01697603392309537, 0.004955564128371954, -0.0020533211127151648, -0.002236588296421075, 0.0028531060815630564, 0.013178392666620279, -0.0273331972508216, -0.01088349199576278, 0.0010357806280190268, -0.004688966316813641, 0.009479185834028006, -0.006957303317144843, 0.003080165136758462, -0.0006963095893437885, 0.001155779445478101, -0.013625183416066042, 0.0003228127707077765, -0.005140833116799835, 0.0014427838498408038, -0.003587421366685122, -0.008884179851768235, -0.0024138183888700432, 0.01550246890862042, -0.002104340146252835, 0.013873899868914975, -0.0009666101353385856, -0.008667727844547913, 0.014004811374224555, -0.014231641815986072, -0.002329190973661024, 0.007885264509894217, 0.03620061941852145, 0.001096951059991654, 0.01182803507768262, 0.0015078805118624748, -0.0022888975226635095, 0.005692346765793258, -0.013197680339190204, 0.012243896630337057, 0.01333367356841531, -0.004851898716224396, -0.014507558586215125, -0.010663767807973566, -0.0027663745961254618, 1.4471325494539525e-05, -0.015398053648128051, 0.00988114562602257, 0.013890612341047206, -0.0066223605539896925, -0.0019041232430091113, -0.020616109340742265, -0.0011142726399128822, 0.009681475314748734, 0.009547671415882449, 0.0012331406037182737, -0.002830335844327962, -0.011407245823222221, 0.012739227619229973, -0.006006748070691101, -0.005305542968079944, -5.170845753143861e-06, -0.02333149978820111, 0.0007646039799633071, 0.017471982188633505, -0.018220734701509245, 0.0033288403297159676, -0.019461798991480112, -0.005159242000674789, 0.00053498264299604, 0.010819289311487077, -0.0005140397075206977, -0.014947140853509346], [0.004589461285534499, -0.0016122878693145388, 0.0061762190238962905, 0.006046988319164411, 0.0039707760361460285, 0.011787795956263003, -0.006735619619741945, 0.00590791546137812, -0.010486991322169441, -0.009754573863509579, -0.005353437169172602, -0.011608808595305204, 0.012779677053527084, 0.0011828019296266717, -0.013507595637063026, -0.0034984542202447884, 0.011516875296036785, -0.0011681265642197658, 0.01224294090447098, 0.011723160870921592, 0.01457078807987618, 0.012625820120595295, -0.0027701469241735457, -0.006486265956814209, 0.01085482157480627, 0.023385757659837303, 0.007347893712957721, 0.002851863401043732, 0.00250162604483205, 0.0017997926912910374, 0.00041129845982684906, 0.003805352980669404, -0.00847411067958138, 0.008022901603818638, 0.011271820933932277, -0.005097452314900077, -0.006464501591065528, -0.005188015235227909, -0.014930410407492465, -0.006380010329862782, -0.0038513380548547784, -0.0036892905313370638, 0.0019976311529084955, 0.0011976234072006537, 0.00821421202583131, -0.002638768792451843, -0.009815179593855935, -0.007041951255184285, -0.01096824602214795, 0.00021853156025407756, -0.008461752230743596, -0.0035245140054155273, -0.014051092816259525, -0.004979444149880982, 0.0014595059903420816, -0.003855821222844815, -0.021902291869769788, -0.006111634030320777, -0.005405383856606474, 0.003765842369593328, 0.015453774453841067, -0.003064932781476293, -0.009209780086060118, 0.010910084766856929, -0.021829066298533612, -0.00500869196952144, -0.01309306462129128, -0.0020698547549083445, 0.011211099899389563, -0.00039633599759656053, 0.019987586860605533, 0.005712334891654015, 0.013090692646008546, -0.006345936892527965, -0.008784078598509973, 0.005438624382609627, -0.015963072368954882, -0.0009741302400367868, 0.016449583539078487, 0.005394820092121344, -0.0007274665777699735, -0.0003483927811187264, -0.01856211703143281, 0.006750701817870568, -0.005743964594755028, -0.016906952048060937, 0.005147600795132118, -0.005953770241731494, 0.0010121680908977244, -0.0017503803753545434, -0.011147034420788834, -0.00855019260977857, -0.003940209499797774, -0.022519708170389802, 0.0014439316859705504, 0.001960673120685422, 0.010307550312725334, 0.00016342876057764833, 0.017554331478343958, 0.0027533496382237165, -0.017304923498327057, 0.003166364756283846, 0.009981572398357588, 0.012825803042710313, 0.00032478232369558886, 0.014675620616711215, 0.007739395265742546, 0.0045484285093405855, -0.003044064374215877, 0.002766614202176433, -0.005556807596882202, 0.003123519972512629, 0.00660499936013651, 0.013404258312524509, 0.0010247141319142076, 0.009297992048939765, -0.006025558310412281, -0.017169660945276718, -0.004763610782247114, -0.007261416001589437, -0.006801399494266286, 0.004063513163944875, -0.0037172770876306577, 0.0023749406127799508, -0.004870595715103024, -0.0193021776290665, -0.005715979879081582, -0.008566643201753663], [-0.004063247943560559, -0.023564543908993978, 0.016931871136953127, -0.009112693104734518, -0.016704632632185083, 0.007455066139982358, -0.016861603406508014, 0.005032208765890582, 0.006424714692393578, -0.007148225763958655, -0.0020709386162801073, 0.014378276453038111, -0.00935673369788454, -0.0002906897669809233, -0.004965533571519708, 0.005616618822960774, 0.0052820647813122765, 0.0023908676212818576, 0.010197858786132732, -0.0023626113340931656, 0.00318343505709655, -0.000363934331691953, 0.015322571725337127, -0.013100677444568758, 0.002360222333823493, 0.010108746904206082, -0.0010740320280302252, 0.007334617818025756, 0.007044674919547568, -0.00015158156127211518, 0.0020555312965010084, 0.00972092137768657, 0.010745273035594851, -0.022294935174771036, 0.006163835059457628, 0.0011879195003452127, 0.008631166703050452, 0.0065191274580724545, -0.00739636441155089, -0.005786296738850254, -0.0015330359934902747, 0.004185326231010713, 0.01816950899476776, -0.008180097838063564, -0.000306139685291441, 0.0037697850520470957, -0.0005282090306574761, -0.012639531612621262, -0.002145772647420407, -0.011010814897850066, -0.011789519784832725, -0.00654113865480123, -0.007464179496258245, -0.024382108698953308, 0.005526391362161678, 0.010649129140748545, 0.002171288440419706, 0.011547839317074185, 0.02315792172428913, -0.005672852918351877, -0.021231397158426563, 0.014500024846625941, -7.89546472995108e-05, 0.005102661839408995, 0.0021320696724286864, -0.0023649938793145627, -0.011040589644710433, 0.014252536852775, -0.006725633795625959, -0.007627934357642085, 0.004236861338059862, -0.00018474043565675866, -0.006315503385370295, -0.01009440925877839, -0.019105082071343895, -0.0034322053457833354, -0.01554728474865079, -0.004347355217335001, 0.0019656115474708264, -0.0001052222718904894, -0.0007971432140657612, -0.010653635560002149, -0.005517682510520641, 0.004169318247452975, 0.004765446513023957, 0.012824134515479854, -0.014696398161787978, 0.004466010325715383, -0.0009365905618901018, -0.013739352658609292, -0.01777386272657959, -0.0009787872222079502, -0.018013795283969156, 0.0037149558126555616, 0.00015051017950701333, 0.010417484773389503, -0.0012408181152323504, -0.0026931593013858153, -0.0029646205016442316, -0.0006660140609954142, -0.0045025812967845755, 0.01317439879818659, 0.00221551676327689, -0.005825469294756758, -0.010182954975055832, -0.0039697401382133984, -0.009205710089631707, 0.01481117549093551, 0.005938760811550648, 0.0016147007109149744, 0.004491375589151608, -0.009069602134726141, -0.00466738415649193, 0.009444331631548659, 0.0005333438755408681, 0.0035830987297928397, -0.0027782582130325005, -0.003746329568165032, -0.004358429895034087, 0.021794597549398147, -0.00456568312542351, -0.030608083505432985, 0.006048883982620906, 0.010942488720448115, 0.004091957883877242, 0.011406945624069794, -0.012926537712894677, 0.01954203629274581], [0.0033262914360846904, -0.005852166681331, 0.008003881508027123, 0.016933714955333794, 0.0007595546803560209, 0.007482797968954064, 0.024142922917383323, 0.006344579597160361, -0.0025590259680384193, -0.003785972334399382, 0.000340483432113338, -0.00206675220275779, 0.004675020666400111, -0.0063900739605721735, -0.010972381251763572, -0.005152535480747739, -0.009762668364069298, 0.010327731781544273, -0.005843056984972889, 0.010951403854839718, 0.009750546040281688, 0.0036704678060876573, -0.00575550475750923, 0.0040458796545240735, -0.010706850501350826, 0.020527982209479868, -0.017034865785050205, 0.0065694817817250496, -0.008887540885796406, -0.00488490532376598, -0.024950868064166222, 0.00831947366839964, 0.001573012298359126, -0.007134069968652005, 0.004706972096851458, -0.0011937509356719546, 0.00709356100766309, -0.006619796258846125, -0.00701901542058966, 0.010488802817847144, 0.0036061784461692875, 0.00032922051820978647, -0.010155704353135809, -0.019685670026028505, -0.0039461934538574705, -0.0012798266083315385, -0.005434071486997395, 0.007097281222461516, -0.007161649215411017, 0.013091130479802498, 0.004706650425875688, -0.006163223552651068, -0.013434116921254822, 0.006842082559400024, 0.004776471408861103, 0.015311946995037476, -0.0004903796971106443, 0.010906960408960296, -0.0062108462499000875, -0.006404354921980052, -0.011910675167704903, -0.0008773061818729228, -0.002602828956215025, -0.013941826834070976, -0.008057337094976705, 0.0016727664127090046, 0.013606078791049265, 0.00555541808458724, 0.021290471080262097, -0.012663018886643966, 0.02172915403175327, -0.00810616210421004, -0.01145241835649271, 0.0010227496566513822, -0.013912154063943706, -0.004788293793237203, -0.021073813867460437, -0.0012946352792695193, 0.0030139896460504453, 0.005310604166990999, 0.0014598371060858043, -0.001589483191324697, 0.0029482974219489835, -0.007022750640224737, 3.294174570788593e-05, -0.0051369363340876, 0.0034010113461822086, -0.009178582406950877, -0.004619515453476131, -0.01791618802579835, -0.01818874732199294, -0.0017196761598296188, 0.02495228359823525, -0.017251706036675404, -2.0426981001928075e-05, 0.006407755202471235, -0.0005527720447169793, -0.01148043232572011, 0.008963960685710256, 0.00031117495249921313, -0.00519117561315249, 0.005126215273528875, 0.007076832147209538, 0.0033395184437786086, 0.012479424167976186, 0.003749767001908122, 0.008032117333791791, 0.012885461313230926, -0.0023660809041301223, 0.003907705944562211, -0.015441119088862297, -0.006510731424176131, -0.0007412220125481915, -0.002027213471519126, 0.01863809314130008, 0.006794034010049926, -0.0009776660990206242, 0.010281412855983172, 0.011575501525501571, -0.0057714075872383405, 0.00519932810029117, -0.004190339863949834, -0.019373171616072073, -0.0011077533346266599, 0.004441044154516723, -0.007176284138860927, 0.0016324072995486702, 0.00018539356373595836], [-0.005129431309278207, -0.03026991992813023, 0.007851212806228063, 0.0026875714002286724, 0.014938686384028356, -0.0006805365660618605, 0.0021239065706423754, -0.004470845595749564, 0.000309775564971146, 0.005286210150703149, -0.0034629484066526993, 0.010233552591886606, 0.009920949029612155, -0.013997970113775848, 0.011665038603865027, -0.013462750977782283, -0.012594657909296259, -0.006497145506958648, -0.0010770620819031006, 0.0021946886420818163, 0.015193920483240265, -0.0018421879017115675, -0.0037938112403289414, -0.0023308149132654286, 0.00993430708553809, -0.011351478890267577, -0.004111342395408935, -0.011302746325762092, 0.015426865863156105, -0.006049632654283812, 0.0056006307540534305, -0.0041533061481443655, -0.009704128184574867, -0.0019569075555344122, 0.015952680771274902, -0.009277143926471356, 0.01167388008511383, -0.010282452187140405, 0.004741903566562807, 0.0007115248447435546, -0.01291159771970802, 0.0028175100724644178, -0.006795296933205838, -0.01070823519568184, 0.01690896297154512, -0.004751695152954883, -0.005095173353793585, 0.0066125235223643, -0.0030450462185778048, -0.0048852928340652295, -0.006238642361933614, 0.011441152589250185, 0.0010339536356028967, 0.024982705829409833, 0.004708255219310749, 0.013076385056110766, -0.023107806027824994, -0.012301725792620889, -0.005802468648418485, -0.00011189792053912349, -0.00637885519438803, -0.00640870580921194, 0.01391066042055964, -0.0037099138123752526, -0.00019716036958745332, -0.00035733747806924516, -0.011641673621351021, 0.006025016093028661, 0.008084869544707246, -0.002530385701489715, -0.00021434472243664126, 0.0019803405372623823, -0.013343880160035498, 0.0008596369960571077, -0.011869990721389407, 0.00861118146062715, 0.010289269535964143, -0.010609248357713747, -0.00810131963012457, 0.01986783293358325, -0.005025618307110561, -0.008976624792329373, 0.00517571900577821, -0.0007633885849077351, 0.0041464943802274005, 0.005270204085840823, 0.013650202442809654, -0.0031503153417524778, 0.010122680353558192, -0.0028473669749180482, 0.0012064914083029282, -0.0017301661174032581, 0.01011832888865297, -0.004015834024190326, 0.01594013764694219, 0.001650198637492668, -0.014471423535764423, -0.0041583100285434065, 0.02610180666552937, -0.006443699139527266, -0.00661468958151733, 0.010055454776223298, 0.008515736046556803, 0.0017010591124125057, 0.001780718166656597, -0.008063930032566766, -0.008414677577429155, -0.0029711855895049174, 0.004167401142862575, 0.00848468359653987, 0.012483607983260842, -0.00036261478597129096, 0.008075200956061235, 0.016666463679902443, 0.000536553167901555, 0.00873618612949585, 0.0007639606877353945, -0.005355892526146781, -0.0030271591361044846, 0.011565866915660977, -0.010002980754145185, -0.005145153903160916, -0.006831827578311107, 0.006633042758847985, 0.0005821120934561377, -0.00018770745680053822, -0.01805535919232329, -0.0020530359285142073], [0.010674841934908015, -1.652800012150516e-05, 0.008266362110868898, 0.0015640493812360567, -0.018719375588366883, 0.008225960204073764, -0.012522994006666786, -0.0019495991338090313, 0.0007849817357910272, 0.00962724444845868, -0.0038114762110893013, 0.014013268352414534, 0.024960002734260262, -0.0014376288103913736, 0.0027201646868074986, 0.006370231894691962, 0.00802207678732376, 0.008796249471074515, -0.0006157109793624853, -0.003993588946322856, 0.0024933740649806715, -0.00597294107075496, -0.006860834209225135, 0.003360682389702116, -0.005440467900018517, 0.00014600540516936678, -0.008933121773808842, -0.0120674957301867, -0.0036889809134291736, -0.004479128190554012, -0.009964092072354373, -0.01636206568880466, -0.008946300406997799, -0.0025611463749581893, -0.012172344116261837, 0.006168710965848986, -0.014547390418996232, 0.0049219421644499176, -0.015558016055053648, 0.001444193977658301, -0.0013706205293759104, -0.0037948542055657093, -0.0019234112740519683, 0.005155520372761991, 0.004488228144633831, -0.0062349665957561985, 0.008448236947675452, -0.00838662947617805, 0.016915868228108404, -0.006821122485079916, -0.004139044204289547, -0.0069953260215212375, -0.014189625749176328, -0.013387525679912943, -0.009005567603720769, 0.0012590906007612554, -0.017689323499866797, 0.0077978296183074175, 0.007817286709970759, 0.004058540957719735, 0.006926232602784894, 0.0050396556207263936, -0.0023404077967635896, -0.004429908310896227, -0.005655074364684534, -3.636228616407747e-05, 0.007247505803072221, 6.861162670270541e-05, -0.02104187751575731, -0.002046927852562399, 0.0032991945208061626, -0.005882624776888792, -0.008620403097872226, -0.004090123219330192, 0.007254761771478942, -0.01162880855674289, -0.01593262818488509, 0.014675608438437618, -0.00411142748629566, 5.3971464366578646e-05, 0.020348243431236125, 0.007092133038107367, -0.005285677895891916, -0.01007989554030013, -0.0014666879830283073, -0.010246049151297993, 0.007439875601846915, 0.014341859783077362, -0.002257467113746021, 0.015324072679924758, -3.252169477524834e-05, 0.0036967276046647626, -0.013135211820560025, 0.0024857393073921814, -0.004125475047906025, -0.008814785391802485, 0.0035813598779385176, -0.015064639701339514, 0.000864309946807551, 0.004533774756859527, -0.015162055609398437, 0.013911045068296915, 0.012452257667622068, -0.00014922396267299024, -0.004804269316503353, -0.0009616356492403058, 0.0020699643860066516, -0.02015283037099191, 9.633668200370959e-05, 0.0030762760303760478, -0.005276420747643921, -0.007624913028440884, 0.0018786200789146787, -0.022344204804042086, -0.0008103349913089974, -0.013623562526829416, -0.005102160860710453, -0.006093669494928609, -0.007172178996759142, -0.012390507144047888, -0.0123548356557748, -0.0021870263885102625, 0.008419550259883543, 0.006791448467500801, -0.013072157905530504, -0.02404895501498878, 0.0013818169525790238, 0.0006236795114450422], [0.0021483333013844657, -0.001033640278215027, 0.008872632589626778, 0.0031460448574657093, 0.003135272944762279, 0.009117503964846691, 0.007958794668697335, 0.009498385900695069, -0.002546406750319396, 0.0011849069783790133, 0.003117463218176289, 0.014076652800549727, -0.004908060316966693, -0.0014199474267933758, -0.00012192237691489712, -0.0070563790380129415, -0.002233859244687543, 0.0002081147977552899, 0.0009458163291935055, 0.0025866841321416567, -0.0019445584395749503, 0.007500996560068669, -0.014733052671032719, 0.007176368941279435, 0.012030693908921575, 0.01665723816581888, 0.005118172143753608, 0.0052892298381547855, -0.014986831493164803, -0.01170107223278484, 0.006181605945724489, 0.00758359547731151, -0.008930133507846199, -0.01947184835396672, 4.3367099240147255e-05, 0.007945532187553355, 0.022021024932405667, 0.008872935752270784, -0.007693809238609658, 0.0005208097828702907, 0.02371425107777041, 0.005361180179029853, 0.00037837764270116946, -0.007623317500129623, 0.005264953580539465, -0.01214005206440971, -0.004082405535018849, 0.01366048608595496, -0.0025984018524058917, 0.012357455604203873, 0.002386675925549483, -0.003074362743690205, -0.0011448459186998337, -0.004894630529510444, -0.0037175978367509454, 0.014273652979483985, -0.004877386411787422, 0.01632068163159931, 0.014200423685169501, -0.0020455193063430264, 0.001517700472966509, 0.004448728647347538, -0.005417686415627624, 0.003084820781038787, -0.007076952584404633, 0.0009459125002284932, 0.004005292171076603, -0.0167159438738723, -0.01315858898032197, 0.007850284073588504, 0.0013930564102283937, 0.01073108875634212, -0.006358664474705187, -0.018508163953091624, -0.008050312075513993, -0.0005819828736447439, 0.007105279766555712, -0.04434873900329521, 0.00831600339091782, 0.007926538538842032, 0.013440831778388729, 0.003960557605346063, -0.011570798667960706, -0.0034527981056044488, 0.0006512456999728892, -0.0047460527643246745, 0.010040142483948324, -0.00471526554856362, -0.0175840917616854, -0.024540360622522257, 0.00907266708150088, -0.007355872637895777, -0.0017487257875484468, 0.0012883064281712987, -0.0009177644625669411, 0.01169551974736112, -0.010798061130635068, 0.006572488486193394, 0.012673983248847871, -0.014259824667746944, 0.001959927864209407, 0.023868244320174127, -0.0037539069192780877, 0.02436835204362667, -0.004125373604710134, 0.0025571392236786025, 0.012870320276628525, 0.008715964888680912, 0.013606570822219017, -0.0015208156233021426, 0.007808735112519787, -0.01723806602425574, -0.021514780906488166, 0.003214531336452707, 0.014241666936035804, -0.0021150185464456172, 0.013071162620683308, 0.0005239963497178595, 0.007134686152303293, 0.012045184996524865, 0.014367673346577936, -0.010438641632817715, -0.009137185951738527, -0.0015041132761607267, 0.00838004684516344, -0.003254236891446578, -0.0069297129680736735, 0.0012705729398381313], [-0.003965050262826258, -0.008392283347904253, 0.008355274103263179, 0.0016552398726366673, 0.012134890859057276, 0.008632838244591047, -0.011584491147583, 0.022013683680044843, -0.0011210682575649455, 0.0033346780141199155, -0.012369619417467928, -0.0027326834741015498, 0.00036989933568065155, 0.0028629327155843434, 0.005938099963052484, 0.00675329932000587, -0.011221190678091944, 0.01270427258379863, -0.00962155945994679, -0.0032622210586222295, -0.004873035345112027, -0.0032731469573976293, 0.017473296429825157, -0.01219089870860352, -0.003368415185993254, -0.0023709295602901428, 0.0037016864911967196, 0.00268831582928371, -0.037012200025852135, -0.016477551424069377, 0.011410713471401603, -0.01826745397818961, 0.002490569041524646, 0.005597516797521237, -0.01636376563750664, 0.019232657178375426, 0.013538800318361154, -0.014286215734314035, -0.017714385054521067, -0.0001965241246838514, -0.015601479267895013, 0.012131979083308403, -0.0032815010396100965, -0.018424692792382628, 0.0006470106816840553, -0.011379052996533297, -0.0064300156655610384, 0.006086793536645247, 0.004450234820695557, -0.004678964085144945, -0.002832932165085412, 0.0012140562967394525, -0.003908684013505059, 0.0182921265052869, 0.00636126304416618, 0.0036573363684873897, 0.00077871962613756, -0.002070300081709352, -0.009754694278618685, 0.002766948480792966, -0.0025003243294230344, -0.00619354355177839, 0.012296199894059612, 0.0075480411920514695, -0.011587963018995742, 0.0048817000436778306, -0.005358170290260258, 0.003562513996559342, 0.013940542277611236, 0.005932641094287522, -0.003632511831634407, 0.014984393220741125, -0.005003432512935311, 0.00955943821569476, -0.0039153975532912316, 0.002616180320612935, 0.017912636851783036, 0.019389373607732567, 0.005929450034565188, 0.005079249619413832, -0.003553223104864799, 0.01984177274935379, -0.0017451639718331303, -0.003946942289123272, -0.005457156852320329, -0.002484725054046441, 0.008990156723923174, 0.006398477947992769, 0.0037257488525314266, 0.013883500320051936, 0.016847643111072463, 0.002806826793930447, -0.0018155716379162517, -0.005861303301686616, 0.00958360244960018, -0.008912403040581334, -0.0014693218480393195, 0.00522587140584821, 0.0007520941159689803, 0.018670374868875243, -0.008577469358969927, -0.005768805202198045, -0.009682678887549477, -0.007516727308181198, -0.012815494615678285, -0.005411690014762917, -0.005164865753348351, 0.0018429455049465877, 0.011133683606448732, 0.0029980056048636433, -0.014274306530978362, 0.0015271878299704298, 0.0028705055654504688, 0.008078369211182877, 0.0025928876078888186, 0.007539344239796843, -0.001842325582220947, -0.009104157676811934, 0.004936756758731008, 0.0059240859990918925, 0.01446107342488614, 0.006062866675246552, -0.0019130882129917203, 0.010403908154188258, 0.004512319157711322, -0.009789067523117749, 0.0012962789136339475, -0.010528109712136998], [0.0033555103027203383, 0.005395880623258092, 0.015862936672331976, 0.012928941273988265, -0.00980107688660556, 0.009410529580348336, 0.004518246699334707, 0.00293111380463363, -0.005890205024235928, 0.007189737829280426, 0.010850110091606585, -0.015762528341847153, -0.010914616783144766, -0.004293629609868682, -0.012366822872053628, -0.015419617389621896, 0.003692441202921164, 0.006709548316965665, -0.011619167198923785, 0.018502985324880566, 0.005281374977646113, 0.014317577444153651, -0.003428789264165286, 0.01229840504963581, 0.0017674559974634409, 0.013330203832069839, -0.002464976630497258, -0.023727579248634934, -0.014632074577249505, -0.006863713853902889, 0.010332931600390767, 0.0025671792379632725, -0.0021676060870817575, 0.013759834151480077, -0.005845998234845022, 0.014645451412193295, 0.005330296077394067, -0.0033626039765350985, 0.003035301187075593, 0.003077813566577523, -0.00609728670840214, 0.00762395509271426, -0.022788243811856512, -0.014889198299020861, -0.004606127458144972, 0.003723895731284642, -0.02153673918887499, 0.0001702862877399322, -0.006618276346198647, -0.011393541872048288, -0.0032531749077997474, 0.0007229583024852196, -0.007338071261561285, 0.001097403781554639, 0.002924294114823996, -0.024132073152943453, 0.004017974527927394, 0.011094439356175849, -0.013094781888599511, 0.005940453385145887, 0.001966216802834243, -0.015095018367560435, 0.009017479119992861, 0.00782844341550935, -0.01204627981083911, 0.013698655479787087, -0.004301674766538898, 0.021573521878456486, -0.008678710418608179, 0.011357855919932281, -0.02075951888940735, 0.009783964581997774, -0.0013364809682031196, 0.005600038263645368, 0.00041879672277225907, 0.002513917298802021, 0.0020104989965075756, -0.001499473222662421, -0.013156318248537616, 0.0035146204773090963, -0.006135023440622289, -0.01455951758684968, -0.018842240864282968, -0.00534389799378678, -0.01526389421478207, -0.004414325490850609, 0.0025122190036159482, -0.005303312488850629, -0.003650764182515418, 0.005723854768622542, 0.004455965336647203, -0.0025759870885065993, -0.0012013194668167688, -0.012511192700491782, 0.007548759511893198, 0.01817794588764857, -0.0036940429513820693, -0.00202292987897819, 0.01047279609014595, 0.008293219298930987, -0.00025478106689375636, -0.003095421818473925, 0.0016859564226512354, -0.01860664966727551, 0.004003505900664011, 0.00383531526608826, 0.005843784673562481, 0.005317196795431102, -0.0017837927518348168, 0.021459014887462744, -0.017671451558746856, 0.0024892641143575388, 0.0014974200876828017, 0.01101210883268479, -0.00010451113745809699, 0.02637740385626316, -0.018757848243372593, -0.01465600051824926, -0.0013917998533198514, 0.002933039847530355, 0.017145795894212886, 0.015219321513451357, -0.0010247976280760946, -0.0005991526496128425, 0.0005399350837990856, -0.012679145325072104, 0.00484911093609086, 4.471989830334457e-05], [-0.00217022910886434, 0.0036420221475567645, -0.011194787619975022, -0.004986696763300997, 1.31661884529638e-05, 0.021346681807147234, -0.0017875504096438173, -0.011136621935527153, -0.003059246228027488, 0.011897227443436992, 0.004044557346914147, 0.0133145549536746, -0.018932086295405576, -0.013286138180754593, 0.0025866795369418054, -0.011203213776193537, -0.014347948891373146, -0.004605618949092378, -0.00047923029448952297, 0.0036638670503436554, -0.010618423522511614, -0.0009392339800217338, -0.008745860506492684, 0.0035490943459150627, -0.0018085055129647718, 0.012726702795280525, -0.0010065093602473001, 0.008712122848476283, -0.00751910143853587, -0.021489099269652822, 0.004594641000208134, -0.0009654500654635678, 0.016056469191093332, 0.011711701902647555, 0.005169131921575614, 0.008539513006897098, 0.01241946019349859, 0.010489602030186323, -0.0027050006258964748, 0.0022249159367740516, 0.010360321330624601, 0.0004630049183816326, -0.006973504343761329, -0.0031467420803417724, -0.011010219086670128, -0.017689602836987228, 0.010806569924837209, -0.006361248101262172, -0.004292304510574178, -0.017836813650984364, -0.021809218395772777, 0.011324894873678722, 0.0012948756791137056, -0.0036767660079871922, 0.0011279133568478266, -0.0020021672144381443, 0.008217800801186245, -0.0030030181109138507, 0.018506628496734484, -0.01025987826351636, -0.006410804601692288, 0.0038518165812593424, -0.012386344286812892, 0.009033160684019608, -0.0021358870190550366, -0.005568013389030486, -0.007070380309367363, 0.013489074516080484, -0.00943251184915101, -0.002561660401303839, -0.0039080420708812085, 0.0014085520534306368, 0.020453787081641, 0.00853000964540392, -0.0005987520888620859, -0.013231426732996616, 0.011517795174306868, -0.010009909948305907, -0.002900347797140986, -0.015161445932808866, -0.0067110038050336995, -0.009732647616959716, 0.009130585755776249, -0.014047595754481317, 0.0014699603479982413, 0.003274120361937308, -0.002163581676843037, 0.01834373500567657, -0.012102332028943664, -0.00408140057559837, -8.985676209438093e-05, -0.002805925397219275, 0.0009430649280893398, -0.004222112858856573, -0.004554079439699794, 0.014023350370051358, -0.008367139114060475, 0.014043845702390863, 0.0060366403272366035, 0.01434059961920889, 0.011765731685597733, -0.0013953165068219878, 0.003262703700399308, -0.00650649586933526, -0.012243578801416922, 0.0020477717787134118, 0.005504863442351135, 0.00698753473094217, -0.0010411320697378437, 0.010632370377153482, -0.01199449256295197, 0.0020116255091208136, -0.0016827674155470216, 0.008640233657208953, -0.0037003463680542045, 0.003038878379526445, 0.004474187481210051, -0.014434283091067182, -0.005935396342591518, 0.003425691332537107, -0.01752838410388128, -0.019260611212048775, -0.0005748785126748684, 0.0008323403932734557, 0.014113142817686324, -0.006839809006760855, 0.008188659803735225, -0.013596210453728259], [0.010418433361986987, 0.015689895966623412, 0.0035193220046109436, -0.0066558692014419656, 0.006349193668647365, -0.016645292492236195, -0.008616507010456067, 0.014293099090406528, 0.02013311261693153, 0.01852614256248063, -0.01147748221522114, 0.007084771573620053, -0.0038228595750467763, -0.018492267160706538, -0.0045388883726078825, -0.016656290390882324, -0.005387301309523584, -0.0017923062885458333, -0.0022866874870303426, 0.008296862353977138, -0.002967155615912837, -0.0053095016344827176, 0.009631004261138115, 0.0009590466642189879, 0.00011439222463161847, -0.0027488158121323804, 0.008055140164165366, 0.004999778584760094, 0.0006154910330595189, -0.006749178729547041, 0.01136470074593764, -0.003068186174182916, 0.009234208587581994, -0.01757625449963767, -0.0020863830883534255, 0.015924582291493454, -0.01507386429577845, -0.0054727927986883695, -0.01390270776515589, -0.011254500302622115, 0.006531760069996045, 0.009618288217603941, 0.006280430817864003, 0.007726974867389673, -0.00520311095700804, -0.0012923853231793117, -0.0035453990506383332, 0.00022620460187212026, -0.0015714951995778417, 0.01662679140492938, -0.002818757042770576, 0.016054820124088792, 0.01167926135599406, -0.0013035295816030974, -0.0017151171963335028, -0.01102344538157418, 0.0037533236884102488, -0.0027510772024023494, 0.015565186357534278, 0.0124508583068553, 0.001973494862928653, -0.006575550112703835, 0.016705386977941283, -0.0032027225801263145, -0.004752918304450393, 0.0072176593603475, 0.00196235722259538, 0.02118739440582862, -0.0036342005175983567, -0.0013672206634029955, 0.0007134732878060549, 0.005017473743568998, 0.004482179897068817, 0.030553383595251074, 0.007607275281977604, 0.0014725746340783935, -0.022044659006424824, 0.0003536690021471415, -0.007279503320255345, 0.013768262172348002, -0.00849211432302371, 0.005451193182331174, -0.0071841157435613215, -0.006309633991938662, 0.020192096611724254, -0.006511065841009375, 0.005977883730037562, 0.0002774112822738852, 0.0053106198311050345, 0.005795949946472795, -0.0128262619511425, 0.004154059469291841, 0.011770156720326786, -0.016552482276234737, 0.014992679900730896, -0.0001693331401691266, -0.00934508788200094, -0.015183942770903909, 0.007083957561525194, -0.0012106388458336215, -0.0064012428243964805, -0.007474545786178594, -0.001409722529349563, 0.018075778645618955, -0.005296166667888847, -0.003491455498719158, 0.00485014121483818, -0.00024733003731899797, 0.00017230244902196885, -0.01161337426822332, 0.005369497060690837, -0.0022263007198100367, -0.028968840654884056, -0.0024497786573726204, -0.011507718591061004, -0.0010819524605276947, 0.005814798291385922, -0.012155277350758718, 0.0021494657222736573, -0.008703899893794245, 0.0070881402119685475, 0.005464379735561027, 0.002714275972496367, -0.0031263109202779465, -0.00472187235748715, 0.007686081680645124, 0.014361571961206566, 0.00893698543908282], [-0.013135470954060873, 0.009452296893281583, -0.012407807807859493, 0.004556127837055727, -0.0010637289611900532, -0.01837363823909385, -0.002554439292508548, -0.008600281432769386, 0.006694812077748773, 0.002169155585717388, -0.020816442701443675, -0.011422143526672436, -0.009078681433139075, -0.00040570417062430635, -0.004077949371308897, -0.0030318216008820894, -0.0021122509336933266, 0.005616492552716713, -0.002053510097296055, 0.00755235330507487, 0.011752458684926977, 0.004643465905447771, -0.0011492683394869884, -0.009859447042374075, -0.009232125149378158, -0.005305560554295949, -0.007581151834891311, -0.011572330872216114, -0.0006270609037311328, 0.0104334358515919, 0.017618516466206137, 0.0031107080572606045, 0.012301095463584176, 0.01502497498529349, -0.009488655399746778, 0.0074735331078630216, 0.015182524838368077, -0.01402330797128349, 0.0030178993903401796, -0.0015785127607768623, -0.005751143235318282, -0.003466680747865786, 0.0063751159475548885, 0.014422130925660312, 0.004904611776137074, -0.005362576852490763, 0.010750030591810449, -0.0037685268271238394, -0.013721154688319493, -0.005918228816685304, -0.01549298380643354, -0.005016401436521979, -0.004582854269712025, -0.0061544579664495475, -0.006163776967407783, 0.00014137791561586377, 0.007879997316799017, -0.018749421837734273, 0.004822989475293665, 0.01904984828139192, -0.004077173890839243, -0.008235204767985829, -0.0038039533927219506, 0.008261891693452282, -0.0035262247026891062, -0.008559813768034304, -0.005323288153225901, 0.0013161393165112567, -0.0026226656606634937, 0.024071168890086155, -0.01511441302616078, -0.0031811802374022546, -0.004322841656850307, -0.0127060568462365, -0.001956957834185845, -0.005471367861221595, -0.008210955494715405, 0.008841694622452753, -0.008255679175418808, -0.012962060758480817, -0.001720578241870096, 0.012632407668121378, 0.0008859463833740601, 0.0065290332956567864, 0.008156776209198675, 0.007693479181836321, 0.010501529383056431, 0.004259056245638577, -0.0009771951941797605, -0.011153444847655474, 0.007047267550883023, -0.0033256447480605835, 0.003669821507734636, 0.009074843336884466, -0.008920110810546732, -5.334570299832352e-05, 0.013960732079452854, -0.006503601216487017, 0.021887511654029947, -0.01104120409465513, -0.013602971558094756, 0.009351961470339324, -0.003331256987968215, 0.0056205297096715914, 0.010965909081124811, 0.001092041440275648, -0.004686004172386782, -0.013368138991192317, 0.0025480946443366672, 0.00032155461189138103, 0.0026024352498375813, -0.016342282174853527, 0.01060309576055656, -0.016637151204626985, -0.002784390752240828, -0.01626991219013265, 0.015106942355864414, -0.002266062287558139, -0.002415078525382096, -0.016088579612950776, 0.005349150926840802, 0.00019315885574475291, -0.014912024390284592, 0.0025438173211599457, -0.004512366570312356, -0.010874119032082446, 0.003747041823241789, 0.012990141756405133], [0.006061295136932741, -0.014879248598648732, 0.0014092885143388548, -0.010153213518951895, 0.014501296515044108, 0.005599296902552049, 0.020305334793683766, 0.0056510133452450486, 0.00805436284572397, 0.0008488544528852434, 0.008716606211370834, 0.0060593155669252385, -0.0028327420682932106, -0.006885982980298829, -0.0006994364008818734, 0.013699818844108473, 0.007759515725326615, 0.004073956235052781, -0.0051377538386513525, -0.009454908661093801, -0.009778998038994272, 0.0019178722654049542, -0.0025706095121378596, 0.016322211596966996, 0.005488826618418974, 0.0009848915447761436, -0.002685892116171692, 0.0007505762134920074, 0.0057319397298046795, 0.0009966460268545263, -0.019458124450754264, 0.0007042128936392128, -0.0100143170239627, 0.002624058299530735, -0.014136478853234479, 0.0014733962143293072, 0.017236569661396934, -0.00268125080951381, -0.006394841103856983, 0.009644960558812622, -0.004362178226675866, 0.0068382251143453724, -0.018056504791758018, -0.0008203506967328059, -0.0021823474617096356, -0.016039947534070054, -0.017289932663749286, -0.01032744683717305, -0.006993453563047018, -0.008442381173950152, -0.012403883335023937, -0.02115101685700087, 0.0023629556931404044, 0.003461187447461242, 0.008713837043519976, 0.009560373944952821, 0.006726247012909394, 0.017224472429807354, 0.010889318541736052, 0.004050873500906219, 0.019711641486556596, -0.023664225937665182, -0.014444354509139083, 0.005907278571648802, 0.007750812617545224, -0.024316859336627535, 0.009582755979129796, -2.9759844949259808e-05, -0.00040016130181714295, -0.007773810062859832, -0.00506346357739313, -0.0026377951677263095, -0.002094934591333075, 0.0019132303911846894, 0.013274448252185836, -0.00593672526977153, 0.005952975532953808, -0.0024182268043195137, 0.013667517027468563, 0.011607526075429968, -0.0045219092261434115, 0.008884529264587368, 0.009700356548214644, -0.0027640370537964096, -0.004840160253211386, -0.0024745821343737807, 0.005673482287301591, 0.0016400593662322946, 0.0008027315432483741, 0.014550312201043874, -0.003174334361024521, -0.020967699676362146, 0.011597048268384324, -0.00033640189079793347, 0.01470171554727383, 0.001143709744869695, -0.0036445185996288165, 0.015624026399286206, 0.019636151500245596, -0.013188087409369316, 0.002383795609974007, 0.022725618363260928, 0.00547845478069191, 0.004677067203485255, -0.0032494763952180756, 0.0029144606024506664, 0.00112768515495643, 0.00441402504188893, 0.00499006426532004, 0.017488562975197637, 0.0027868912342200415, 0.014112226049282976, 0.0050423823700841836, 0.0034339155673385902, -0.005853596216934422, 0.009686398609754069, -0.011899572717523408, 0.008007836138968641, 0.027248978436298348, 0.008740750116505911, 0.004012786939636139, -0.019110440557554436, -0.007172276220872853, -1.4839482901160077e-05, -7.26147400167189e-05, -0.004614390740175044, 0.013456726313068683, -0.001712933145710971], [0.03397422480086499, -0.004649481524227801, 0.010330629195771972, -0.014124710451881642, -0.013030054099881914, 0.03054203793812347, 0.017220178230483395, 0.01671135330554663, -0.015400946244662777, -0.018019174541479263, -0.00943588311832496, -0.015565683038129738, 0.01339388673784409, -0.0036544572885680864, 0.00711258030829731, 0.02568557492491499, -0.005321308136313913, 0.006012473293131209, -0.008681982578314403, 0.004148143816318459, 0.006421697199153333, 0.016409527661040337, 0.027076898135227043, 0.012197323212761143, 0.0009604369487417934, 0.004430896094684973, -0.00824484342459295, -0.0023218135842135766, 0.00231200470519108, -0.03156155024333533, -0.012306825718403608, 0.009401263343998262, 0.0020714417380905906, -0.007749063370330625, -0.022834150761027357, -0.002475490288212592, 0.006673978769434676, -0.02537475477092027, -0.007400697060688714, 0.0012878357709260268, -0.004296046384220783, 0.01770597370972133, -0.009442434517675579, -0.014346931461527502, 0.001581623316140651, -0.007557347384194721, 0.01690096130838294, 0.001894388788192731, -0.006924785926168468, -0.005337558347905745, -0.0016602110103586451, -0.0029480444713135667, 0.005678644266757309, 0.0027327525864013803, -0.020045889462651977, -0.013889155949948476, -0.01078505233256527, 0.02609991504104776, 0.007824426745394896, -0.0037918688847339245, 0.008866766563798235, 0.017710066990364898, 0.007988241198908305, -0.002994561448353414, 0.013850357373188547, 0.014450253167205773, 0.010632088360656183, -0.025516380009107775, 0.00828399153152494, 0.01667044449367989, -0.005458205027740217, 0.0062570380786837005, 0.002870920690645587, -0.011972581677631697, -0.003436152990870996, -0.009580859005887454, 0.007661728956688799, 0.0005063870752476635, 0.0007651510277426919, 0.004556933619951751, 0.006819175291084895, 0.017094575617276682, -0.015157512127097657, 0.0038441374569750573, -0.009948630545201356, 0.0027029468159687816, -0.011783315546638163, -0.013677317618490321, -0.0016956364947398135, 0.01961564464205332, 0.007324300116710078, 0.017114854223614723, 0.00561434136826225, 0.021301319093043638, 0.019521181257295572, 0.007006765456212003, -0.0028481465968069283, 0.008954323142485315, 0.023760408304006282, -0.005369579337486202, -0.016395645832529903, -0.0008429987853152367, 0.03069502747624945, -0.001573541401782041, 0.01380891538537787, 0.0007316453681401371, -0.0021519258872304864, -0.016274764916289097, -0.003427215378283971, 0.0006127941343354673, -0.006085142497851443, 0.0011077153979249235, -0.0029642483081094226, -0.0030563353407857988, -0.027751534929628015, 0.025289934350969233, -0.010120773426976922, 0.005334079992103633, 0.002516240646601322, -0.0015952143421595034, -0.0027741260277592385, -0.007015909992506923, -0.0017776110280300005, 0.00996401117249606, -0.009973541493344267, 0.02439404297863326, 0.02184027578085645, -0.0014177110995857274], [0.1733318475341863, -0.15013973516858056, -0.03795157971190529, -0.14427777443951595, -0.008432474016703072, 0.03535837422503171, 0.014741550955407707, 0.16978771222751915, -0.11413107937545686, -0.13837035118932386, -0.13389304629444126, -0.0038836597435558022, -0.13891510700005463, 0.11567175089179388, -0.03799238798871848, 0.15044575014870007, 0.09753970170735138, 0.0011478035670284036, -0.04370914248633172, -0.15419041669730998, 0.12293961306414228, 0.13398062566356955, 0.09063224979614228, 0.08490925945185684, -0.02520443943403991, 0.15112512671088218, -0.013299446048696576, 0.035722763501876365, 0.016132615231792987, -0.16232942114346025, -0.21100352334253084, 0.10423990256769874, 0.020900129795371408, -0.07273897980691979, -0.24776965859331324, -0.024833490998183223, 0.008967443076680357, -0.16286724539508424, -0.09765771055068866, 0.09663410172503582, -0.12992488171092034, -0.08502046995931113, -0.12926276862888275, 0.01104493513443785, 0.14449696346533356, -0.0015625172351738485, 0.16686920805457836, 0.12787240697057023, -0.11748073304737162, -0.09909039623425346, 0.06989612693957839, -0.20228219117149504, 0.1306829857390741, 0.09550529787593755, -0.14119300366209261, -0.0004166092437181386, -0.16280749136761177, 0.14315868103641144, 0.18501341904272803, -0.02450033203221502, -0.12949684256385807, 0.1685318861756507, 0.06054382982771602, -0.08824408240746823, 0.058547950142341966, -0.1065386180351096, 0.13585035689827094, 0.027986340544977315, -0.11731239389518086, 0.13554669295362445, 0.0045133862715770745, 0.10860663298212829, -0.05545109774804226, -0.11065151568054162, -0.0770241053726478, 0.12353973890408809, -0.001432482498495899, 